{
    "conv1.0.weight": [
        [
            [
                [
                    -0.03207744285464287,
                    0.000859024643432349,
                    -0.05521710589528084
                ],
                [
                    -0.062080007046461105,
                    -0.06732507050037384,
                    -0.05928605794906616
                ],
                [
                    -0.055156562477350235,
                    0.05073520913720131,
                    -0.0011096156667917967
                ]
            ],
            [
                [
                    0.035254959017038345,
                    -0.07613285630941391,
                    0.013267588801681995
                ],
                [
                    0.006909227930009365,
                    0.07856738567352295,
                    0.03861279413104057
                ],
                [
                    -0.03750031441450119,
                    -0.07125706225633621,
                    0.050408270210027695
                ]
            ],
            [
                [
                    -0.042170774191617966,
                    0.029648706316947937,
                    -0.054173149168491364
                ],
                [
                    0.0446426123380661,
                    0.042045958340168,
                    0.012090213596820831
                ],
                [
                    -0.10043711960315704,
                    0.009560790844261646,
                    0.046868860721588135
                ]
            ],
            [
                [
                    -0.06214694678783417,
                    0.05646858736872673,
                    0.019359789788722992
                ],
                [
                    0.12060572952032089,
                    -0.05888095498085022,
                    -0.02814694494009018
                ],
                [
                    0.09217178821563721,
                    0.11350653320550919,
                    0.013566152192652225
                ]
            ],
            [
                [
                    0.06109418720006943,
                    -0.0567573606967926,
                    0.025617877021431923
                ],
                [
                    -0.021409617736935616,
                    -0.035877130925655365,
                    -0.0015372138004750013
                ],
                [
                    0.07911460101604462,
                    0.010666926391422749,
                    0.029795201495289803
                ]
            ],
            [
                [
                    0.016794255003333092,
                    -0.025447815656661987,
                    -0.027162907645106316
                ],
                [
                    -0.026591438800096512,
                    0.01754600927233696,
                    -0.11339988559484482
                ],
                [
                    -0.11092372238636017,
                    -0.004167011473327875,
                    -0.031135067343711853
                ]
            ],
            [
                [
                    0.016395388171076775,
                    -0.10406529158353806,
                    0.10311071574687958
                ],
                [
                    -0.0017820263747125864,
                    -0.02543880045413971,
                    -0.01260855607688427
                ],
                [
                    -0.025177961215376854,
                    0.04984377324581146,
                    -0.022656593471765518
                ]
            ],
            [
                [
                    -0.10179172456264496,
                    -0.10226085036993027,
                    0.08298537880182266
                ],
                [
                    0.1159990131855011,
                    0.03671443089842796,
                    -0.09499938040971756
                ],
                [
                    0.05131801590323448,
                    0.08535009622573853,
                    0.1586109697818756
                ]
            ],
            [
                [
                    -0.009459520690143108,
                    -0.039254941046237946,
                    0.010791276581585407
                ],
                [
                    0.00012099532614229247,
                    -0.06344133615493774,
                    -0.010205458849668503
                ],
                [
                    -0.0025173660833388567,
                    -0.0733228325843811,
                    -0.20289231836795807
                ]
            ],
            [
                [
                    0.07269386947154999,
                    -0.04394293949007988,
                    0.0309081319719553
                ],
                [
                    -0.0026589608751237392,
                    -0.05881127342581749,
                    -0.023014448583126068
                ],
                [
                    0.07138832658529282,
                    0.02814258262515068,
                    0.045783281326293945
                ]
            ],
            [
                [
                    -0.05077841505408287,
                    0.0022956840693950653,
                    -0.06652984768152237
                ],
                [
                    0.005018422845751047,
                    0.061803724616765976,
                    0.04671233892440796
                ],
                [
                    0.03643423318862915,
                    0.0795302614569664,
                    -0.021246211603283882
                ]
            ],
            [
                [
                    0.040323130786418915,
                    0.04304071515798569,
                    -0.09813179075717926
                ],
                [
                    -0.01666555367410183,
                    0.014391643926501274,
                    0.07498887181282043
                ],
                [
                    0.004270315635949373,
                    -0.05980227142572403,
                    0.03697127848863602
                ]
            ],
            [
                [
                    -0.0024051470682024956,
                    0.0013719889102503657,
                    -0.07311991602182388
                ],
                [
                    0.2588292360305786,
                    0.06743820756673813,
                    0.2045135498046875
                ],
                [
                    0.08148293942213058,
                    0.020679496228694916,
                    0.1775393933057785
                ]
            ],
            [
                [
                    0.07658901810646057,
                    -0.09188172966241837,
                    0.03981057181954384
                ],
                [
                    -0.006310001015663147,
                    0.048714008182287216,
                    0.07934727519750595
                ],
                [
                    -0.07080483436584473,
                    -0.03574307635426521,
                    0.08564582467079163
                ]
            ]
        ],
        [
            [
                [
                    0.021598754450678825,
                    0.040094465017318726,
                    -0.02903006598353386
                ],
                [
                    0.02780509740114212,
                    0.05202086642384529,
                    0.013267189264297485
                ],
                [
                    0.02785237319767475,
                    0.04861905425786972,
                    -0.01901911571621895
                ]
            ],
            [
                [
                    0.09257270395755768,
                    -0.06239492818713188,
                    0.058857548981904984
                ],
                [
                    0.03042074851691723,
                    0.10455997288227081,
                    0.03118084743618965
                ],
                [
                    -0.0004728352651000023,
                    0.08285734802484512,
                    -0.024786431342363358
                ]
            ],
            [
                [
                    0.03820580244064331,
                    -0.11190782487392426,
                    0.03671235218644142
                ],
                [
                    0.046980783343315125,
                    0.00887416023761034,
                    -0.023424586281180382
                ],
                [
                    -0.08161944150924683,
                    0.004740560427308083,
                    0.018641021102666855
                ]
            ],
            [
                [
                    0.04250076040625572,
                    0.08598925173282623,
                    -0.05765407904982567
                ],
                [
                    -0.048086978495121,
                    -0.024252265691757202,
                    0.05397024378180504
                ],
                [
                    0.13345909118652344,
                    -0.031204108148813248,
                    0.006194370798766613
                ]
            ],
            [
                [
                    -0.11133896559476852,
                    -0.03690569847822189,
                    0.03217237442731857
                ],
                [
                    0.051210299134254456,
                    -0.025935430079698563,
                    -0.14392341673374176
                ],
                [
                    0.03917306661605835,
                    0.006650030612945557,
                    -0.06217603385448456
                ]
            ],
            [
                [
                    0.06301265209913254,
                    0.02304747886955738,
                    -0.03538922220468521
                ],
                [
                    -0.11839685589075089,
                    0.02370741032063961,
                    0.08752329647541046
                ],
                [
                    0.008847915567457676,
                    -0.0882032960653305,
                    0.16051365435123444
                ]
            ],
            [
                [
                    0.01515185460448265,
                    0.08063052594661713,
                    -0.0730099231004715
                ],
                [
                    0.007973521016538143,
                    0.029226256534457207,
                    0.03557942062616348
                ],
                [
                    -0.02807305008172989,
                    -0.0043164463713765144,
                    -0.03937970846891403
                ]
            ],
            [
                [
                    -0.05992954596877098,
                    0.0002460374671500176,
                    -0.0458204485476017
                ],
                [
                    0.010800675489008427,
                    0.026069939136505127,
                    0.15866529941558838
                ],
                [
                    0.007748953066766262,
                    0.011227095499634743,
                    -0.06369951367378235
                ]
            ],
            [
                [
                    0.024379532784223557,
                    -0.0818190798163414,
                    -0.015634389594197273
                ],
                [
                    -0.06347212195396423,
                    -0.03682976961135864,
                    -0.0357016995549202
                ],
                [
                    -0.0030846588779240847,
                    -0.08789730817079544,
                    0.013841847889125347
                ]
            ],
            [
                [
                    0.009998602792620659,
                    0.06442833691835403,
                    0.007939761504530907
                ],
                [
                    0.06753984838724136,
                    0.07872588187456131,
                    0.06720384955406189
                ],
                [
                    -0.008183457888662815,
                    -0.026461375877261162,
                    0.03231444209814072
                ]
            ],
            [
                [
                    0.01919039711356163,
                    -0.030594244599342346,
                    0.0754295215010643
                ],
                [
                    -0.011613410897552967,
                    0.0638735443353653,
                    0.05362049117684364
                ],
                [
                    0.04736669361591339,
                    0.06387785077095032,
                    -0.03510192409157753
                ]
            ],
            [
                [
                    0.11373681575059891,
                    0.03751511871814728,
                    0.06086130067706108
                ],
                [
                    -0.04980766028165817,
                    0.08476215600967407,
                    0.07200957834720612
                ],
                [
                    0.057649869471788406,
                    -0.0293751060962677,
                    -0.09416037797927856
                ]
            ],
            [
                [
                    -0.033577267080545425,
                    0.039436109364032745,
                    0.009585044346749783
                ],
                [
                    -0.008553671650588512,
                    0.08430740982294083,
                    0.10642380267381668
                ],
                [
                    0.09672719240188599,
                    -0.008653666824102402,
                    0.07705996185541153
                ]
            ],
            [
                [
                    -0.03575844690203667,
                    -0.03566766157746315,
                    -0.008213392458856106
                ],
                [
                    0.01116363238543272,
                    0.04388568177819252,
                    -0.005484037101268768
                ],
                [
                    0.02689465507864952,
                    0.03420183062553406,
                    0.10683714598417282
                ]
            ]
        ],
        [
            [
                [
                    -0.08027901500463486,
                    -0.06671018153429031,
                    -0.058067865669727325
                ],
                [
                    0.01515327300876379,
                    -0.07555361837148666,
                    -0.0007812337717041373
                ],
                [
                    0.051621951162815094,
                    -0.0105975903570652,
                    -0.043456051498651505
                ]
            ],
            [
                [
                    0.014136003330349922,
                    0.06894400715827942,
                    -0.059549856930971146
                ],
                [
                    0.03558626025915146,
                    -0.004268862772732973,
                    -0.026075121015310287
                ],
                [
                    -0.05103113502264023,
                    0.010822544805705547,
                    0.05040226876735687
                ]
            ],
            [
                [
                    -0.044105783104896545,
                    0.09274756163358688,
                    0.03656367212533951
                ],
                [
                    -0.033246491104364395,
                    0.04670841246843338,
                    0.04449969530105591
                ],
                [
                    -0.10370224714279175,
                    0.030598362907767296,
                    0.002841987879946828
                ]
            ],
            [
                [
                    0.07404027879238129,
                    -0.05092380568385124,
                    0.04382212832570076
                ],
                [
                    -0.058248285204172134,
                    0.013008457608520985,
                    -0.12051435559988022
                ],
                [
                    0.036143071949481964,
                    0.08437012135982513,
                    0.02214738354086876
                ]
            ],
            [
                [
                    0.03992609307169914,
                    0.062013376504182816,
                    0.04455419257283211
                ],
                [
                    0.0535912923514843,
                    0.03515570983290672,
                    -0.06583494693040848
                ],
                [
                    0.12775062024593353,
                    -0.10332981497049332,
                    -0.0648757740855217
                ]
            ],
            [
                [
                    -0.016461139544844627,
                    -0.098335862159729,
                    -0.09554821997880936
                ],
                [
                    -0.04807508736848831,
                    -0.07268011569976807,
                    0.11443108320236206
                ],
                [
                    0.007480073254555464,
                    -0.03543076291680336,
                    0.09246715903282166
                ]
            ],
            [
                [
                    -0.027592631056904793,
                    0.0019559047650545835,
                    -0.013070834800601006
                ],
                [
                    -0.0006764986901544034,
                    -0.016817044466733932,
                    0.014663484878838062
                ],
                [
                    -0.032436057925224304,
                    0.028817974030971527,
                    0.005005892366170883
                ]
            ],
            [
                [
                    0.1100047305226326,
                    0.08190280199050903,
                    0.03094763495028019
                ],
                [
                    0.0726211816072464,
                    0.07863032072782516,
                    -0.019039591774344444
                ],
                [
                    -0.07863517105579376,
                    0.034721314907073975,
                    0.017977848649024963
                ]
            ],
            [
                [
                    -0.03381885960698128,
                    0.008848484605550766,
                    0.0381174273788929
                ],
                [
                    -0.05533308535814285,
                    -0.024063291028141975,
                    -0.013483141548931599
                ],
                [
                    0.04989325627684593,
                    -0.045231226831674576,
                    0.07134418189525604
                ]
            ],
            [
                [
                    0.02922693081200123,
                    0.081372931599617,
                    -0.05510057881474495
                ],
                [
                    -0.01736482046544552,
                    -0.10361827164888382,
                    0.10991246998310089
                ],
                [
                    -0.020388228818774223,
                    0.12579964101314545,
                    -0.05958380550146103
                ]
            ],
            [
                [
                    0.017936931923031807,
                    -0.02026519738137722,
                    0.013984316028654575
                ],
                [
                    0.023762177675962448,
                    0.0033653394784778357,
                    -0.11684362590312958
                ],
                [
                    -0.06969510763883591,
                    0.08970151841640472,
                    0.05028441920876503
                ]
            ],
            [
                [
                    0.0746317207813263,
                    -0.04166776314377785,
                    -0.05514091998338699
                ],
                [
                    0.09372536838054657,
                    -0.019594790413975716,
                    -0.04436256363987923
                ],
                [
                    0.07864255458116531,
                    -0.04507939890027046,
                    -0.026877332478761673
                ]
            ],
            [
                [
                    0.08612185716629028,
                    0.04612044245004654,
                    0.12700194120407104
                ],
                [
                    0.041428595781326294,
                    -0.02878390997648239,
                    0.1208108514547348
                ],
                [
                    -0.01094408892095089,
                    0.09854348003864288,
                    0.016787994652986526
                ]
            ],
            [
                [
                    0.026797404512763023,
                    0.0510522685945034,
                    0.006027823779731989
                ],
                [
                    -0.013319547288119793,
                    -0.005488131195306778,
                    0.02213396690785885
                ],
                [
                    -0.04509632661938667,
                    0.043897733092308044,
                    -0.12845535576343536
                ]
            ]
        ],
        [
            [
                [
                    0.08883793652057648,
                    0.04554383456707001,
                    0.1007620170712471
                ],
                [
                    -0.07859990000724792,
                    -0.028901193290948868,
                    0.11446521431207657
                ],
                [
                    -0.0898258313536644,
                    0.11575036495923996,
                    0.1345076709985733
                ]
            ],
            [
                [
                    -0.0970681756734848,
                    0.031111275777220726,
                    -0.020607179030776024
                ],
                [
                    -0.03301985561847687,
                    0.07264202833175659,
                    0.02420429140329361
                ],
                [
                    0.01787881925702095,
                    -0.05963924527168274,
                    0.06964313983917236
                ]
            ],
            [
                [
                    -0.017036912962794304,
                    0.05813538283109665,
                    -0.11173512041568756
                ],
                [
                    -0.13349546492099762,
                    -0.13004237413406372,
                    -0.05966176465153694
                ],
                [
                    0.01708292029798031,
                    -0.06513812392950058,
                    0.09759117662906647
                ]
            ],
            [
                [
                    0.01614987850189209,
                    -0.04745715484023094,
                    0.14498992264270782
                ],
                [
                    -0.0074299839325249195,
                    0.027390796691179276,
                    0.04672447592020035
                ],
                [
                    0.04577606916427612,
                    0.10285593569278717,
                    0.05793356895446777
                ]
            ],
            [
                [
                    0.04462965950369835,
                    -0.021317509934306145,
                    -0.061366789042949677
                ],
                [
                    0.01974932663142681,
                    -0.14947549998760223,
                    -0.09456834197044373
                ],
                [
                    -0.044215962290763855,
                    0.05090847983956337,
                    0.026644568890333176
                ]
            ],
            [
                [
                    0.11217439919710159,
                    -0.08242573589086533,
                    -0.12425655871629715
                ],
                [
                    -0.034957997500896454,
                    -0.07662899792194366,
                    -0.11180166155099869
                ],
                [
                    0.020551636815071106,
                    0.011822258122265339,
                    0.013726274482905865
                ]
            ],
            [
                [
                    -0.004694117233157158,
                    -0.03198826685547829,
                    0.04796469584107399
                ],
                [
                    -0.012814708985388279,
                    -0.07706164568662643,
                    0.0012889520730823278
                ],
                [
                    0.060066137462854385,
                    -0.07125400751829147,
                    0.006644146051257849
                ]
            ],
            [
                [
                    0.05681727081537247,
                    0.03236779943108559,
                    -0.1481301486492157
                ],
                [
                    0.05440346151590347,
                    0.02524026483297348,
                    0.04491967707872391
                ],
                [
                    -0.10848924517631531,
                    0.043319277465343475,
                    -0.03650696575641632
                ]
            ],
            [
                [
                    -0.020961666479706764,
                    -0.0599028617143631,
                    -0.02068769745528698
                ],
                [
                    -0.01342928595840931,
                    0.040881700813770294,
                    0.060603734105825424
                ],
                [
                    -0.02504458837211132,
                    0.03305789828300476,
                    -0.003175150603055954
                ]
            ],
            [
                [
                    0.04129824414849281,
                    -0.06173115223646164,
                    0.033334072679281235
                ],
                [
                    -0.07175836712121964,
                    -0.0501471646130085,
                    0.05575451999902725
                ],
                [
                    -0.024294137954711914,
                    -0.021750403568148613,
                    0.015184339135885239
                ]
            ],
            [
                [
                    -0.022076833993196487,
                    0.008470391854643822,
                    -0.06835614144802094
                ],
                [
                    -0.02070787362754345,
                    -0.08328467607498169,
                    0.02698516845703125
                ],
                [
                    0.03956267610192299,
                    0.05565952509641647,
                    -0.049901895225048065
                ]
            ],
            [
                [
                    -0.020541967824101448,
                    -0.09136387705802917,
                    0.0676247775554657
                ],
                [
                    0.06575458496809006,
                    0.02918488346040249,
                    -0.06685387343168259
                ],
                [
                    0.027169767767190933,
                    0.021776283159852028,
                    -0.07795502990484238
                ]
            ],
            [
                [
                    -0.024641769006848335,
                    -0.06767001748085022,
                    -0.04019797220826149
                ],
                [
                    -0.11967308819293976,
                    -0.11661366373300552,
                    -0.0875762328505516
                ],
                [
                    -0.03831008821725845,
                    -0.16253243386745453,
                    0.08685989677906036
                ]
            ],
            [
                [
                    0.03643327206373215,
                    -0.05386579409241676,
                    -0.08848271518945694
                ],
                [
                    0.020678162574768066,
                    0.042341504245996475,
                    -0.07344435155391693
                ],
                [
                    -0.0228932723402977,
                    0.020629633218050003,
                    0.026986630633473396
                ]
            ]
        ],
        [
            [
                [
                    0.0016442645573988557,
                    -0.00477573974058032,
                    -0.08526846021413803
                ],
                [
                    0.001494349678978324,
                    0.07612632215023041,
                    0.04463393986225128
                ],
                [
                    0.05925219506025314,
                    0.024706514552235603,
                    0.004715492948889732
                ]
            ],
            [
                [
                    -0.10881976783275604,
                    0.073945552110672,
                    -0.03147106245160103
                ],
                [
                    -0.11604787409305573,
                    0.05344466492533684,
                    0.009731392376124859
                ],
                [
                    -0.18075211346149445,
                    -0.06189068779349327,
                    -0.0665111169219017
                ]
            ],
            [
                [
                    0.024993902072310448,
                    -0.07037374377250671,
                    0.026350244879722595
                ],
                [
                    0.022532397881150246,
                    0.06469956785440445,
                    -0.05273226276040077
                ],
                [
                    0.04719272255897522,
                    -0.013311927206814289,
                    0.008021052926778793
                ]
            ],
            [
                [
                    0.03441524878144264,
                    0.013158198446035385,
                    -0.015531476587057114
                ],
                [
                    -0.01733621582388878,
                    0.02020050212740898,
                    0.00029614646336995065
                ],
                [
                    0.00784287415444851,
                    -0.006244068965315819,
                    -0.029508909210562706
                ]
            ],
            [
                [
                    -0.04986535385251045,
                    -0.020563486963510513,
                    0.10538732260465622
                ],
                [
                    0.004877076018601656,
                    -0.07758144289255142,
                    0.019412215799093246
                ],
                [
                    -0.038157954812049866,
                    -0.08895077556371689,
                    -0.07310255616903305
                ]
            ],
            [
                [
                    0.03000793047249317,
                    -0.021054187789559364,
                    0.09133375436067581
                ],
                [
                    0.07017260789871216,
                    -0.029337776824831963,
                    0.07395076006650925
                ],
                [
                    -0.06518397480249405,
                    -0.08917859196662903,
                    -0.09654614329338074
                ]
            ],
            [
                [
                    0.01577855460345745,
                    -0.03285982087254524,
                    -0.02327408641576767
                ],
                [
                    -0.00612420542165637,
                    0.03574911877512932,
                    0.006316766608506441
                ],
                [
                    -0.034717317670583725,
                    0.0258969496935606,
                    -0.006709508132189512
                ]
            ],
            [
                [
                    -0.01164350938051939,
                    0.11470378935337067,
                    -0.09053517878055573
                ],
                [
                    -0.02350626140832901,
                    0.007350709289312363,
                    0.1310126930475235
                ],
                [
                    -0.05520370230078697,
                    -0.0654405802488327,
                    -0.09809288382530212
                ]
            ],
            [
                [
                    -0.03713652119040489,
                    0.0003270276356488466,
                    -0.041554924100637436
                ],
                [
                    -0.01647886075079441,
                    -0.019426556304097176,
                    -0.08340056240558624
                ],
                [
                    -0.0579671710729599,
                    -0.03831874206662178,
                    -0.06947530806064606
                ]
            ],
            [
                [
                    0.10842513293027878,
                    0.09762809425592422,
                    0.10523123294115067
                ],
                [
                    0.05331357195973396,
                    0.026284752413630486,
                    -0.09186622500419617
                ],
                [
                    0.001566234859637916,
                    0.06027402728796005,
                    0.11026253551244736
                ]
            ],
            [
                [
                    0.02842433750629425,
                    0.07547574490308762,
                    -0.05257232114672661
                ],
                [
                    0.06377934664487839,
                    -0.04463430494070053,
                    0.06851900368928909
                ],
                [
                    0.037573810666799545,
                    0.0391901396214962,
                    0.04957567900419235
                ]
            ],
            [
                [
                    -0.020372215658426285,
                    -0.014970321208238602,
                    0.03025912493467331
                ],
                [
                    0.0044641997665166855,
                    -0.08822804689407349,
                    0.03108508139848709
                ],
                [
                    0.09572384506464005,
                    -0.08276550471782684,
                    -0.03249673172831535
                ]
            ],
            [
                [
                    0.18675072491168976,
                    0.07890068739652634,
                    -0.03350946679711342
                ],
                [
                    -0.18401677906513214,
                    -0.0546654537320137,
                    0.013743885792791843
                ],
                [
                    -0.011672993190586567,
                    -0.017451994121074677,
                    -0.08246123790740967
                ]
            ],
            [
                [
                    -0.043092984706163406,
                    -0.06749032437801361,
                    0.07957220077514648
                ],
                [
                    -0.05422365292906761,
                    0.023572206497192383,
                    -0.03505851700901985
                ],
                [
                    -0.01487230695784092,
                    -0.01817415840923786,
                    0.038237251341342926
                ]
            ]
        ],
        [
            [
                [
                    0.039442386478185654,
                    0.017492450773715973,
                    -0.0014528814936056733
                ],
                [
                    0.07674013823270798,
                    0.11871670931577682,
                    0.13384823501110077
                ],
                [
                    0.05861282721161842,
                    -0.0589803121984005,
                    -0.026278644800186157
                ]
            ],
            [
                [
                    0.05191998928785324,
                    -0.08254735171794891,
                    -0.05051581561565399
                ],
                [
                    0.016925454139709473,
                    -0.041233278810977936,
                    -0.01252752635627985
                ],
                [
                    -0.061205826699733734,
                    -0.06462633609771729,
                    -0.037967223674058914
                ]
            ],
            [
                [
                    -0.08634207397699356,
                    0.19059917330741882,
                    0.05198219045996666
                ],
                [
                    -0.029559314250946045,
                    -0.03592346981167793,
                    -0.06835968792438507
                ],
                [
                    -0.0330270454287529,
                    0.01721053756773472,
                    -0.00403478043153882
                ]
            ],
            [
                [
                    0.007993118837475777,
                    0.021319765597581863,
                    0.04547984525561333
                ],
                [
                    -0.02634914591908455,
                    -0.09872983396053314,
                    0.1267237812280655
                ],
                [
                    0.09309813380241394,
                    0.027754317969083786,
                    0.037270352244377136
                ]
            ],
            [
                [
                    -0.007823897525668144,
                    -0.015099911950528622,
                    0.0527753122150898
                ],
                [
                    0.014149405062198639,
                    0.0742424950003624,
                    0.031706031411886215
                ],
                [
                    0.002885036403313279,
                    0.01440843939781189,
                    -0.0489637553691864
                ]
            ],
            [
                [
                    0.14768549799919128,
                    0.08266021311283112,
                    0.12757477164268494
                ],
                [
                    -0.13446764647960663,
                    0.038776006549596786,
                    -0.05606888234615326
                ],
                [
                    0.14899440109729767,
                    -0.020102085545659065,
                    0.00851291511207819
                ]
            ],
            [
                [
                    -0.06305927038192749,
                    0.002473321044817567,
                    0.016425183042883873
                ],
                [
                    0.0580432265996933,
                    -0.00020154887170065194,
                    -0.03263361379504204
                ],
                [
                    -0.09492480009794235,
                    0.015049020759761333,
                    0.04729779064655304
                ]
            ],
            [
                [
                    0.002821715082973242,
                    0.12259187549352646,
                    -0.10929650068283081
                ],
                [
                    -0.12512806057929993,
                    -0.03039354458451271,
                    0.06030617654323578
                ],
                [
                    0.05492815002799034,
                    -0.07178109884262085,
                    -0.0874791070818901
                ]
            ],
            [
                [
                    -0.07327548414468765,
                    -0.17220260202884674,
                    0.03737649321556091
                ],
                [
                    -0.053802262991666794,
                    -0.0060861422680318356,
                    -0.09458667784929276
                ],
                [
                    -0.09130316227674484,
                    -0.10323793441057205,
                    -0.08144152164459229
                ]
            ],
            [
                [
                    -0.029766708612442017,
                    -0.11404065787792206,
                    -0.09121733158826828
                ],
                [
                    0.00834899116307497,
                    0.06856219470500946,
                    0.004587749484926462
                ],
                [
                    0.01716073416173458,
                    0.0672839879989624,
                    0.0163447093218565
                ]
            ],
            [
                [
                    0.03457224741578102,
                    -0.06181132793426514,
                    0.07250887155532837
                ],
                [
                    0.00397814204916358,
                    -0.08614327013492584,
                    -0.09860116988420486
                ],
                [
                    0.004582516849040985,
                    0.02306891791522503,
                    0.019659625366330147
                ]
            ],
            [
                [
                    -0.058711230754852295,
                    0.1119425892829895,
                    0.07825665175914764
                ],
                [
                    0.11619357019662857,
                    -0.02612331137061119,
                    0.029323162510991096
                ],
                [
                    -0.01987314410507679,
                    0.02328505553305149,
                    -0.033729273825883865
                ]
            ],
            [
                [
                    0.02922007441520691,
                    0.16356144845485687,
                    0.07800376415252686
                ],
                [
                    -0.07341694831848145,
                    0.09672132879495621,
                    -0.02782335691154003
                ],
                [
                    -0.05015693977475166,
                    0.0801004022359848,
                    -0.14710122346878052
                ]
            ],
            [
                [
                    -0.07276329398155212,
                    -0.019895244389772415,
                    0.05680076405405998
                ],
                [
                    0.0569596104323864,
                    0.062258318066596985,
                    0.04987841472029686
                ],
                [
                    -0.03958754613995552,
                    -0.03617952764034271,
                    0.046126432716846466
                ]
            ]
        ],
        [
            [
                [
                    0.0048990207724273205,
                    0.0006946513312868774,
                    0.04563461244106293
                ],
                [
                    -0.09391090273857117,
                    0.06333810836076736,
                    0.04163581132888794
                ],
                [
                    -0.06257005780935287,
                    -0.040401484817266464,
                    0.09558239579200745
                ]
            ],
            [
                [
                    0.0251920148730278,
                    0.06614036858081818,
                    -0.01342854741960764
                ],
                [
                    -0.0531185157597065,
                    0.022156216204166412,
                    0.03089606761932373
                ],
                [
                    0.021175440400838852,
                    -0.08229239284992218,
                    -0.00732978293672204
                ]
            ],
            [
                [
                    -0.007037898991256952,
                    -0.15633630752563477,
                    0.046569809317588806
                ],
                [
                    0.07204463332891464,
                    0.018253225833177567,
                    -0.03215409815311432
                ],
                [
                    0.016500389203429222,
                    0.005569998174905777,
                    -0.026775047183036804
                ]
            ],
            [
                [
                    0.039864081889390945,
                    0.03261507302522659,
                    0.10417037457227707
                ],
                [
                    -0.12186401337385178,
                    0.11546086519956589,
                    -0.08397189527750015
                ],
                [
                    -0.06137577071785927,
                    -0.02890751138329506,
                    -0.024878332391381264
                ]
            ],
            [
                [
                    0.03736092522740364,
                    0.06737696379423141,
                    -0.06549599766731262
                ],
                [
                    -0.0468769334256649,
                    -0.018291469663381577,
                    -0.03603750467300415
                ],
                [
                    -0.05744310840964317,
                    0.048544224351644516,
                    -9.020204015541822e-05
                ]
            ],
            [
                [
                    -0.12675859034061432,
                    -0.020823432132601738,
                    0.03237432241439819
                ],
                [
                    0.09985911846160889,
                    -0.013893844559788704,
                    0.08341119438409805
                ],
                [
                    0.07549531012773514,
                    -0.06987140327692032,
                    0.10980352014303207
                ]
            ],
            [
                [
                    0.05179857835173607,
                    0.01894194260239601,
                    -0.051899611949920654
                ],
                [
                    -0.07502708584070206,
                    0.042796194553375244,
                    0.016132177785038948
                ],
                [
                    0.05560673028230667,
                    -0.030404575169086456,
                    -0.04132353514432907
                ]
            ],
            [
                [
                    0.04628985375165939,
                    0.04694725573062897,
                    0.05630684643983841
                ],
                [
                    0.15784457325935364,
                    0.01522510964423418,
                    0.05573230981826782
                ],
                [
                    0.01648031920194626,
                    0.03564905747771263,
                    0.02036491222679615
                ]
            ],
            [
                [
                    -0.015570083633065224,
                    -0.055403146892786026,
                    -0.029761850833892822
                ],
                [
                    -0.04893198981881142,
                    0.03558526933193207,
                    -0.032533302903175354
                ],
                [
                    -0.016432132571935654,
                    0.053429845720529556,
                    -0.05042019486427307
                ]
            ],
            [
                [
                    0.07509686052799225,
                    0.023419706150889397,
                    0.06479162722826004
                ],
                [
                    0.03921886160969734,
                    -0.008512026630342007,
                    -0.02422160468995571
                ],
                [
                    -0.06682416796684265,
                    0.024700192734599113,
                    0.08158838748931885
                ]
            ],
            [
                [
                    -0.0008170081418938935,
                    -0.03964998200535774,
                    0.0693829134106636
                ],
                [
                    -0.03254920244216919,
                    0.04598268121480942,
                    -0.024979829788208008
                ],
                [
                    -0.018028223887085915,
                    0.021287743002176285,
                    -0.005477930419147015
                ]
            ],
            [
                [
                    0.004496116656810045,
                    -0.061286989599466324,
                    -0.16935096681118011
                ],
                [
                    -0.10652627795934677,
                    0.13240228593349457,
                    0.016166577115654945
                ],
                [
                    -0.03767620027065277,
                    0.15682484209537506,
                    0.05441254377365112
                ]
            ],
            [
                [
                    0.1729469895362854,
                    -0.11580430716276169,
                    -0.0998266339302063
                ],
                [
                    0.14989839494228363,
                    -0.16011054813861847,
                    0.015599115751683712
                ],
                [
                    0.01570952869951725,
                    0.03354748338460922,
                    0.11911609768867493
                ]
            ],
            [
                [
                    -0.0873265415430069,
                    0.039400093257427216,
                    -0.02197287604212761
                ],
                [
                    -0.07627256214618683,
                    0.05987277626991272,
                    -0.09427652508020401
                ],
                [
                    0.03642638772726059,
                    0.04589926451444626,
                    0.02870347537100315
                ]
            ]
        ],
        [
            [
                [
                    -0.0032565887086093426,
                    -0.0035982399713248014,
                    -0.00997319258749485
                ],
                [
                    -0.06365101039409637,
                    0.03448142856359482,
                    -0.02864510379731655
                ],
                [
                    -0.094644695520401,
                    0.03773374855518341,
                    -0.02683410979807377
                ]
            ],
            [
                [
                    -0.08041784912347794,
                    0.07428274303674698,
                    -0.008626922965049744
                ],
                [
                    0.046783626079559326,
                    -0.05791395902633667,
                    0.02597605064511299
                ],
                [
                    -0.035932205617427826,
                    0.026935920119285583,
                    -0.05087697505950928
                ]
            ],
            [
                [
                    -0.012654310092329979,
                    0.029975442215800285,
                    -0.010947220958769321
                ],
                [
                    -0.03478657454252243,
                    -0.013880212791264057,
                    -0.043482616543769836
                ],
                [
                    0.08408370614051819,
                    -0.10394524037837982,
                    0.08420483022928238
                ]
            ],
            [
                [
                    0.04290212318301201,
                    -0.0681668072938919,
                    0.07283733785152435
                ],
                [
                    0.04264069348573685,
                    -0.009248040616512299,
                    -0.05444458872079849
                ],
                [
                    0.07137902826070786,
                    -0.11607307940721512,
                    0.07594595849514008
                ]
            ],
            [
                [
                    -0.06542801856994629,
                    0.050552207976579666,
                    0.050905514508485794
                ],
                [
                    0.07558324187994003,
                    0.02256971411406994,
                    -0.010936307720839977
                ],
                [
                    0.07509934902191162,
                    0.0021157299634069204,
                    0.05380420759320259
                ]
            ],
            [
                [
                    -0.028959330171346664,
                    0.0859159305691719,
                    -0.08983971178531647
                ],
                [
                    -0.10865452140569687,
                    0.0037188653368502855,
                    -0.004237565211951733
                ],
                [
                    -0.09730726480484009,
                    -0.19184930622577667,
                    0.0764354020357132
                ]
            ],
            [
                [
                    0.03779929131269455,
                    -0.02455550618469715,
                    -0.014547064900398254
                ],
                [
                    -0.010672533884644508,
                    0.056337565183639526,
                    0.017148805782198906
                ],
                [
                    0.03751503303647041,
                    -0.057854220271110535,
                    -0.007002927828580141
                ]
            ],
            [
                [
                    0.05306917056441307,
                    0.058790985494852066,
                    0.014388006180524826
                ],
                [
                    0.05136067792773247,
                    -0.037776216864585876,
                    -0.024988394230604172
                ],
                [
                    0.02773282676935196,
                    0.10592757165431976,
                    0.19352945685386658
                ]
            ],
            [
                [
                    -0.03931352123618126,
                    0.02182287909090519,
                    0.053968969732522964
                ],
                [
                    0.01849406771361828,
                    -0.026773648336529732,
                    0.02915314771234989
                ],
                [
                    0.003033372573554516,
                    -0.08790888637304306,
                    0.00819714367389679
                ]
            ],
            [
                [
                    -0.048415008932352066,
                    -0.02696143463253975,
                    -0.001625923323445022
                ],
                [
                    0.09787384420633316,
                    -0.03588167950510979,
                    0.0018252304289489985
                ],
                [
                    0.03799542784690857,
                    -0.003415570827201009,
                    -0.02192271687090397
                ]
            ],
            [
                [
                    -0.07937298715114594,
                    -0.002001508604735136,
                    -0.09398332983255386
                ],
                [
                    0.026384949684143066,
                    -0.013455618172883987,
                    0.08139804750680923
                ],
                [
                    0.029214179143309593,
                    0.04117170721292496,
                    -0.00779389776289463
                ]
            ],
            [
                [
                    -0.01867561787366867,
                    0.07488413155078888,
                    0.08041215687990189
                ],
                [
                    -0.03590187430381775,
                    0.08004415780305862,
                    0.02608952298760414
                ],
                [
                    0.016194326803088188,
                    -0.05841362103819847,
                    -0.009892217814922333
                ]
            ],
            [
                [
                    0.04512163996696472,
                    0.07409007847309113,
                    0.06872664391994476
                ],
                [
                    -0.056384630501270294,
                    -0.07090297341346741,
                    0.14693494141101837
                ],
                [
                    -0.10701098293066025,
                    0.03080284409224987,
                    0.04119040071964264
                ]
            ],
            [
                [
                    0.05898125842213631,
                    0.041883572936058044,
                    0.009329890832304955
                ],
                [
                    -0.04722084477543831,
                    -0.08290966600179672,
                    -0.06954219937324524
                ],
                [
                    0.03170713037252426,
                    -0.04867250472307205,
                    0.005100414622575045
                ]
            ]
        ],
        [
            [
                [
                    -0.072492316365242,
                    0.011939557269215584,
                    0.05421347916126251
                ],
                [
                    -0.02844155952334404,
                    0.007060126401484013,
                    -0.013403917662799358
                ],
                [
                    -0.03779769688844681,
                    0.08201345056295395,
                    0.041089754551649094
                ]
            ],
            [
                [
                    -0.02220197580754757,
                    -0.04790029302239418,
                    0.055375419557094574
                ],
                [
                    0.04160793498158455,
                    -0.050631873309612274,
                    -0.04594627022743225
                ],
                [
                    -0.056439358741045,
                    0.026141321286559105,
                    0.07328588515520096
                ]
            ],
            [
                [
                    -0.0674111470580101,
                    -0.020639430731534958,
                    -0.06159057095646858
                ],
                [
                    0.05160665139555931,
                    -0.10410715639591217,
                    0.02337687276303768
                ],
                [
                    0.03634490817785263,
                    0.10839458554983139,
                    0.04166705906391144
                ]
            ],
            [
                [
                    -0.017327602952718735,
                    -0.10980639606714249,
                    0.033981792628765106
                ],
                [
                    -0.07661823183298111,
                    0.06766989827156067,
                    -0.18474030494689941
                ],
                [
                    -0.045771073549985886,
                    -0.022114399820566177,
                    -0.07329517602920532
                ]
            ],
            [
                [
                    -0.028906647115945816,
                    -0.025675972923636436,
                    0.07422971725463867
                ],
                [
                    0.10807148367166519,
                    0.004603513982146978,
                    -0.0587632842361927
                ],
                [
                    -0.0019761137664318085,
                    -0.06548868864774704,
                    -0.008429684676229954
                ]
            ],
            [
                [
                    -0.15151163935661316,
                    -0.1663556843996048,
                    -0.038183510303497314
                ],
                [
                    -0.054884739220142365,
                    -0.04802059754729271,
                    0.0545276515185833
                ],
                [
                    0.13082928955554962,
                    0.14958418905735016,
                    -0.021291080862283707
                ]
            ],
            [
                [
                    -0.017618844285607338,
                    0.024627991020679474,
                    -0.035591840744018555
                ],
                [
                    0.018573418259620667,
                    0.0474991649389267,
                    0.0010983409592881799
                ],
                [
                    0.012889293022453785,
                    -0.010555786080658436,
                    -0.017607515677809715
                ]
            ],
            [
                [
                    -0.10454580187797546,
                    -0.14409832656383514,
                    -0.0138545585796237
                ],
                [
                    0.054211895912885666,
                    0.07040344178676605,
                    -0.005118671339005232
                ],
                [
                    0.06392669677734375,
                    0.10527490079402924,
                    0.01576535776257515
                ]
            ],
            [
                [
                    -0.036693274974823,
                    -0.0417298749089241,
                    -0.028347695246338844
                ],
                [
                    0.010800710879266262,
                    0.04329763352870941,
                    0.009807830676436424
                ],
                [
                    0.05550210922956467,
                    0.00686255656182766,
                    0.02196657285094261
                ]
            ],
            [
                [
                    -0.05502457916736603,
                    0.06412214785814285,
                    -0.10114700347185135
                ],
                [
                    0.03071202151477337,
                    0.08169684559106827,
                    0.005420983768999577
                ],
                [
                    -0.05176994949579239,
                    -0.07551967352628708,
                    0.03228401765227318
                ]
            ],
            [
                [
                    0.04458777233958244,
                    0.07533758133649826,
                    -0.033709075301885605
                ],
                [
                    -0.05541414022445679,
                    -0.022156698629260063,
                    -0.025363940745592117
                ],
                [
                    0.06014862656593323,
                    -0.10109713673591614,
                    0.06321953982114792
                ]
            ],
            [
                [
                    0.10044369101524353,
                    -0.01611189730465412,
                    0.04818359389901161
                ],
                [
                    0.05329839512705803,
                    0.0972505733370781,
                    0.009633366018533707
                ],
                [
                    -0.12688139081001282,
                    0.004420706070959568,
                    0.10333274304866791
                ]
            ],
            [
                [
                    -0.17527318000793457,
                    0.002939654281362891,
                    0.08869366347789764
                ],
                [
                    0.008434196934103966,
                    -0.06916102766990662,
                    -0.035157859325408936
                ],
                [
                    0.037634629756212234,
                    -0.07572010904550552,
                    -0.11577606946229935
                ]
            ],
            [
                [
                    0.01814812608063221,
                    -0.0805383175611496,
                    0.04692963510751724
                ],
                [
                    0.04914456233382225,
                    0.04030995815992355,
                    0.08500480651855469
                ],
                [
                    0.0010737173724919558,
                    -0.013682267628610134,
                    0.034465715289115906
                ]
            ]
        ],
        [
            [
                [
                    0.07789506018161774,
                    -0.03654741123318672,
                    -0.07257905602455139
                ],
                [
                    0.05490927770733833,
                    -0.05007873848080635,
                    -0.05746011808514595
                ],
                [
                    0.03544183075428009,
                    0.05270497873425484,
                    0.0010158345103263855
                ]
            ],
            [
                [
                    -0.0442068986594677,
                    -0.12775364518165588,
                    -0.099812351167202
                ],
                [
                    0.0028654965572059155,
                    -0.029483094811439514,
                    -0.09736817330121994
                ],
                [
                    -0.12791551649570465,
                    0.019894670695066452,
                    -0.10949631780385971
                ]
            ],
            [
                [
                    0.015028847381472588,
                    0.011596770957112312,
                    -0.029267163947224617
                ],
                [
                    0.05230897665023804,
                    -0.01867326721549034,
                    -0.048954833298921585
                ],
                [
                    -0.04975095018744469,
                    0.007500053383409977,
                    0.08441101014614105
                ]
            ],
            [
                [
                    0.04180540889501572,
                    -0.06585707515478134,
                    0.009851410053670406
                ],
                [
                    -0.0292921494692564,
                    0.0048644631169736385,
                    -0.036375828087329865
                ],
                [
                    0.07431119680404663,
                    0.021797766909003258,
                    0.02047855779528618
                ]
            ],
            [
                [
                    -0.011914432048797607,
                    -0.004533423110842705,
                    0.058051999658346176
                ],
                [
                    0.05459216609597206,
                    -0.039150554686784744,
                    -0.08475463092327118
                ],
                [
                    -0.0023392688017338514,
                    -0.04838935658335686,
                    0.04442625492811203
                ]
            ],
            [
                [
                    0.03713798150420189,
                    -0.09146443009376526,
                    0.07953551411628723
                ],
                [
                    0.07279569655656815,
                    0.003525432897731662,
                    0.15643198788166046
                ],
                [
                    0.05235668644309044,
                    0.005421429872512817,
                    -0.016068117693066597
                ]
            ],
            [
                [
                    -0.007817602716386318,
                    -0.047603730112314224,
                    0.0230532456189394
                ],
                [
                    0.03601333498954773,
                    -0.0065927994437515736,
                    0.015417546965181828
                ],
                [
                    -0.02332649566233158,
                    -0.017953945323824883,
                    -0.007372593507170677
                ]
            ],
            [
                [
                    0.024350348860025406,
                    0.010433335788547993,
                    0.01796625554561615
                ],
                [
                    -0.020130464807152748,
                    0.0354965515434742,
                    0.08157677203416824
                ],
                [
                    0.018142789602279663,
                    0.009323632344603539,
                    -0.04112467169761658
                ]
            ],
            [
                [
                    0.03774399310350418,
                    0.030662614852190018,
                    -0.07575025409460068
                ],
                [
                    -0.014045252464711666,
                    -0.04328443482518196,
                    -0.07243204861879349
                ],
                [
                    -0.019105087965726852,
                    -0.09291288256645203,
                    0.00824812799692154
                ]
            ],
            [
                [
                    0.006554200779646635,
                    -0.015317188575863838,
                    0.007411242928355932
                ],
                [
                    -0.1298712193965912,
                    -0.08597073704004288,
                    -0.3060396909713745
                ],
                [
                    -0.12962225079536438,
                    -0.1912025511264801,
                    -0.049859415739774704
                ]
            ],
            [
                [
                    -0.062432631850242615,
                    -0.08286955207586288,
                    -0.04902340844273567
                ],
                [
                    -0.02596563659608364,
                    0.0019441142212599516,
                    -0.019896643236279488
                ],
                [
                    -0.09151802957057953,
                    -0.09694881737232208,
                    -0.10539238154888153
                ]
            ],
            [
                [
                    0.01711188070476055,
                    -0.0394044928252697,
                    0.022498229518532753
                ],
                [
                    -0.0034262221306562424,
                    0.020742343738675117,
                    0.14334368705749512
                ],
                [
                    0.04358440265059471,
                    -0.007158474996685982,
                    -0.08050906658172607
                ]
            ],
            [
                [
                    0.04107935354113579,
                    0.04504949599504471,
                    5.671281542163342e-06
                ],
                [
                    -0.0010518799535930157,
                    0.14967255294322968,
                    0.06583650410175323
                ],
                [
                    -0.0028889193199574947,
                    0.1405297964811325,
                    0.028427360579371452
                ]
            ],
            [
                [
                    -0.01952219009399414,
                    0.04095376655459404,
                    -0.004986025858670473
                ],
                [
                    -0.03069167211651802,
                    0.030994659289717674,
                    -0.04946472495794296
                ],
                [
                    0.009466449730098248,
                    0.08859923481941223,
                    -0.07647229731082916
                ]
            ]
        ],
        [
            [
                [
                    0.09288664907217026,
                    0.11237438768148422,
                    0.11510271579027176
                ],
                [
                    -0.051486726850271225,
                    -0.03863406926393509,
                    0.07680194824934006
                ],
                [
                    0.05095786601305008,
                    0.06313517689704895,
                    -0.041353240609169006
                ]
            ],
            [
                [
                    -0.03455890342593193,
                    0.01099576335400343,
                    -0.04958338662981987
                ],
                [
                    -0.06845826655626297,
                    -0.010412446223199368,
                    0.04989899694919586
                ],
                [
                    0.027031801640987396,
                    -0.0007870852714404464,
                    0.021947354078292847
                ]
            ],
            [
                [
                    -0.020469868555665016,
                    0.15445269644260406,
                    0.03298748657107353
                ],
                [
                    0.04358142241835594,
                    0.11626557260751724,
                    -0.032151054590940475
                ],
                [
                    0.078720822930336,
                    -0.0839628279209137,
                    -0.03765792027115822
                ]
            ],
            [
                [
                    -0.007722418289631605,
                    -0.07466825842857361,
                    0.06930191069841385
                ],
                [
                    -0.07815930992364883,
                    -0.1118263453245163,
                    0.016169961541891098
                ],
                [
                    0.11131446808576584,
                    -0.029428493231534958,
                    0.10675836354494095
                ]
            ],
            [
                [
                    -0.07796086370944977,
                    -0.0503225103020668,
                    -0.02662464790046215
                ],
                [
                    -0.114664725959301,
                    0.010082007385790348,
                    -0.06483446806669235
                ],
                [
                    0.01414764765650034,
                    -0.01355998869985342,
                    -0.029355090111494064
                ]
            ],
            [
                [
                    0.06858503818511963,
                    0.05983549728989601,
                    0.17405147850513458
                ],
                [
                    0.04292932152748108,
                    0.17344766855239868,
                    0.12845611572265625
                ],
                [
                    0.06623895466327667,
                    0.13702373206615448,
                    0.04945126920938492
                ]
            ],
            [
                [
                    0.014821345917880535,
                    0.0016876966692507267,
                    -0.0161882396787405
                ],
                [
                    -0.00984938908368349,
                    -0.05994044616818428,
                    0.05083003267645836
                ],
                [
                    0.00574416434392333,
                    -0.034112319350242615,
                    0.0522434376180172
                ]
            ],
            [
                [
                    -0.0012961907777935266,
                    0.12655234336853027,
                    -0.06666558235883713
                ],
                [
                    -0.07652617990970612,
                    0.056386858224868774,
                    0.10481984913349152
                ],
                [
                    0.019518643617630005,
                    0.1187378391623497,
                    0.12111597508192062
                ]
            ],
            [
                [
                    0.008981335908174515,
                    0.02157163806259632,
                    -0.07260044664144516
                ],
                [
                    -0.08577080816030502,
                    -0.0030266752000898123,
                    0.051557756960392
                ],
                [
                    -0.011890546418726444,
                    -0.1007230207324028,
                    0.048075124621391296
                ]
            ],
            [
                [
                    -0.01877410337328911,
                    0.024596422910690308,
                    0.008722295984625816
                ],
                [
                    0.03811156004667282,
                    0.06937702745199203,
                    -0.06593415141105652
                ],
                [
                    -0.008325142785906792,
                    0.05609821528196335,
                    0.03008492849767208
                ]
            ],
            [
                [
                    -0.012342839501798153,
                    -0.008473862893879414,
                    -0.031165020540356636
                ],
                [
                    0.048849478363990784,
                    0.008624459616839886,
                    0.07097113132476807
                ],
                [
                    0.037698689848184586,
                    0.07595153152942657,
                    -0.0120614068582654
                ]
            ],
            [
                [
                    0.08802667260169983,
                    0.05615086480975151,
                    -0.12588825821876526
                ],
                [
                    -0.07357905060052872,
                    0.048929281532764435,
                    0.07973738014698029
                ],
                [
                    -0.017459461465477943,
                    0.029253214597702026,
                    -0.010301976464688778
                ]
            ],
            [
                [
                    -0.10770807415246964,
                    -0.07199512422084808,
                    -0.09781499207019806
                ],
                [
                    0.02231672778725624,
                    0.062092892825603485,
                    0.13104812800884247
                ],
                [
                    0.09751345962285995,
                    0.1163754090666771,
                    0.33430588245391846
                ]
            ],
            [
                [
                    0.03446025401353836,
                    0.02698175050318241,
                    -0.04751226678490639
                ],
                [
                    0.00672812620177865,
                    -0.0029952023178339005,
                    0.0223989300429821
                ],
                [
                    -0.06745759397745132,
                    -0.0542815662920475,
                    -0.006823079660534859
                ]
            ]
        ],
        [
            [
                [
                    0.03489255905151367,
                    0.02035733126103878,
                    -0.001460581086575985
                ],
                [
                    -0.03502051159739494,
                    -0.06288102269172668,
                    0.005672014784067869
                ],
                [
                    -0.05068255960941315,
                    0.07534298300743103,
                    -0.018467672169208527
                ]
            ],
            [
                [
                    -0.03946246951818466,
                    -0.04768770933151245,
                    0.019372785463929176
                ],
                [
                    -0.017125001177191734,
                    0.045587968081235886,
                    0.065598264336586
                ],
                [
                    0.08828377723693848,
                    -0.03006361983716488,
                    -0.006378586404025555
                ]
            ],
            [
                [
                    0.05775489658117294,
                    -0.10003557056188583,
                    0.0695895403623581
                ],
                [
                    0.06630197912454605,
                    0.015404464676976204,
                    -0.02020765282213688
                ],
                [
                    -0.06208191439509392,
                    0.16828593611717224,
                    0.10758936405181885
                ]
            ],
            [
                [
                    -0.17408278584480286,
                    0.0033224832732230425,
                    -0.08238101750612259
                ],
                [
                    0.02199605107307434,
                    -0.03250449150800705,
                    -6.59938232274726e-05
                ],
                [
                    -0.024631774052977562,
                    -0.1489623636007309,
                    -0.13583821058273315
                ]
            ],
            [
                [
                    -0.022850995883345604,
                    -0.08170939236879349,
                    -0.04114004597067833
                ],
                [
                    0.02883194386959076,
                    -0.10345889627933502,
                    0.0544804111123085
                ],
                [
                    -0.039068661630153656,
                    0.05047367885708809,
                    -0.02239835634827614
                ]
            ],
            [
                [
                    0.0718943327665329,
                    0.21307046711444855,
                    -0.0311465784907341
                ],
                [
                    0.11572587490081787,
                    0.05939710885286331,
                    0.09333466738462448
                ],
                [
                    0.055542100220918655,
                    0.02013074979186058,
                    0.16745172441005707
                ]
            ],
            [
                [
                    -0.049481481313705444,
                    -0.008965528570115566,
                    0.0005739217740483582
                ],
                [
                    -0.002110494300723076,
                    0.011923989281058311,
                    -0.06565089523792267
                ],
                [
                    0.001421470195055008,
                    0.0005359355127438903,
                    0.059877656400203705
                ]
            ],
            [
                [
                    -0.07599911838769913,
                    0.04323912039399147,
                    0.09121442586183548
                ],
                [
                    0.004981815814971924,
                    0.08607467263936996,
                    -0.00530570512637496
                ],
                [
                    0.06644640862941742,
                    0.03577777370810509,
                    0.041163165122270584
                ]
            ],
            [
                [
                    -0.052031077444553375,
                    0.048595067113637924,
                    -0.02828238159418106
                ],
                [
                    0.05566408112645149,
                    0.08804947137832642,
                    -0.04227674379944801
                ],
                [
                    0.08995518088340759,
                    0.04533902928233147,
                    0.024979449808597565
                ]
            ],
            [
                [
                    0.059057675302028656,
                    -0.07991032302379608,
                    0.009370360523462296
                ],
                [
                    -0.044353779405355453,
                    0.00581270782276988,
                    0.01658201403915882
                ],
                [
                    -0.09309893101453781,
                    0.03733309358358383,
                    0.07313456386327744
                ]
            ],
            [
                [
                    -0.06483465433120728,
                    0.07120662182569504,
                    0.012172463349997997
                ],
                [
                    -0.06759950518608093,
                    -0.020629582926630974,
                    0.08186648041009903
                ],
                [
                    -0.05065141245722771,
                    0.011359399184584618,
                    -0.05187651515007019
                ]
            ],
            [
                [
                    0.028017910197377205,
                    0.09143337607383728,
                    0.08086039870977402
                ],
                [
                    0.056425463408231735,
                    -0.028931746259331703,
                    -0.033228550106287
                ],
                [
                    0.006065984256565571,
                    -0.05315469577908516,
                    -0.013154388405382633
                ]
            ],
            [
                [
                    -0.07104957103729248,
                    -0.0023682645987719297,
                    0.1223762184381485
                ],
                [
                    0.09452325105667114,
                    -0.08076995611190796,
                    -0.052006907761096954
                ],
                [
                    0.23150955140590668,
                    0.11289196461439133,
                    0.054644808173179626
                ]
            ],
            [
                [
                    0.03839613124728203,
                    0.052269771695137024,
                    -0.01987600512802601
                ],
                [
                    0.027727745473384857,
                    -0.08889411389827728,
                    0.026678619906306267
                ],
                [
                    0.05709805712103844,
                    -0.03954651206731796,
                    0.01960800029337406
                ]
            ]
        ],
        [
            [
                [
                    0.05830846726894379,
                    -0.0340067520737648,
                    -0.038026198744773865
                ],
                [
                    0.044183436781167984,
                    0.0967908725142479,
                    -0.03392918407917023
                ],
                [
                    -0.01781676895916462,
                    0.05192849785089493,
                    -0.09721695631742477
                ]
            ],
            [
                [
                    0.025707943364977837,
                    0.004639168735593557,
                    0.03540465608239174
                ],
                [
                    0.018280791118741035,
                    -0.08566693961620331,
                    0.04100828990340233
                ],
                [
                    -0.07198874652385712,
                    0.024948803707957268,
                    0.07187610119581223
                ]
            ],
            [
                [
                    -0.0009869462810456753,
                    0.03812742233276367,
                    0.07268709689378738
                ],
                [
                    -0.007136999163776636,
                    0.011796778999269009,
                    -0.048073578625917435
                ],
                [
                    0.0719115287065506,
                    -0.0166688971221447,
                    -0.06552659720182419
                ]
            ],
            [
                [
                    0.06315699219703674,
                    -0.018071290105581284,
                    -0.05893184244632721
                ],
                [
                    -0.034430038183927536,
                    0.058885492384433746,
                    0.06083912029862404
                ],
                [
                    0.002782036317512393,
                    0.054834652692079544,
                    0.054276127368211746
                ]
            ],
            [
                [
                    0.015157859772443771,
                    -0.06269638240337372,
                    -0.0007189202005974948
                ],
                [
                    0.04147248715162277,
                    -0.08490091562271118,
                    0.025739965960383415
                ],
                [
                    -0.12467003613710403,
                    0.08612431585788727,
                    -0.015134808607399464
                ]
            ],
            [
                [
                    0.08757701516151428,
                    0.06273840367794037,
                    -0.0038985738065093756
                ],
                [
                    0.1347796618938446,
                    0.10224448144435883,
                    -0.01905851624906063
                ],
                [
                    0.15586034953594208,
                    -0.12997010350227356,
                    -0.08914979547262192
                ]
            ],
            [
                [
                    -0.015478813089430332,
                    0.010432742536067963,
                    -0.01240494754165411
                ],
                [
                    0.055882714688777924,
                    0.032673463225364685,
                    0.04135182499885559
                ],
                [
                    -0.014786259271204472,
                    -0.015593301504850388,
                    -0.008866682648658752
                ]
            ],
            [
                [
                    0.02859528921544552,
                    -0.009362931363284588,
                    0.1599893718957901
                ],
                [
                    0.10088369250297546,
                    -0.011110051535069942,
                    -0.004609681200236082
                ],
                [
                    0.1983862817287445,
                    -0.10099679231643677,
                    0.07492058724164963
                ]
            ],
            [
                [
                    0.023418892174959183,
                    0.0010937303304672241,
                    0.03662899509072304
                ],
                [
                    -0.0013869486283510923,
                    0.09202899038791656,
                    -0.037508774548769
                ],
                [
                    -0.03249383345246315,
                    0.008626934140920639,
                    0.041017401963472366
                ]
            ],
            [
                [
                    0.06861038506031036,
                    0.044319722801446915,
                    0.0008409789297729731
                ],
                [
                    -0.003085282864049077,
                    -0.05689690634608269,
                    0.026025742292404175
                ],
                [
                    0.048338428139686584,
                    -0.08782707899808884,
                    -0.013846387155354023
                ]
            ],
            [
                [
                    -0.0753447562456131,
                    0.016429582610726357,
                    -0.006268896162509918
                ],
                [
                    0.0151827959343791,
                    -0.03837078809738159,
                    0.03649577498435974
                ],
                [
                    -0.01999555714428425,
                    -0.033000048249959946,
                    0.09281385689973831
                ]
            ],
            [
                [
                    -0.07116252183914185,
                    -0.03301382064819336,
                    0.07351987063884735
                ],
                [
                    -0.012464991770684719,
                    -0.01766597479581833,
                    -0.027347402647137642
                ],
                [
                    0.082968570291996,
                    0.03334281966090202,
                    -0.05812496319413185
                ]
            ],
            [
                [
                    0.21394413709640503,
                    0.09821350872516632,
                    0.050990741699934006
                ],
                [
                    -0.03809267655014992,
                    -0.09470728784799576,
                    0.0986952856183052
                ],
                [
                    0.17700918018817902,
                    0.004104024264961481,
                    -0.06518489867448807
                ]
            ],
            [
                [
                    0.05087542533874512,
                    -0.019250061362981796,
                    -0.051701463758945465
                ],
                [
                    0.057523056864738464,
                    0.03961683809757233,
                    0.03325602784752846
                ],
                [
                    -0.09762866795063019,
                    0.04862293228507042,
                    0.07076911628246307
                ]
            ]
        ],
        [
            [
                [
                    -0.06724231690168381,
                    0.005410212092101574,
                    0.05083535611629486
                ],
                [
                    -0.036728814244270325,
                    0.0332011952996254,
                    0.04801063612103462
                ],
                [
                    -0.029256872832775116,
                    -0.03873925283551216,
                    -0.03841274976730347
                ]
            ],
            [
                [
                    0.0828683152794838,
                    0.05700113624334335,
                    -0.03185872361063957
                ],
                [
                    0.06830023229122162,
                    0.005387309473007917,
                    -0.05935589596629143
                ],
                [
                    0.007855551317334175,
                    0.034290388226509094,
                    0.008793552406132221
                ]
            ],
            [
                [
                    0.06432340294122696,
                    -0.04333294555544853,
                    -0.09254229068756104
                ],
                [
                    -0.10922377556562424,
                    0.09675833582878113,
                    0.07502874732017517
                ],
                [
                    0.11404674500226974,
                    -0.06854182481765747,
                    0.03638027235865593
                ]
            ],
            [
                [
                    -0.012021651491522789,
                    -0.0014599409187212586,
                    0.04476083815097809
                ],
                [
                    -0.1440950632095337,
                    0.010592769831418991,
                    -0.04615413397550583
                ],
                [
                    -0.03439062088727951,
                    0.029714001342654228,
                    -0.10522058606147766
                ]
            ],
            [
                [
                    -0.004893793724477291,
                    0.04892008751630783,
                    0.08236575871706009
                ],
                [
                    -0.012346995994448662,
                    -0.09929802268743515,
                    -0.019042979925870895
                ],
                [
                    -0.10660342127084732,
                    0.032903965562582016,
                    -0.06389956176280975
                ]
            ],
            [
                [
                    0.0456208698451519,
                    -0.008867571130394936,
                    -0.015264680609107018
                ],
                [
                    0.18788115680217743,
                    0.10578843206167221,
                    0.030547309666872025
                ],
                [
                    0.09173958003520966,
                    0.0008501685224473476,
                    -0.03443104028701782
                ]
            ],
            [
                [
                    0.01055839378386736,
                    0.007802640087902546,
                    -0.003115107072517276
                ],
                [
                    -0.03785257413983345,
                    -0.019579941406846046,
                    -0.0054967510513961315
                ],
                [
                    -0.0014514478389173746,
                    0.03225146234035492,
                    -0.020947618409991264
                ]
            ],
            [
                [
                    0.05908753722906113,
                    -0.015432476997375488,
                    0.06254179030656815
                ],
                [
                    0.15018142759799957,
                    0.01192747987806797,
                    0.05418314412236214
                ],
                [
                    -0.06948533654212952,
                    -0.1043144166469574,
                    -0.044012513011693954
                ]
            ],
            [
                [
                    0.03556550666689873,
                    -0.04652060568332672,
                    -0.0006107910303398967
                ],
                [
                    -0.025495432317256927,
                    0.015947969630360603,
                    -0.11583895236253738
                ],
                [
                    -0.018099095672369003,
                    -0.05586424097418785,
                    -0.056750115007162094
                ]
            ],
            [
                [
                    0.06722862273454666,
                    0.0040886132046580315,
                    0.01093512587249279
                ],
                [
                    0.03736678883433342,
                    0.09901616722345352,
                    0.0883951336145401
                ],
                [
                    0.11397240310907364,
                    0.004507509525865316,
                    0.026525162160396576
                ]
            ],
            [
                [
                    0.07080961018800735,
                    0.005656519439071417,
                    -0.0037478464655578136
                ],
                [
                    0.03786523640155792,
                    0.08069867640733719,
                    -0.04373381659388542
                ],
                [
                    -0.0434848852455616,
                    0.03609124943614006,
                    0.012798385694622993
                ]
            ],
            [
                [
                    0.07968911528587341,
                    -0.008383574895560741,
                    0.08982277661561966
                ],
                [
                    -0.04572634771466255,
                    0.09446831047534943,
                    0.03794245794415474
                ],
                [
                    -0.13758204877376556,
                    0.128152996301651,
                    0.019587449729442596
                ]
            ],
            [
                [
                    0.09137120842933655,
                    0.2676929235458374,
                    0.0497761033475399
                ],
                [
                    -0.08091456443071365,
                    0.010443726554512978,
                    0.04115183651447296
                ],
                [
