{
    "conv1.0.weight": [
        [
            [
                [
                    0.16301314532756805,
                    -0.0784897729754448,
                    0.05028720945119858
                ],
                [
                    -0.047178495675325394,
                    0.27556416392326355,
                    0.020254194736480713
                ],
                [
                    -0.014517786912620068,
                    0.12750893831253052,
                    -0.010697413235902786
                ]
            ],
            [
                [
                    0.05574331060051918,
                    -0.03255338966846466,
                    0.06470620632171631
                ],
                [
                    0.031880684196949005,
                    -0.038528185337781906,
                    0.04893660917878151
                ],
                [
                    0.047602228820323944,
                    -0.046829838305711746,
                    0.08700686693191528
                ]
            ],
            [
                [
                    -0.06965623050928116,
                    -0.11393798142671585,
                    -0.07355081290006638
                ],
                [
                    -0.014137732796370983,
                    -0.10904749482870102,
                    -0.04314568638801575
                ],
                [
                    -0.008625312708318233,
                    -0.006832537706941366,
                    0.0949295312166214
                ]
            ],
            [
                [
                    0.010175667703151703,
                    -0.0222755279392004,
                    -0.022608350962400436
                ],
                [
                    0.05892282724380493,
                    0.01673928275704384,
                    0.0170028954744339
                ],
                [
                    0.028607888147234917,
                    0.0009474203689023852,
                    -0.03363265469670296
                ]
            ],
            [
                [
                    0.1778627336025238,
                    0.11728465557098389,
                    0.0974111407995224
                ],
                [
                    0.16298314929008484,
                    0.17208050191402435,
                    0.03537586331367493
                ],
                [
                    0.10752590745687485,
                    -0.019816704094409943,
                    -0.06690040230751038
                ]
            ],
            [
                [
                    0.03902941942214966,
                    -0.0009225253597833216,
                    0.06390172988176346
                ],
                [
                    0.025403179228305817,
                    -0.05639614537358284,
                    -0.06877940893173218
                ],
                [
                    0.03253421187400818,
                    0.004187954589724541,
                    0.02601408213376999
                ]
            ],
            [
                [
                    -0.1327214539051056,
                    -0.035839516669511795,
                    0.070784792304039
                ],
                [
                    0.012354365549981594,
                    0.030788538977503777,
                    0.008191922679543495
                ],
                [
                    -0.048374902456998825,
                    -0.08125272393226624,
                    0.11091111600399017
                ]
            ],
            [
                [
                    0.03602695092558861,
                    0.04683287814259529,
                    0.014868111349642277
                ],
                [
                    -0.012375903315842152,
                    -0.052211739122867584,
                    0.0550261028110981
                ],
                [
                    0.043183449655771255,
                    0.00015727814752608538,
                    -0.027548355981707573
                ]
            ],
            [
                [
                    0.018258370459079742,
                    0.06915140151977539,
                    -0.12250898033380508
                ],
                [
                    0.02860918827354908,
                    0.061620064079761505,
                    -0.08557536453008652
                ],
                [
                    -0.037976376712322235,
                    -0.007167681120336056,
                    0.014322697184979916
                ]
            ],
            [
                [
                    0.029430663213133812,
                    -0.03521408140659332,
                    0.018260376527905464
                ],
                [
                    0.02260690927505493,
                    0.010457645170390606,
                    -0.04656396433711052
                ],
                [
                    0.014301548711955547,
                    0.04864836111664772,
                    -0.050201401114463806
                ]
            ],
            [
                [
                    -0.18528497219085693,
                    0.045759525150060654,
                    0.005839755292981863
                ],
                [
                    -0.01368944626301527,
                    0.0507919080555439,
                    -0.033562030643224716
                ],
                [
                    0.014613913372159004,
                    -0.0300013218075037,
                    -0.06718068569898605
                ]
            ],
            [
                [
                    0.10574433207511902,
                    -0.032238177955150604,
                    0.0972239300608635
                ],
                [
                    0.11227422952651978,
                    0.05446486547589302,
                    -0.07413078099489212
                ],
                [
                    0.0891113206744194,
                    0.09917294979095459,
                    0.03235151618719101
                ]
            ],
            [
                [
                    -0.03077307529747486,
                    0.01690366491675377,
                    0.05985203757882118
                ],
                [
                    -0.12653960287570953,
                    -0.031296223402023315,
                    0.008191891014575958
                ],
                [
                    0.05829264968633652,
                    -0.0881967768073082,
                    0.029059018939733505
                ]
            ],
            [
                [
                    0.010752957314252853,
                    -0.021119531244039536,
                    -0.0028037140145897865
                ],
                [
                    0.00772985490038991,
                    0.046872470527887344,
                    -0.04588611051440239
                ],
                [
                    0.027367735281586647,
                    -0.09245479106903076,
                    0.051081180572509766
                ]
            ],
            [
                [
                    0.07858286052942276,
                    0.011578820645809174,
                    -0.03986740484833717
                ],
                [
                    -0.014155075885355473,
                    0.057376664131879807,
                    0.07065822929143906
                ],
                [
                    -0.0554162934422493,
                    -0.028168978169560432,
                    -0.049551017582416534
                ]
            ],
            [
                [
                    -0.16151703894138336,
                    -0.10391652584075928,
                    0.05743987113237381
                ],
                [
                    -0.18071182072162628,
                    -0.05233173817396164,
                    -0.12077894806861877
                ],
                [
                    -0.15995579957962036,
                    -0.10039534419775009,
                    -0.07547660171985626
                ]
            ]
        ],
        [
            [
                [
                    0.05623149126768112,
                    -0.06837088614702225,
                    0.011747142300009727
                ],
                [
                    -0.04788290336728096,
                    -0.020558305084705353,
                    0.09225278347730637
                ],
                [
                    -0.012966927140951157,
                    0.12151191383600235,
                    -0.0396399050951004
                ]
            ],
            [
                [
                    -0.05882691219449043,
                    0.005390111356973648,
                    0.026614921167492867
                ],
                [
                    0.028289595618844032,
                    -0.050273597240448,
                    -0.032809361815452576
                ],
                [
                    -0.016431443393230438,
                    -0.026495493948459625,
                    0.0066950093023478985
                ]
            ],
            [
                [
                    0.044474437832832336,
                    0.02898353710770607,
                    -0.007823009043931961
                ],
                [
                    -0.02577332779765129,
                    -0.0319165363907814,
                    -0.029737083241343498
                ],
                [
                    -0.026862656697630882,
                    -0.054294172674417496,
                    0.0632018968462944
                ]
            ],
            [
                [
                    -0.06302283704280853,
                    -0.16240736842155457,
                    -0.08655966073274612
                ],
                [
                    0.012421729974448681,
                    -0.0599738173186779,
                    0.008292741142213345
                ],
                [
                    -0.07329045981168747,
                    0.00043918503797613084,
                    -0.08870773762464523
                ]
            ],
            [
                [
                    -0.014386923052370548,
                    0.04675837233662605,
                    0.07120008766651154
                ],
                [
                    0.10156594216823578,
                    0.15623417496681213,
                    0.07357237488031387
                ],
                [
                    0.11221522092819214,
                    0.039293330162763596,
                    0.012373147532343864
                ]
            ],
            [
                [
                    -0.008967991918325424,
                    0.05176795646548271,
                    -0.0514521598815918
                ],
                [
                    -0.02051439881324768,
                    0.008525218814611435,
                    0.047999750822782516
                ],
                [
                    -0.02887232042849064,
                    0.02681286633014679,
                    0.0019840747117996216
                ]
            ],
            [
                [
                    -0.004412269685417414,
                    -0.006332955788820982,
                    0.011807954870164394
                ],
                [
                    0.03483689948916435,
                    0.190996915102005,
                    0.14081354439258575
                ],
                [
                    0.05447385460138321,
                    0.09336164593696594,
                    -0.04245968535542488
                ]
            ],
            [
                [
                    -0.007343018893152475,
                    -0.04476960375905037,
                    -0.09212085604667664
                ],
                [
                    -0.13603563606739044,
                    -0.11991127580404282,
                    -0.17801855504512787
                ],
                [
                    -0.06128496304154396,
                    -0.055482152849435806,
                    -0.060414835810661316
                ]
            ],
            [
                [
                    0.12119735032320023,
                    -0.03954991325736046,
                    -0.002483439166098833
                ],
                [
                    0.04632751643657684,
                    -0.1722688227891922,
                    -0.1674383133649826
                ],
                [
                    -0.07763306796550751,
                    -0.11432120949029922,
                    0.15564431250095367
                ]
            ],
            [
                [
                    -0.0853724256157875,
                    -0.03827039524912834,
                    0.005119227804243565
                ],
                [
                    -0.029693834483623505,
                    -0.08035314828157425,
                    -0.08216650784015656
                ],
                [
                    -0.05830767750740051,
                    -0.05949438363313675,
                    -0.01066288910806179
                ]
            ],
            [
                [
                    0.00956311821937561,
                    0.04198787733912468,
                    0.11272569745779037
                ],
                [
                    0.030049405992031097,
                    -0.015274768695235252,
                    0.14425577223300934
                ],
                [
                    -0.035506971180438995,
                    -0.007357995957136154,
                    -0.00537421740591526
                ]
            ],
            [
                [
                    0.0017087175510823727,
                    0.03340182825922966,
                    0.14745579659938812
                ],
                [
                    0.06623014807701111,
                    -0.01583014242351055,
                    -0.05763745680451393
                ],
                [
                    0.0006111740949563682,
                    0.10787991434335709,
                    0.004117280710488558
                ]
            ],
            [
                [
                    -0.10223010182380676,
                    -0.046864110976457596,
                    0.0024193963035941124
                ],
                [
                    -0.06610824912786484,
                    0.2068934142589569,
                    0.012338901869952679
                ],
                [
                    -0.11635319143533707,
                    -0.010941829532384872,
                    -0.1072099432349205
                ]
            ],
            [
                [
                    -0.012639887630939484,
                    0.07001981139183044,
                    -0.06325513869524002
                ],
                [
                    0.005669283680617809,
                    -0.017793362960219383,
                    0.013317270204424858
                ],
                [
                    0.02391839027404785,
                    -0.061497826129198074,
                    0.07983370870351791
                ]
            ],
            [
                [
                    -0.02051457390189171,
                    -0.02216619998216629,
                    0.06606891751289368
                ],
                [
                    -0.04133142530918121,
                    -0.16469277441501617,
                    0.03427684307098389
                ],
                [
                    -0.09209555387496948,
                    -0.19046474993228912,
                    0.18382897973060608
                ]
            ],
            [
                [
                    -0.05475298687815666,
                    0.021530024707317352,
                    -0.09295529872179031
                ],
                [
                    -0.042526040226221085,
                    -0.03373205289244652,
                    0.13667047023773193
                ],
                [
                    0.060262762010097504,
                    -0.046693965792655945,
                    0.07235918194055557
                ]
            ]
        ],
        [
            [
                [
                    0.09771941602230072,
                    -0.09976942837238312,
                    -0.007317194249480963
                ],
                [
                    -0.1324692815542221,
                    -0.04413768649101257,
                    0.06485358625650406
                ],
                [
                    0.13333600759506226,
                    0.06438109278678894,
                    -0.005713282153010368
                ]
            ],
            [
                [
                    0.05702856555581093,
                    0.18860840797424316,
                    0.1720385104417801
                ],
                [
                    0.036376360803842545,
                    0.03730429708957672,
                    0.06410801410675049
                ],
                [
                    0.09496060758829117,
                    0.04527723789215088,
                    0.03730606660246849
                ]
            ],
            [
                [
                    -0.061975326389074326,
                    -0.09685413539409637,
                    -0.059092700481414795
                ],
                [
                    0.09365633875131607,
                    0.10452520847320557,
                    -0.050977468490600586
                ],
                [
                    -0.053862325847148895,
                    0.05667826533317566,
                    -0.04451233521103859
                ]
            ],
            [
                [
                    0.11469890177249908,
                    -0.024290265515446663,
                    -0.08899664133787155
                ],
                [
                    0.07814400643110275,
                    -0.0011724011274054646,
                    -0.10330294072628021
                ],
                [
                    -0.06428635865449905,
                    -0.05847763270139694,
                    -0.04306069388985634
                ]
            ],
            [
                [
                    0.018554991111159325,
                    -0.05348064750432968,
                    -0.022663425654172897
                ],
                [
                    0.07584965974092484,
                    0.05037601292133331,
                    -0.040585439652204514
                ],
                [
                    0.0656062439084053,
                    -0.06975311785936356,
                    -0.03399251028895378
                ]
            ],
            [
                [
                    0.04201755300164223,
                    -0.03153088688850403,
                    -0.01401362381875515
                ],
                [
                    -0.013332083821296692,
                    0.00568004185333848,
                    -0.02747075818479061
                ],
                [
                    -0.09348519146442413,
                    0.0069990213960409164,
                    0.06140279769897461
                ]
            ],
            [
                [
                    -0.08078277111053467,
                    -0.018839597702026367,
                    -0.03819870948791504
                ],
                [
                    -0.05564983934164047,
                    0.06069236621260643,
                    0.023471616208553314
                ],
                [
                    0.012296280823647976,
                    0.028196629136800766,
                    0.12311553955078125
                ]
            ],
            [
                [
                    -0.13018137216567993,
                    -0.006332927383482456,
                    0.10941311717033386
                ],
                [
                    -0.2948247194290161,
                    -0.05389612913131714,
                    0.04621338099241257
                ],
                [
                    -0.0966058075428009,
                    -0.11850801110267639,
                    -0.0021910998038947582
                ]
            ],
            [
                [
                    -0.054668836295604706,
                    0.007030850742012262,
                    -0.053491536527872086
                ],
                [
                    0.028787393122911453,
                    -0.04483182355761528,
                    -0.00019454795983619988
                ],
                [
                    -0.03082256019115448,
                    -0.00934488233178854,
                    -0.03275182470679283
                ]
            ],
            [
                [
                    -0.07683108001947403,
                    -0.030899984762072563,
                    -0.012445188127458096
                ],
                [
                    -0.008210455998778343,
                    0.025575345382094383,
                    -0.0018996959552168846
                ],
                [
                    -0.020541006699204445,
                    0.03608394414186478,
                    0.022209711372852325
                ]
            ],
            [
                [
                    0.010435568168759346,
                    -0.01702435314655304,
                    -0.12424945831298828
                ],
                [
                    0.010960227809846401,
                    0.028872035443782806,
                    -0.09542906284332275
                ],
                [
                    0.008904626592993736,
                    0.04075631871819496,
                    -0.0659351795911789
                ]
            ],
            [
                [
                    0.026948725804686546,
                    -0.10202652215957642,
                    0.054994840174913406
                ],
                [
                    0.058953434228897095,
                    0.02561633475124836,
                    -0.08106423169374466
                ],
                [
                    0.11033519357442856,
                    0.05423140898346901,
                    0.16566765308380127
                ]
            ],
            [
                [
                    -0.19522713124752045,
                    0.08404197543859482,
                    -0.05047406628727913
                ],
                [
                    -0.14559747278690338,
                    -0.060235317796468735,
                    -0.0308208130300045
                ],
                [
                    -0.048077598214149475,
                    -0.09160280227661133,
                    0.07021842896938324
                ]
            ],
            [
                [
                    0.07833632081747055,
                    0.03597106412053108,
                    -0.04198789969086647
                ],
                [
                    0.004555943887680769,
                    0.04773956164717674,
                    -0.05855157971382141
                ],
                [
                    0.06856544315814972,
                    0.04416843131184578,
                    -0.09803034365177155
                ]
            ],
            [
                [
                    -0.0010263490257784724,
                    0.013492987491190434,
                    0.0223818589001894
                ],
                [
                    -0.0394061915576458,
                    0.05022171139717102,
                    -0.043774671852588654
                ],
                [
                    0.10336778312921524,
                    -0.061743974685668945,
                    -0.05700220540165901
                ]
            ],
            [
                [
                    -0.028572693467140198,
                    0.004861267749220133,
                    -0.037702061235904694
                ],
                [
                    -0.015377800911664963,
                    -0.06597023457288742,
                    -0.016523484140634537
                ],
                [
                    0.10588686913251877,
                    0.051293857395648956,
                    0.07332400232553482
                ]
            ]
        ],
        [
            [
                [
                    -0.06440144032239914,
                    -0.04484276473522186,
                    -0.0014063797425478697
                ],
                [
                    0.035589419305324554,
                    0.11775791645050049,
                    -0.02872520126402378
                ],
                [
                    -0.07777217030525208,
                    -0.0174740981310606,
                    0.046064343303442
                ]
            ],
            [
                [
                    0.0662204846739769,
                    -0.027609512209892273,
                    0.041460130363702774
                ],
                [
                    -0.05377223342657089,
                    -0.07016860693693161,
                    -0.09331118315458298
                ],
                [
                    -0.014766313135623932,
                    0.13124094903469086,
                    -0.04020226374268532
                ]
            ],
            [
                [
                    0.042060982435941696,
                    -0.030006010085344315,
                    0.049468398094177246
                ],
                [
                    -0.15148131549358368,
                    -0.1622932404279709,
                    -0.021238546818494797
                ],
                [
                    0.02177395112812519,
                    0.023352134972810745,
                    0.07526732981204987
                ]
            ],
            [
                [
                    0.03272714838385582,
                    -0.06821957975625992,
                    0.061323732137680054
                ],
                [
                    0.038695305585861206,
                    -0.05578317865729332,
                    0.02127927727997303
                ],
                [
                    0.058075934648513794,
                    -0.025803418830037117,
                    -0.00013454591680783778
                ]
            ],
            [
                [
                    0.06178344786167145,
                    -0.06946492195129395,
                    -0.28186655044555664
                ],
                [
                    0.15099649131298065,
                    0.05377637594938278,
                    -0.0712122842669487
                ],
                [
                    0.046556346118450165,
                    0.01339808665215969,
                    0.10353848338127136
                ]
            ],
            [
                [
                    -0.002949892543256283,
                    0.0141683928668499,
                    0.037440232932567596
                ],
                [
                    -0.03394420072436333,
                    0.040466904640197754,
                    0.0036696100141853094
                ],
                [
                    -0.028252409771084785,
                    0.013859804719686508,
                    -0.05597850680351257
                ]
            ],
            [
                [
                    0.07208698987960815,
                    -0.11871735006570816,
                    -0.10809803009033203
                ],
                [
                    0.16689366102218628,
                    0.03381048142910004,
                    -0.09106351435184479
                ],
                [
                    0.05471697077155113,
                    -0.06536830216646194,
                    0.085845448076725
                ]
            ],
            [
                [
                    -0.04895364120602608,
                    -0.0947069302201271,
                    0.029190706089138985
                ],
                [
                    0.01639356091618538,
                    -0.04625412076711655,
                    -0.06733216345310211
                ],
                [
                    -0.014669599942862988,
                    -0.00826531182974577,
                    -0.07588829100131989
                ]
            ],
            [
                [
                    -0.03299606218934059,
                    0.020525891333818436,
                    0.015558291226625443
                ],
                [
                    0.0006709024892188609,
                    -0.021435141563415527,
                    -0.01467892900109291
                ],
                [
                    -0.014801310375332832,
                    0.004694532137364149,
                    -0.03685701638460159
                ]
            ],
            [
                [
                    0.05048558488488197,
                    0.03534722700715065,
                    -0.012576377019286156
                ],
                [
                    0.07215896248817444,
                    0.019155902788043022,
                    -0.058863524347543716
                ],
                [
                    0.0749121904373169,
                    -0.007720228284597397,
                    -0.01796513795852661
                ]
            ],
            [
                [
                    0.07406123727560043,
                    -0.0038997966330498457,
                    -0.00269358791410923
                ],
                [
                    0.11263086646795273,
                    -0.042659077793359756,
                    0.03970595821738243
                ],
                [
                    0.024674251675605774,
                    0.05861983820796013,
                    -0.08302798122167587
                ]
            ],
            [
                [
                    0.07242865115404129,
                    0.030186273157596588,
                    -0.16725224256515503
                ],
                [
                    0.14680415391921997,
                    0.08928963541984558,
                    0.10136757045984268
                ],
                [
                    -0.005495012272149324,
                    -0.008526886813342571,
                    0.06692317873239517
                ]
            ],
            [
                [
                    0.15619227290153503,
                    -0.06286375969648361,
                    -0.017473459243774414
                ],
                [
                    -0.04711040109395981,
                    -0.0670066848397255,
                    0.028456702828407288
                ],
                [
                    0.022837163880467415,
                    -0.09180770069360733,
                    0.012092318385839462
                ]
            ],
            [
                [
                    0.06097770109772682,
                    0.10321515798568726,
                    0.07414869219064713
                ],
                [
                    -0.04466678947210312,
                    0.021531717851758003,
                    0.0010644043795764446
                ],
                [
                    -0.008290606550872326,
                    0.050319604575634,
                    -0.13989003002643585
                ]
            ],
            [
                [
                    0.08147448301315308,
                    0.014436163008213043,
                    -0.015273069962859154
                ],
                [
                    -0.01980462856590748,
                    0.003277272917330265,
                    -0.020503519102931023
                ],
                [
                    0.1268153339624405,
                    0.048705246299505234,
                    0.015877243131399155
                ]
            ],
            [
                [
                    0.08966260403394699,
                    0.06314440071582794,
                    0.08493061363697052
                ],
                [
                    -0.051852863281965256,
                    0.016534535214304924,
                    0.0009529829840175807
                ],
                [
                    -0.11122103780508041,
                    0.012604514136910439,
                    -0.014487849548459053
                ]
            ]
        ],
        [
            [
                [
                    0.10102790594100952,
                    0.017808981239795685,
                    -0.01666192337870598
                ],
                [
                    -0.004479462280869484,
                    0.09580551832914352,
                    -0.0008722998318262398
                ],
                [
                    0.16402119398117065,
                    -0.03312873840332031,
                    0.0999397560954094
                ]
            ],
            [
                [
                    -0.004291649907827377,
                    0.052549976855516434,
                    -0.05308845266699791
                ],
                [
                    -0.10687592625617981,
                    0.0652523785829544,
                    -0.0676545798778534
                ],
                [
                    -0.03889455273747444,
                    -0.010173269547522068,
                    0.03794671595096588
                ]
            ],
            [
                [
                    -0.0261723343282938,
                    -0.042440857738256454,
                    -0.08747082203626633
                ],
                [
                    -0.03498915955424309,
                    0.017395511269569397,
                    -0.0076721892692148685
                ],
                [
                    -0.23544427752494812,
                    -0.14634504914283752,
                    0.03463928773999214
                ]
            ],
            [
                [
                    0.047576967626810074,
                    0.05255933105945587,
                    0.03138764202594757
                ],
                [
                    -0.0529300719499588,
                    0.036674562841653824,
                    -0.00822462234646082
                ],
                [
                    -0.03272784501314163,
                    0.01817345805466175,
                    0.03245861083269119
                ]
            ],
            [
                [
                    0.14212903380393982,
                    -0.05916720628738403,
                    0.1094144657254219
                ],
                [
                    0.1291518658399582,
                    0.21788544952869415,
                    0.051498111337423325
                ],
                [
                    0.10563791543245316,
                    0.2147163599729538,
                    0.08899799734354019
                ]
            ],
            [
                [
                    0.046937547624111176,
                    -0.0073239863850176334,
                    -0.022470658645033836
                ],
                [
                    -0.04477471858263016,
                    -0.0458621084690094,
                    -0.01991095393896103
                ],
                [
                    0.0333951897919178,
                    0.07797519117593765,
                    0.018546342849731445
                ]
            ],
            [
                [
                    0.07389648258686066,
                    -0.08575061708688736,
                    -0.05805030092597008
                ],
                [
                    -0.08584373444318771,
                    -0.08809453994035721,
                    -0.04509911686182022
                ],
                [
                    -0.013216677121818066,
                    -0.09233249723911285,
                    0.010075739584863186
                ]
            ],
            [
                [
                    -0.010076455771923065,
                    0.06203977391123772,
                    -0.05251460149884224
                ],
                [
                    0.12117338925600052,
                    0.10286740958690643,
                    0.046888064593076706
                ],
                [
                    0.07194630056619644,
                    0.02794519066810608,
                    0.052591875195503235
                ]
            ],
            [
                [
                    -0.08453360944986343,
                    0.025661716237664223,
                    0.04323215037584305
                ],
                [
                    -0.0002811253070831299,
                    0.036011625081300735,
                    0.004930754192173481
                ],
                [
                    -0.045338865369558334,
                    -0.045434024184942245,
                    -0.08491356670856476
                ]
            ],
            [
                [
                    -0.002264224225655198,
                    0.026442313566803932,
                    0.002464062301442027
                ],
                [
                    -0.04937111958861351,
                    0.053780265152454376,
                    -0.03487813100218773
                ],
                [
                    0.04661283642053604,
                    -0.035592131316661835,
                    -0.062357328832149506
                ]
            ],
            [
                [
                    -0.032468751072883606,
                    -0.05947915092110634,
                    -0.06597474962472916
                ],
                [
                    -0.0014188865898177028,
                    0.041464198380708694,
                    0.07293736934661865
                ],
                [
                    -0.18773359060287476,
                    -0.0845140889286995,
                    0.09140221029520035
                ]
            ],
            [
                [
                    0.005945178214460611,
                    -0.07196663320064545,
                    0.07496034353971481
                ],
                [
                    -0.015540577471256256,
                    -0.04595852270722389,
                    0.046308260411024094
                ],
                [
                    -0.000971059373114258,
                    -0.11565424501895905,
                    0.1451297402381897
                ]
            ],
            [
                [
                    0.07240608334541321,
                    0.10149472206830978,
                    0.0028980872593820095
                ],
                [
                    -0.04634319245815277,
                    -0.08666032552719116,
                    -0.12214159965515137
                ],
                [
                    0.048824213445186615,
                    -0.08530302345752716,
                    -0.11554742604494095
                ]
            ],
            [
                [
                    -0.0708063468337059,
                    0.01680147647857666,
                    0.0769055038690567
                ],
                [
                    -0.06201504170894623,
                    -0.017989255487918854,
                    -0.05190380662679672
                ],
                [
                    0.07886762917041779,
                    0.08322639018297195,
                    0.05645379051566124
                ]
            ],
            [
                [
                    -0.0005878479569219053,
                    0.062600277364254,
                    -0.027435485273599625
                ],
                [
                    0.09818052500486374,
                    -0.0369686633348465,
                    -0.049786534160375595
                ],
                [
                    0.022069083526730537,
                    0.03650636970996857,
                    -0.019733091816306114
                ]
            ],
            [
                [
                    -0.17225387692451477,
                    -0.26304295659065247,
                    -0.13774828612804413
                ],
                [
                    -0.16731895506381989,
                    -0.14257265627384186,
                    -0.04746699705719948
                ],
                [
                    -0.10887432098388672,
                    -0.05432390794157982,
                    -0.03305838629603386
                ]
            ]
        ],
        [
            [
                [
                    -0.07889488339424133,
                    -0.09356137365102768,
                    0.044219423085451126
                ],
                [
                    0.08288884907960892,
                    -0.09435311704874039,
                    0.11787202954292297
                ],
                [
                    -0.040582600980997086,
                    -0.07544038444757462,
                    -0.055161252617836
                ]
            ],
            [
                [
                    0.05304376035928726,
                    0.07845038920640945,
                    -0.0058841705322265625
                ],
                [
                    -0.08006253838539124,
                    -0.048872701823711395,
                    -0.08439870923757553
                ],
                [
                    0.10266658663749695,
                    0.013738769106566906,
                    0.1582520306110382
                ]
            ],
            [
                [
                    0.03347550332546234,
                    0.04926172271370888,
                    -0.040312908589839935
                ],
                [
                    -0.061353933066129684,
                    -0.002645142376422882,
                    0.03519972413778305
                ],
                [
                    0.004214962478727102,
                    -0.010197654366493225,
                    -0.1042102575302124
                ]
            ],
            [
                [
                    0.0028504692018032074,
                    0.03195158764719963,
                    -0.0070388056337833405
                ],
                [
                    -0.10478459298610687,
                    -0.03380545601248741,
                    0.06471125036478043
                ],
                [
                    -0.09095839411020279,
                    -0.09995342046022415,
                    0.0037179647479206324
                ]
            ],
            [
                [
                    0.01662384159862995,
                    -0.041993603110313416,
                    0.026445338502526283
                ],
                [
                    -0.010028593242168427,
                    0.0858728438615799,
                    -0.0025356956757605076
                ],
                [
                    -0.08045592159032822,
                    -0.047675784677267075,
                    -0.185930997133255
                ]
            ],
            [
                [
                    0.04207472503185272,
                    0.00550807686522603,
                    -0.06708031892776489
                ],
                [
                    -0.039284877479076385,
                    -0.06421476602554321,
                    -0.026099704205989838
                ],
                [
                    0.049447376281023026,
                    -0.009697193279862404,
                    0.07309061288833618
                ]
            ],
            [
                [
                    -0.04088328033685684,
                    -0.09175460785627365,
                    -0.06121506169438362
                ],
                [
                    -0.022156432271003723,
                    0.04442230984568596,
                    -0.03272898495197296
                ],
                [
                    -0.10497834533452988,
                    -0.15457122027873993,
                    -0.15611957013607025
                ]
            ],
            [
                [
                    -0.04651109501719475,
                    0.04327436536550522,
                    -1.2780714314430952e-05
                ],
                [
                    0.0014576069079339504,
                    -0.13110534846782684,
                    -0.061879295855760574
                ],
                [
                    -0.028228795155882835,
                    0.05945642665028572,
                    0.0203551035374403
                ]
            ],
            [
                [
                    0.06868009269237518,
                    -0.0013732397928833961,
                    0.014341249130666256
                ],
                [
                    0.008090260438621044,
                    0.1073843464255333,
                    0.01271520834416151
                ],
                [
                    -0.0024651738349348307,
                    0.008686631917953491,
                    0.020961973816156387
                ]
            ],
            [
                [
                    0.06925015151500702,
                    -0.007989436388015747,
                    -0.022584935650229454
                ],
                [
                    0.02078261412680149,
                    -0.03950027376413345,
                    -0.04891107976436615
                ],
                [
                    0.11773430556058884,
                    -0.029101386666297913,
                    0.07889478653669357
                ]
            ],
            [
                [
                    -0.20252269506454468,
                    0.07950972020626068,
                    0.034129828214645386
                ],
                [
                    -0.05598936975002289,
                    -0.022972391918301582,
                    -0.03226551041007042
                ],
                [
                    0.05603897571563721,
                    -0.05404902994632721,
                    -0.06087466701865196
                ]
            ],
            [
                [
                    -0.027168234810233116,
                    -0.14238230884075165,
                    0.039144810289144516
                ],
                [
                    -0.07261789590120316,
                    -0.02216498926281929,
                    -0.0597526840865612
                ],
                [
                    -0.028895601630210876,
                    -0.12474999576807022,
                    -0.12760122120380402
                ]
            ],
            [
                [
                    0.014256246387958527,
                    0.01834486611187458,
                    -0.009386741556227207
                ],
                [
                    -0.10225003957748413,
                    0.082255057990551,
                    0.03989347442984581
                ],
                [
                    0.004390699323266745,
                    -0.02443099580705166,
                    -0.01231434103101492
                ]
            ],
            [
                [
                    -0.12723098695278168,
                    0.0005139547283761203,
                    0.04933964088559151
                ],
                [
                    -0.023839371278882027,
                    -0.01945951022207737,
                    0.09886011481285095
                ],
                [
                    -0.08382032811641693,
                    0.07439630478620529,
                    0.03303013741970062
                ]
            ],
            [
                [
                    0.08465202152729034,
                    0.09854339808225632,
                    -0.026883982121944427
                ],
                [
                    0.010763721540570259,
                    -0.049813978374004364,
                    -0.020888185128569603
                ],
                [
                    0.010572168044745922,
                    -0.010614288039505482,
                    0.06460369378328323
                ]
            ],
            [
                [
                    0.16484405100345612,
                    -0.11810506880283356,
                    -0.13849332928657532
                ],
                [
                    0.13996544480323792,
                    -0.08333628624677658,
                    -0.12606480717658997
                ],
                [
                    0.008352650329470634,
                    -0.05938128009438515,
                    -0.06562372297048569
                ]
            ]
        ],
        [
            [
                [
                    0.07706581801176071,
                    -0.04776347801089287,
                    0.09624755382537842
                ],
                [
                    -0.10272468626499176,
                    0.014402664266526699,
                    -0.07060690969228745
                ],
                [
                    -0.03846650943160057,
                    -0.01935395412147045,
                    -0.06040603667497635
                ]
            ],
            [
                [
                    0.050509411841630936,
                    0.06495343148708344,
                    0.017625687643885612
                ],
                [
                    -0.005898915696889162,
                    -0.022764155641198158,
                    0.0746917575597763
                ],
                [
                    0.02038588747382164,
                    -0.030241139233112335,
                    0.007998879998922348
                ]
            ],
            [
                [
                    0.11425060778856277,
                    -0.04734428599476814,
                    -0.0581001415848732
                ],
                [
                    0.10773880779743195,
                    0.05111604556441307,
                    -0.008021152578294277
                ],
                [
                    0.08815395832061768,
                    0.026152435690164566,
                    0.02663249336183071
                ]
            ],
            [
                [
                    -0.028757981956005096,
                    -0.05030836537480354,
                    0.05263693630695343
                ],
                [
                    0.022981857880949974,
                    -0.03442656248807907,
                    0.009785936214029789
                ],
                [
                    0.04367893934249878,
                    -0.08242588490247726,
                    -0.038605377078056335
                ]
            ],
            [
                [
                    -0.06333091855049133,
                    0.004760631360113621,
                    0.07730011641979218
                ],
                [
                    -0.20556455850601196,
                    -0.11417394876480103,
                    0.15476129949092865
                ],
                [
                    0.00014032612671144307,
                    0.003914596978574991,
                    0.15285715460777283
                ]
            ],
            [
                [
                    -0.023724215105175972,
                    0.03988328576087952,
                    -0.010243961587548256
                ],
                [
                    0.08764468133449554,
                    -0.07171126455068588,
                    0.04283454641699791
                ],
                [
                    -0.05963396653532982,
                    -0.00016935051826294512,
                    -0.011779507622122765
                ]
            ],
            [
                [
                    0.12931698560714722,
                    0.02627444453537464,
                    0.02141309343278408
                ],
                [
                    0.026467163115739822,
                    0.12035394459962845,
                    0.14110244810581207
                ],
                [
                    0.07744783908128738,
                    -0.008616013452410698,
                    0.11955386400222778
                ]
            ],
            [
                [
                    -0.2019512802362442,
                    -0.10904654860496521,
                    -0.07960470020771027
                ],
                [
                    0.020568741485476494,
                    0.008085017092525959,
                    -0.08423397690057755
                ],
                [
                    -0.024514896795153618,
                    -0.004209224134683609,
                    0.09407611191272736
                ]
            ],
            [
                [
                    -0.026597479358315468,
                    0.003766372799873352,
                    -0.09848148375749588
                ],
                [
                    -0.013758442364633083,
                    -0.04235144704580307,
                    -0.03544868901371956
                ],
                [
                    -0.030983993783593178,
                    -0.08133332431316376,
                    -0.1559714674949646
                ]
            ],
            [
                [
                    0.02788563072681427,
                    -0.07027021795511246,
                    0.013225536793470383
                ],
                [
                    -0.04094294086098671,
                    -0.03063502162694931,
                    0.03497520089149475
                ],
                [
                    0.07828038185834885,
                    -0.06499473005533218,
                    0.02308429777622223
                ]
            ],
            [
                [
                    0.034710150212049484,
                    0.024178264662623405,
                    -0.048932258039712906
                ],
                [
                    -0.045605484396219254,
                    -0.025612153112888336,
                    -0.08700212836265564
                ],
                [
                    0.027589090168476105,
                    0.031293924897909164,
                    0.08372598141431808
                ]
            ],
            [
                [
                    0.1300649642944336,
                    -0.024825267493724823,
                    -0.04200354963541031
                ],
                [
                    0.08937817811965942,
                    0.04298066347837448,
                    0.04940471798181534
                ],
                [
                    0.059392355382442474,
                    0.06511395424604416,
                    0.040541570633649826
                ]
            ],
            [
                [
                    0.0572415292263031,
                    0.1219702661037445,
                    -0.01017696037888527
                ],
                [
                    0.058756981045007706,
                    -0.0035320178139954805,
                    0.10670734196901321
                ],
                [
                    0.02290222980082035,
                    -0.11203950643539429,
                    -0.06766172498464584
                ]
            ],
            [
                [
                    -0.021171903237700462,
                    -0.03753969073295593,
                    0.10940466821193695
                ],
                [
                    0.033446598798036575,
                    0.030097907409071922,
                    0.08280318975448608
                ],
                [
                    -0.14253400266170502,
                    -0.0417650006711483,
                    0.05603456124663353
                ]
            ],
            [
                [
                    0.1020347848534584,
                    -0.08317933231592178,
                    0.04307806119322777
                ],
                [
                    -0.010554136708378792,
                    0.07785051316022873,
                    -0.051170121878385544
                ],
                [
                    -0.120934396982193,
                    0.001635627937503159,
                    -0.028571829199790955
                ]
            ],
            [
                [
                    0.17314310371875763,
                    0.02588682435452938,
                    0.0361173115670681
                ],
                [
                    -0.03965301066637039,
                    -0.06139678880572319,
                    0.021382378414273262
                ],
                [
                    -0.07619498670101166,
                    -0.20845258235931396,
                    -0.05362008884549141
                ]
            ]
        ],
        [
            [
                [
                    -0.0018497788114473224,
                    -0.05103003606200218,
                    -0.038059066981077194
                ],
                [
                    -0.13492542505264282,
                    -0.00833226554095745,
                    0.00601121736690402
                ],
                [
                    0.03257898613810539,
                    0.019487718120217323,
                    0.008701948449015617
                ]
            ],
            [
                [
                    0.060785673558712006,
                    0.05949551239609718,
                    0.0023645940236747265
                ],
                [
                    0.18719300627708435,
                    0.020762735977768898,
                    0.11680606752634048
                ],
                [
                    0.03876034542918205,
                    0.060953494161367416,
                    0.04473714157938957
                ]
            ],
            [
                [
                    -0.07115351408720016,
                    -0.002609205897897482,
                    0.06055683270096779
                ],
                [
                    -0.18840372562408447,
                    -0.17886841297149658,
                    -0.054345883429050446
                ],
                [
                    -0.06206447258591652,
                    -0.06430434435606003,
                    0.03704680874943733
                ]
            ],
            [
                [
                    -0.05813595652580261,
                    -0.0030675313901156187,
                    -0.01002439670264721
                ],
                [
                    0.020079726353287697,
                    -0.09839781373739243,
                    0.0073354169726371765
                ],
                [
                    0.027993671596050262,
                    6.110902177169919e-06,
                    -0.03820313513278961
                ]
            ],
            [
                [
                    -0.12355320155620575,
                    0.02304781787097454,
                    0.10844963788986206
                ],
                [
                    -0.25819188356399536,
                    -0.2654980421066284,
                    -0.04915054142475128
                ],
                [
                    -0.06709103286266327,
                    -0.08122146129608154,
                    0.09373848885297775
                ]
            ],
            [
                [
                    0.05307948216795921,
                    0.0062222788110375404,
                    0.029656464233994484
                ],
                [
                    -0.04047182574868202,
                    -0.03919879347085953,
                    -0.04972861707210541
                ],
                [
                    -0.00110912905074656,
                    0.06167401000857353,
                    0.016743922606110573
                ]
            ],
            [
                [
                    -0.09721604734659195,
                    0.023704340681433678,
                    0.042539749294519424
                ],
                [
                    -0.011479769833385944,
                    -0.08670308440923691,
                    -0.03755490109324455
                ],
                [
                    -0.03148695081472397,
                    -0.016981087625026703,
                    0.07171739637851715
                ]
            ],
            [
                [
                    -0.01055337954312563,
                    -0.050533443689346313,
                    0.004623102489858866
                ],
                [
                    -0.003990921191871166,
                    0.09731809794902802,
                    0.06935776770114899
                ],
                [
                    0.0468904934823513,
                    -0.05534755066037178,
                    -0.02809428982436657
                ]
            ],
            [
                [
                    0.031212152913212776,
                    0.04783157631754875,
                    -0.015162920579314232
                ],
                [
                    -0.020715022459626198,
                    -0.02684321068227291,
                    -0.030045781284570694
                ],
                [
                    0.020184259861707687,
                    0.02085809037089348,
                    -0.05400403216481209
                ]
            ],
            [
                [
                    0.043584756553173065,
                    -0.02443595416843891,
                    -0.043175578117370605
                ],
                [
                    0.016507524996995926,
                    -0.049065880477428436,
                    -0.0320485383272171
                ],
                [
                    0.05887525528669357,
                    -0.012328027747571468,
                    -0.013678392395377159
                ]
            ],
            [
                [
                    -0.04716527834534645,
                    0.07786902040243149,
                    0.10781826078891754
                ],
                [
                    0.06382381170988083,
                    0.039237648248672485,
                    -0.03952208533883095
                ],
                [
                    0.0384695902466774,
                    0.046960003674030304,
                    0.0057100532576441765
                ]
            ],
            [
                [
                    -0.14217610657215118,
                    0.07099045068025589,
                    -0.00988884549587965
                ],
                [
                    -0.02587077021598816,
                    0.014413990080356598,
                    -0.006206422112882137
                ],
                [
                    0.09891369193792343,
                    0.006913295481353998,
                    0.14386367797851562
                ]
            ],
            [
                [
                    0.039637960493564606,
                    0.007226739544421434,
                    -0.03709304332733154
                ],
                [
                    -0.06607583165168762,
                    -0.012124394066631794,
                    -0.09332099556922913
                ],
                [
                    -0.09323033690452576,
                    -0.031741198152303696,
                    -0.06487393379211426
                ]
            ],
            [
                [
                    -0.0232139490544796,
                    -0.017210520803928375,
                    0.10839176177978516
                ],
                [
                    0.06653130799531937,
                    -0.07892931252717972,
                    -0.015433869324624538
                ],
                [
                    -0.04327290132641792,
                    -0.0489085391163826,
                    -0.0026916833594441414
                ]
            ],
            [
                [
                    -0.015462868846952915,
                    0.0897660031914711,
                    -0.040357764810323715
                ],
                [
                    -0.053944312036037445,
                    0.08542665839195251,
                    -0.07026394456624985
                ],
                [
                    0.016363700851798058,
                    0.04767954349517822,
                    -0.03984060883522034
                ]
            ],
            [
                [
                    0.12703172862529755,
                    0.15586622059345245,
                    0.15469422936439514
                ],
                [
                    0.10240519791841507,
                    0.08284589648246765,
                    0.08578906208276749
                ],
                [
                    0.18977363407611847,
                    -0.004376172088086605,
                    0.07554862648248672
                ]
            ]
        ],
        [
            [
                [
                    0.03678825870156288,
                    0.005948634352535009,
                    -0.10488613694906235
                ],
                [
                    0.01483394205570221,
                    -0.035683225840330124,
                    0.016930341720581055
                ],
                [
                    0.07590898126363754,
                    -0.012158789671957493,
                    0.04801749810576439
                ]
            ],
            [
                [
                    -0.012326821684837341,
                    0.09706290066242218,
                    -0.033713191747665405
                ],
                [
                    0.0402173176407814,
                    -0.10038052499294281,
                    -0.06436407566070557
                ],
                [
                    -0.03543713688850403,
                    -0.15845206379890442,
                    0.09113077819347382
                ]
            ],
            [
                [
                    0.03245150297880173,
                    0.051597174257040024,
                    -0.07975567132234573
                ],
                [
                    0.07986056059598923,
                    0.12426004558801651,
                    0.04852031171321869
                ],
                [
                    0.06360629200935364,
                    0.056670285761356354,
                    0.05999879166483879
                ]
            ],
            [
                [
                    0.07660610973834991,
                    -0.030036894604563713,
                    -0.09165632724761963
                ],
                [
                    -0.04533446580171585,
                    -0.020897721871733665,
                    0.02844158001244068
                ],
                [
                    0.09619140625,
                    0.01094698067754507,
                    -0.05080581456422806
                ]
            ],
            [
                [
                    -0.025873782113194466,
                    -0.11195547878742218,
                    -0.018457388505339622
                ],
                [
                    0.15114857256412506,
                    0.1801515817642212,
                    0.13979580998420715
                ],
                [
                    0.039272475987672806,
                    0.08329246193170547,
                    0.15374891459941864
                ]
            ],
            [
                [
                    -0.030489610508084297,
                    -0.026037707924842834,
                    -0.017599977552890778
                ],
                [
                    -0.02010962925851345,
                    0.0005554576637223363,
                    0.025360019877552986
                ],
                [
                    -0.04833574220538139,
                    0.03199414908885956,
                    -0.05723487213253975
                ]
            ],
            [
                [
                    -0.1864527016878128,
                    -0.10160715878009796,
                    -0.005470193922519684
                ],
                [
                    -0.07539171725511551,
                    -0.04503413289785385,
                    -0.07501854747533798
                ],
                [
                    0.10296180844306946,
                    0.04104333370923996,
                    0.03496478497982025
                ]
            ],
            [
                [
                    0.04220682382583618,
                    -0.1062634214758873,
                    0.009225746616721153
                ],
                [
                    0.03264707326889038,
                    0.05298137664794922,
                    -0.15299205482006073
                ],
                [
                    -0.08592084050178528,
                    -0.08567450195550919,
                    -0.15156115591526031
                ]
            ],
            [
                [
                    0.08959978818893433,
                    -0.048574309796094894,
                    0.0019555033650249243
                ],
                [
                    0.01889076828956604,
                    0.0669018104672432,
                    -0.019871512427926064
                ],
                [
                    -0.0559963583946228,
                    -0.004650677554309368,
                    0.03347078710794449
                ]
            ],
            [
                [
                    -0.03199152648448944,
                    0.0716724693775177,
                    -0.048380181193351746
                ],
                [
                    0.043491851538419724,
                    0.009036933071911335,
                    0.05181334167718887
                ],
                [
                    -0.044609252363443375,
                    -0.02536619082093239,
                    0.07959608733654022
                ]
            ],
            [
                [
                    -0.11077389121055603,
                    0.06479009240865707,
                    0.09400908648967743
                ],
                [
                    -0.006512025371193886,
                    0.07551805675029755,
                    0.054670002311468124
                ],
                [
                    -0.0015977317234501243,
                    -0.0704881101846695,
                    -0.029063234105706215
                ]
            ],
            [
                [
                    -0.14961540699005127,
                    -0.13637331128120422,
                    -0.07565151154994965
                ],
                [
                    -0.040473368018865585,
                    0.004596353974193335,
                    0.040521085262298584
                ],
                [
                    0.003952608909457922,
                    0.13290168344974518,
                    0.08848586678504944
                ]
            ],
            [
                [
                    -0.013793290592730045,
                    0.009238737635314465,
                    0.09608618915081024
                ],
                [
                    0.003831481095403433,
                    -0.014933912083506584,
                    -0.04527851566672325
                ],
                [
                    -0.04330886900424957,
                    0.08556476980447769,
                    -0.12767013907432556
                ]
            ],
            [
                [
                    0.062436118721961975,
                    0.08944354206323624,
                    -0.0636812150478363
                ],
                [
                    0.10159928351640701,
                    -0.024677110835909843,
                    0.02746693044900894
                ],
                [
                    0.016290411353111267,
                    0.029615648090839386,
                    -0.08037025481462479
                ]
            ],
            [
                [
                    0.07299955189228058,
                    0.07119595259428024,
                    -0.013662943616509438
                ],
                [
                    0.05235482007265091,
                    0.038048721849918365,
                    0.10363104939460754
                ],
                [
                    0.004714031238108873,
                    -0.09677325934171677,
                    -0.013353887014091015
                ]
            ],
            [
                [
                    -0.18819165229797363,
                    -0.025340477004647255,
                    0.11787236481904984
                ],
                [
                    -0.23372356593608856,
                    -0.13055962324142456,
                    -0.053926486521959305
                ],
                [
                    -0.09311020374298096,
                    0.030256755650043488,
                    0.17359700798988342
                ]
            ]
        ],
        [
            [
                [
                    0.06139713525772095,
                    0.06192006170749664,
                    0.0541810616850853
                ],
                [
                    -0.023586953058838844,
                    -0.03513240069150925,
                    0.17683836817741394
                ],
                [
                    0.17738698422908783,
                    -0.03551332280039787,
                    -0.08570631593465805
                ]
            ],
            [
                [
                    -0.0304315984249115,
                    -0.021589010953903198,
                    0.04138488322496414
                ],
                [
                    -0.10893168300390244,
                    -0.02868807315826416,
                    -0.00460876664146781
                ],
                [
                    -0.10468712449073792,
                    0.03210132196545601,
                    -0.054521724581718445
                ]
            ],
            [
                [
                    0.056793682277202606,
                    0.062549889087677,
                    0.026979433372616768
                ],
                [
                    -0.020782802253961563,
                    0.05835873633623123,
                    -0.08539780229330063
                ],
                [
                    -0.07756868004798889,
                    0.07935885339975357,
                    -0.07527407258749008
                ]
            ],
            [
                [
                    0.019902585074305534,
                    0.11972356587648392,
                    0.09419520944356918
                ],
                [
                    0.04651879891753197,
                    0.07830697298049927,
                    0.09368214756250381
                ],
                [
                    -0.023454414680600166,
                    0.08506372570991516,
                    0.06298774480819702
                ]
            ],
            [
                [
                    -0.08721831440925598,
                    0.014635056257247925,
                    0.004899469204246998
                ],
                [
                    0.022315537557005882,
                    -0.09721573442220688,
                    0.06260503083467484
                ],
                [
                    0.16921305656433105,
                    0.06714709103107452,
                    -0.018157433718442917
                ]
            ],
            [
                [
                    -0.012546563521027565,
                    0.03301536664366722,
                    -0.025148184970021248
                ],
                [
                    -0.010639475658535957,
                    -0.02375190705060959,
                    0.05736936628818512
                ],
                [
                    -0.009068164974451065,
                    0.03600751981139183,
                    -0.06891579180955887
                ]
            ],
            [
                [
                    0.11578120291233063,
                    0.031407926231622696,
                    0.04627903550863266
                ],
                [
                    0.020402872934937477,
                    0.02924644574522972,
                    0.006816834211349487
                ],
                [
                    0.030178572982549667,
                    0.023967992514371872,
                    0.018991371616721153
                ]
            ],
            [
                [
                    -0.14040790498256683,
                    0.04584882780909538,
                    0.010797908529639244
                ],
                [
                    -0.07110254466533661,
                    -0.06254441291093826,
                    -0.018909454345703125
                ],
                [
                    -0.015531817451119423,
                    -0.0123274652287364,
                    -0.008634517900645733
                ]
            ],
            [
                [
                    0.0381312370300293,
                    0.07398521900177002,
                    0.10455569624900818
                ],
                [
                    -0.09286697208881378,
                    -0.032655227929353714,
                    -0.03600363805890083
                ],
                [
                    0.10482607036828995,
                    0.08963187783956528,
                    0.018130693584680557
                ]
            ],
            [
                [
                    -0.023488709703087807,
                    0.0927172377705574,
                    0.025579774752259254
                ],
                [
                    0.0594414584338665,
                    0.05355272814631462,
                    0.09399299323558807
                ],
                [
                    0.030776165425777435,
                    -0.02056700550019741,
                    0.052585896104574203
                ]
            ],
            [
                [
                    0.008639090694487095,
                    0.05364229902625084,
                    -0.01508004404604435
                ],
                [
                    -0.03577769920229912,
                    -0.010578290559351444,
                    0.11379298567771912
                ],
                [
                    -0.027219578623771667,
                    -0.08514665067195892,
                    0.08778826892375946
                ]
            ],
            [
                [
                    0.0959792509675026,
                    0.19362445175647736,
                    0.13425178825855255
                ],
                [
                    0.2428448498249054,
                    0.1660553365945816,
                    -0.04605817422270775
                ],
                [
                    0.017265567556023598,
                    0.09401795268058777,
                    0.056308772414922714
                ]
            ],
            [
                [
                    -0.00151874462608248,
                    -0.11883044987916946,
                    -0.10284553468227386
                ],
                [
                    -0.14427627623081207,
                    -0.0167801845818758,
                    0.04426107555627823
                ],
                [
                    -0.07649767398834229,
                    0.0751614198088646,
                    0.09329105168581009
                ]
            ],
            [
                [
                    -0.028459055349230766,
                    0.01324461679905653,
                    0.03169010952115059
                ],
                [
                    0.04519381746649742,
                    0.07643567770719528,
                    0.02958817407488823
                ],
                [
                    0.0060173929668962955,
                    0.026766156777739525,
                    -0.027467161417007446
                ]
            ],
            [
                [
                    0.021985867992043495,
                    0.1227899119257927,
                    0.0030318088829517365
                ],
                [
                    -0.04630627855658531,
                    0.09080778062343597,
                    0.04305634647607803
                ],
                [
                    0.1358417123556137,
                    0.10701466351747513,
                    0.07691033184528351
                ]
            ],
            [
                [
                    0.04684571921825409,
                    -0.009213055483996868,
                    0.09076360613107681
                ],
                [
                    -0.021207623183727264,
                    -0.019661936908960342,
                    0.025050636380910873
                ],
                [
                    0.0337882824242115,
                    -0.044901855289936066,
                    0.020298868417739868
                ]
            ]
        ],
        [
            [
                [
                    -0.02600390836596489,
                    -0.023940032348036766,
                    0.06455375254154205
                ],
                [
                    0.0853184163570404,
                    0.048032358288764954,
                    -0.04912349581718445
                ],
                [
                    0.0684468224644661,
                    -0.031099611893296242,
                    -0.020516814664006233
                ]
            ],
            [
                [
                    -0.03985767066478729,
                    0.009796051308512688,
                    -0.007284380029886961
                ],
                [
                    0.025953486561775208,
                    -0.026523856446146965,
                    -0.08899195492267609
                ],
                [
                    0.019178522750735283,
                    0.05596873164176941,
                    -0.10510048270225525
                ]
            ],
            [
                [
                    -0.027288615703582764,
                    0.026631981134414673,
                    -0.007748853415250778
                ],
                [
                    -0.038176849484443665,
                    0.033069707453250885,
                    -0.02079164795577526
                ],
                [
                    0.023170745000243187,
                    0.05870439484715462,
                    -0.06357494741678238
                ]
            ],
            [
                [
                    -0.0014701943146064878,
                    -0.015477881766855717,
                    0.08651665598154068
                ],
                [
                    -0.025513475760817528,
                    0.0997711643576622,
                    0.17016683518886566
                ],
                [
                    0.02424958162009716,
                    -0.07011683285236359,
                    0.08969131857156754
                ]
            ],
            [
                [
                    0.08654606342315674,
                    0.12388807535171509,
                    0.06513412296772003
                ],
                [
                    -0.032152820378541946,
                    -0.060752492398023605,
                    0.1295691430568695
                ],
                [
                    -0.0439661405980587,
                    -0.06556688994169235,
                    0.11385698616504669
                ]
            ],
            [
                [
                    0.0038889413699507713,
                    0.07127468287944794,
                    -0.07442449778318405
                ],
                [
                    -0.04101584851741791,
                    0.04860493913292885,
                    -0.009706700220704079
                ],
                [
                    0.04937008023262024,
                    -0.05299406498670578,
                    0.001411871868185699
                ]
            ],
            [
                [
                    0.027660205960273743,
                    0.122922882437706,
                    0.08766835182905197
                ],
                [
                    0.04788782075047493,
                    -0.08242028951644897,
                    0.14665554463863373
                ],
                [
                    -0.031673863530159,
                    0.03182947263121605,
                    0.12152022868394852
                ]
            ],
            [
                [
                    -0.07816030830144882,
                    -0.06724913418292999,
                    -0.0413956381380558
                ],
                [
                    -0.012805824168026447,
                    0.025758137926459312,
                    -0.055440910160541534
                ],
                [
                    -0.015259935520589352,
                    -0.04076681286096573,
                    -0.18048930168151855
                ]
            ],
            [
                [
                    0.0562308169901371,
                    0.08397357910871506,
                    0.12884528934955597
                ],
                [
                    0.13093963265419006,
                    0.13216771185398102,
                    0.08468570560216904
                ],
                [
                    0.02964930795133114,
                    0.052054256200790405,
                    0.08231743425130844
                ]
            ],
            [
                [
                    0.04781761392951012,
                    0.09695824980735779,
                    0.0920453667640686
                ],
                [
                    0.07732953876256943,
                    0.06830445677042007,
                    0.020722532644867897
                ],
                [
                    -0.005378490313887596,
                    0.028729142621159554,
                    -0.05629211664199829
                ]
            ],
            [
                [
                    0.10852132737636566,
                    0.08687220513820648,
                    0.024072367697954178
                ],
                [
                    0.04423142224550247,
                    -0.02916059084236622,
                    -0.01956138014793396
                ],
                [
                    0.037854570895433426,
                    0.018260154873132706,
                    -0.037120021879673004
                ]
            ],
            [
                [
                    0.06988793611526489,
                    0.008494334295392036,
                    0.15507560968399048
                ],
                [
                    -0.044299185276031494,
                    -0.03866034001111984,
                    0.019220557063817978
                ],
                [
                    0.015284777618944645,
                    0.12474361062049866,
                    0.21818256378173828
                ]
            ],
            [
                [
                    0.011531520634889603,
                    -0.02171226032078266,
                    0.10542438179254532
                ],
                [
                    -0.017321720719337463,
                    -0.06392109394073486,
                    0.05031656473875046
                ],
                [
                    0.04002702981233597,
                    -0.08137962967157364,
                    -0.0787852555513382
                ]
            ],
            [
                [
                    0.04988502338528633,
                    -0.04327058792114258,
                    0.018820349127054214
                ],
                [
                    -0.06600422412157059,
                    -0.01466485857963562,
                    0.05945802852511406
                ],
                [
                    0.04671388864517212,
                    -0.05802524462342262,
                    -0.04244700074195862
                ]
            ],
            [
                [
                    -0.02011098898947239,
                    0.007832061499357224,
                    0.024843847379088402
                ],
                [
                    -0.04220153018832207,
                    0.0426262691617012,
                    0.06843751668930054
                ],
                [
                    0.0318061038851738,
                    -0.03423815965652466,
                    0.12066593021154404
                ]
            ],
            [
                [
                    -0.052307985723018646,
                    0.02721477672457695,
                    -0.06702529639005661
                ],
                [
                    -0.11276518553495407,
                    -0.06191295385360718,
                    -0.051545385271310806
                ],
                [
                    -0.004655370954424143,
                    0.055422522127628326,
                    0.07353873550891876
                ]
            ]
        ],
        [
            [
                [
                    -0.050037749111652374,
                    -0.09214001893997192,
                    0.0006823081057518721
                ],
                [
                    0.10121264308691025,
                    0.1583792269229889,
                    0.07431261241436005
                ],
                [
                    0.0267020333558321,
                    0.11304081976413727,
                    0.013741625472903252
                ]
            ],
            [
                [
                    -0.0660751461982727,
                    -0.14751896262168884,
                    0.07914747297763824
                ],
                [
                    0.11749568581581116,
                    -0.009176223538815975,
                    -0.014283600263297558
                ],
                [
                    -0.12088114023208618,
                    0.03398794308304787,
                    -0.06427846103906631
                ]
            ],
            [
                [
                    0.024428676813840866,
                    0.015251250006258488,
                    -0.06522243469953537
                ],
                [
                    -0.012167595326900482,
                    0.09917062520980835,
                    0.08091405779123306
                ],
                [
                    0.007414000108838081,
                    -0.07602591067552567,
                    0.05750996991991997
                ]
            ],
            [
                [
                    -0.07020094245672226,
                    -0.048880212008953094,
                    0.035719212144613266
                ],
                [
                    -0.008391578681766987,
                    -0.01324185449630022,
                    0.04765436053276062
                ],
                [
                    0.04932984709739685,
                    0.0009758301312103868,
                    0.008676966652274132
                ]
            ],
            [
                [
                    0.07694423943758011,
                    0.12595534324645996,
                    -0.07687680423259735
                ],
                [
                    0.1440737098455429,
                    0.12555643916130066,
                    -0.005178234539926052
                ],
                [
                    -0.10955619066953659,
                    -0.11991512030363083,
                    0.03889413923025131
                ]
            ],
            [
                [
                    0.06515225023031235,
                    0.05588294938206673,
                    -0.07533269375562668
                ],
                [
                    0.003251646878197789,
                    0.019150229170918465,
                    0.025860687717795372
                ],
                [
                    0.06347858160734177,
                    -0.004645801614969969,
                    -0.01675078086555004
                ]
            ],
            [
                [
                    -0.05192103609442711,
                    -0.0991806909441948,
                    -0.03894655406475067
                ],
                [
                    0.06789271533489227,
                    0.06563496589660645,
                    0.00915304571390152
                ],
                [
                    -0.1909884512424469,
                    -0.09741729497909546,
                    0.026364274322986603
                ]
            ],
            [
                [
                    -0.06877569854259491,
                    0.008792294189333916,
                    -0.026062099263072014
                ],
                [
                    -0.03604704886674881,
                    -0.11994543671607971,
                    -0.014172040857374668
                ],
                [
                    -0.14625342190265656,
                    0.040581610053777695,
                    -0.07029654830694199
                ]
            ],
            [
                [
                    -0.06154507026076317,
                    0.034032367169857025,
                    -0.06387793272733688
                ],
                [
                    0.06258468329906464,
                    -0.006850037258118391,
                    0.017639432102441788
                ],
                [
                    0.039884112775325775,
                    -0.04262185096740723,
                    -0.01703523099422455
                ]
            ],
            [
                [
                    -0.04759784787893295,
                    0.06200843304395676,
                    0.013367018662393093
                ],
                [
                    -0.03953829035162926,
                    -0.04833768680691719,
                    0.04509500786662102
                ],
                [
                    0.0399358868598938,
                    -0.0711468756198883,
                    0.018341850489377975
                ]
            ],
            [
                [
                    0.02563948929309845,
                    0.10300847887992859,
                    -0.030490385368466377
                ],
                [
                    0.012474059127271175,
                    0.02318994514644146,
                    -0.045069094747304916
                ],
                [
                    -0.07169075310230255,
                    -0.005689097568392754,
                    -0.0517464354634285
                ]
            ],
            [
                [
                    -0.019227169454097748,
                    -0.09865424036979675,
                    -0.12459900975227356
                ],
                [
                    -0.040265779942274094,
                    -0.044533856213092804,
                    0.07855591177940369
                ],
                [
                    -0.20765480399131775,
                    -0.10575678199529648,
                    0.050002843141555786
                ]
            ],
            [
                [
                    -0.0917380228638649,
                    0.015011319890618324,
                    -0.04029040411114693
                ],
                [
                    0.04887574538588524,
                    -0.021838238462805748,
                    0.020110059529542923
                ],
                [
                    0.03563643991947174,
                    -0.04786037653684616,
                    0.00910989847034216
                ]
            ],
            [
                [
                    -0.01765250228345394,
                    -0.04945892095565796,
                    -0.024046942591667175
                ],
                [
                    -0.023446595296263695,
                    -0.01644631288945675,
                    0.08947542309761047
                ],
                [
                    0.03963705897331238,
                    -0.005497511476278305,
                    0.14845748245716095
                ]
            ],
            [
                [
                    0.03675533086061478,
                    -0.031415969133377075,
                    -0.10340295732021332
                ],
                [
                    0.041288647800683975,
                    0.01864871382713318,
                    0.03232860937714577
                ],
                [
                    0.03329604119062424,
                    -0.04245618358254433,
                    0.008369442075490952
                ]
            ],
            [
                [
                    -0.11740037798881531,
                    -0.021892057731747627,
                    0.02554185315966606
                ],
                [
                    2.4450491764582694e-06,
                    -0.08767398446798325,
                    -0.05587627738714218
                ],
                [
                    0.05269395560026169,
                    -0.11130011826753616,
                    -0.010342891328036785
                ]
            ]
        ],
        [
            [
                [
                    -0.01923096366226673,
                    0.05269584804773331,
                    -0.04677627608180046
                ],
                [
                    -0.07554290443658829,
                    0.03637390956282616,
                    0.049238480627536774
                ],
                [
                    0.006493120454251766,
                    0.044162899255752563,
                    -0.06361556798219681
                ]
            ],
            [
                [
                    -0.06332721561193466,
                    -0.11598408967256546,
                    -0.06025538593530655
                ],
                [
                    -0.010567438788712025,
                    0.005263481289148331,
                    -0.20477592945098877
                ],
                [
                    0.030532654374837875,
                    -0.08212048560380936,
                    -0.10436452925205231
                ]
            ],
            [
                [
                    -0.008130430243909359,
                    0.024905867874622345,
                    0.06389419734477997
                ],
                [
                    -0.09894600510597229,
                    -0.014455112628638744,
                    0.02972937747836113
                ],
