{
    "conv1.0.weight": [
        [
            [
                [
                    -0.03351299837231636,
                    0.07031736522912979,
                    0.0170036181807518
                ],
                [
                    -0.0014861129457131028,
                    0.19870878756046295,
                    0.019149011000990868
                ],
                [
                    -0.06552798300981522,
                    0.09896914660930634,
                    0.08745192736387253
                ]
            ],
            [
                [
                    -0.05440845340490341,
                    0.04105265066027641,
                    -0.037715572863817215
                ],
                [
                    0.013720638118684292,
                    -0.06838765740394592,
                    0.003464566543698311
                ],
                [
                    0.030224962159991264,
                    0.08132321387529373,
                    -0.07065711170434952
                ]
            ],
            [
                [
                    0.02810991182923317,
                    0.023382794111967087,
                    -0.08284080028533936
                ],
                [
                    -0.08100780844688416,
                    0.10297662764787674,
                    -0.06509510427713394
                ],
                [
                    0.038357146084308624,
                    0.027285099029541016,
                    0.025124425068497658
                ]
            ],
            [
                [
                    -0.051815059036016464,
                    0.022322360426187515,
                    -0.09061510115861893
                ],
                [
                    0.057183489203453064,
                    0.0754307433962822,
                    0.05430397391319275
                ],
                [
                    0.02781338058412075,
                    0.017293842509388924,
                    -0.09594277292490005
                ]
            ],
            [
                [
                    0.05192410573363304,
                    -0.058646123856306076,
                    0.030461903661489487
                ],
                [
                    0.0903223529458046,
                    -0.013820855878293514,
                    -0.02865036390721798
                ],
                [
                    0.04308343306183815,
                    -0.038221631199121475,
                    -0.013319914229214191
                ]
            ],
            [
                [
                    -0.03464394807815552,
                    -0.04397798329591751,
                    -0.02706093154847622
                ],
                [
                    -0.06687072664499283,
                    0.07112184911966324,
                    0.07161913812160492
                ],
                [
                    -0.07964525371789932,
                    0.02106068655848503,
                    0.001211185590364039
                ]
            ],
            [
                [
                    0.015440760180354118,
                    -0.014738479629158974,
                    -0.04047966003417969
                ],
                [
                    -0.01067471131682396,
                    0.08273308724164963,
                    -0.018969913944602013
                ],
                [
                    -0.015621725469827652,
                    -0.04784111678600311,
                    0.02928418293595314
                ]
            ],
            [
                [
                    -0.007979498244822025,
                    -0.11093704402446747,
                    -0.04918842017650604
                ],
                [
                    -0.009038062766194344,
                    0.07996109127998352,
                    -0.006184679921716452
                ],
                [
                    0.16874676942825317,
                    0.10719512403011322,
                    -0.02725205011665821
                ]
            ],
            [
                [
                    -0.1504335105419159,
                    -0.09188314527273178,
                    -0.07284171134233475
                ],
                [
                    -0.07977218180894852,
                    0.08891582489013672,
                    0.032566092908382416
                ],
                [
                    -0.13539010286331177,
                    -0.06795314699411392,
                    -0.06447890400886536
                ]
            ],
            [
                [
                    0.03261532634496689,
                    -0.09954138100147247,
                    0.051776353269815445
                ],
                [
                    -0.07281681895256042,
                    0.046051252633333206,
                    0.013501403853297234
                ],
                [
                    -0.12633709609508514,
                    -0.08436685055494308,
                    -0.045134808868169785
                ]
            ],
            [
                [
                    0.01169535517692566,
                    -0.01722806692123413,
                    0.039045412093400955
                ],
                [
                    0.006508962716907263,
                    0.032357875257730484,
                    0.04921117052435875
                ],
                [
                    -0.0038845185190439224,
                    -0.028439052402973175,
                    -0.060143861919641495
                ]
            ],
            [
                [
                    -0.08576986938714981,
                    -0.0288214273750782,
                    -0.054468512535095215
                ],
                [
                    -0.0678815171122551,
                    -0.02416573278605938,
                    0.05942832678556442
                ],
                [
                    0.06699634343385696,
                    0.054899800568819046,
                    0.08644209057092667
                ]
            ],
            [
                [
                    -0.01736002415418625,
                    0.021903790533542633,
                    0.0058293030597269535
                ],
                [
                    0.005855710245668888,
                    0.007815554738044739,
                    -0.04279366135597229
                ],
                [
                    -0.061548613011837006,
                    0.0036111909430474043,
                    0.03361421450972557
                ]
            ],
            [
                [
                    0.03496871888637543,
                    -0.023439843207597733,
                    0.03888462111353874
                ],
                [
                    0.026521550491452217,
                    -0.005017522722482681,
                    -0.04196437820792198
                ],
                [
                    -0.07903815805912018,
                    -0.04131932184100151,
                    -0.10610829293727875
                ]
            ],
            [
                [
                    -0.052107591181993484,
                    -0.10498181730508804,
                    0.006242583971470594
                ],
                [
                    0.08437784761190414,
                    -0.07675383985042572,
                    0.054163429886102676
                ],
                [
                    0.10080785304307938,
                    0.0875406563282013,
                    0.1464589685201645
                ]
            ],
            [
                [
                    -0.06342063099145889,
                    0.0045706178061664104,
                    0.04143856093287468
                ],
                [
                    -0.0597199872136116,
                    0.02933250181376934,
                    0.09140755236148834
                ],
                [
                    0.059648144990205765,
                    0.03585011884570122,
                    0.1002490222454071
                ]
            ],
            [
                [
                    0.04949376732110977,
                    -0.07811228185892105,
                    -0.07888510823249817
                ],
                [
                    0.05505535006523132,
                    -0.042485594749450684,
                    0.03743772208690643
                ],
                [
                    -0.046933554112911224,
                    0.016885969787836075,
                    0.04603515565395355
                ]
            ]
        ],
        [
            [
                [
                    -0.1403355896472931,
                    -0.004853761289268732,
                    -0.07161284238100052
                ],
                [
                    -0.05050108581781387,
                    -0.03366164118051529,
                    -0.09264113008975983
                ],
                [
                    -0.08599952608346939,
                    -0.046988293528556824,
                    -0.10201510787010193
                ]
            ],
            [
                [
                    -0.03179824724793434,
                    0.023882783949375153,
                    0.020632416009902954
                ],
                [
                    0.04613986238837242,
                    0.07383902370929718,
                    -0.04597306251525879
                ],
                [
                    0.0370822511613369,
                    0.0204227976500988,
                    -0.025570528581738472
                ]
            ],
            [
                [
                    0.020945779979228973,
                    0.015123018063604832,
                    0.11348257213830948
                ],
                [
                    -0.0289219431579113,
                    -0.008760946802794933,
                    0.06783059984445572
                ],
                [
                    0.029910752549767494,
                    0.023279253393411636,
                    0.011803410947322845
                ]
            ],
            [
                [
                    -0.13237611949443817,
                    0.02938748337328434,
                    0.012296434491872787
                ],
                [
                    -0.016155926510691643,
                    0.008128739893436432,
                    0.021383417770266533
                ],
                [
                    0.1171673908829689,
                    -0.003726598573848605,
                    -0.05016171932220459
                ]
            ],
            [
                [
                    0.059727393090724945,
                    0.10009638220071793,
                    -0.004148892592638731
                ],
                [
                    0.015663018450140953,
                    0.03815809637308121,
                    0.11767037957906723
                ],
                [
                    0.056491535156965256,
                    0.08177517354488373,
                    -0.026947585865855217
                ]
            ],
            [
                [
                    0.047167591750621796,
                    0.1477472186088562,
                    0.060832224786281586
                ],
                [
                    -0.0435672253370285,
                    0.11747580766677856,
                    0.09903045743703842
                ],
                [
                    0.11532638221979141,
                    -0.04577129706740379,
                    -0.10349159687757492
                ]
            ],
            [
                [
                    0.018970804288983345,
                    -0.08429104089736938,
                    0.020504290238022804
                ],
                [
                    0.021184688434004784,
                    -0.028087269514799118,
                    -0.0015843779547140002
                ],
                [
                    0.025269227102398872,
                    -0.04651216045022011,
                    -0.05805033817887306
                ]
            ],
            [
                [
                    -0.04024791345000267,
                    0.0010070661082863808,
                    0.02764609456062317
                ],
                [
                    -0.011168938130140305,
                    0.06199367716908455,
                    -0.16008485853672028
                ],
                [
                    0.06042931601405144,
                    0.07831818610429764,
                    -0.06027761101722717
                ]
            ],
            [
                [
                    -0.07815635204315186,
                    0.07508804649114609,
                    0.021894825622439384
                ],
                [
                    -0.13385450839996338,
                    0.027715573087334633,
                    0.030468666926026344
                ],
                [
                    0.07726133614778519,
                    -0.06599545478820801,
                    -0.15367580950260162
                ]
            ],
            [
                [
                    0.031613435596227646,
                    -0.08719023317098618,
                    0.0228209737688303
                ],
                [
                    0.04786429554224014,
                    -0.07484198361635208,
                    0.0507412813603878
                ],
                [
                    -0.025644762441515923,
                    -0.004000153858214617,
                    0.09544454514980316
                ]
            ],
            [
                [
                    0.0028266364242881536,
                    0.06071113422513008,
                    -0.05445268377661705
                ],
                [
                    0.03007962927222252,
                    0.04050735384225845,
                    -0.04471511021256447
                ],
                [
                    0.0031920578330755234,
                    0.00869031436741352,
                    -0.05549919232726097
                ]
            ],
            [
                [
                    -0.0113525390625,
                    -0.0009152099955826998,
                    -0.012860880233347416
                ],
                [
                    -0.02978145331144333,
                    0.03361485153436661,
                    -0.02536170557141304
                ],
                [
                    -0.0010677942773327231,
                    0.0729944035410881,
                    -0.035164520144462585
                ]
            ],
            [
                [
                    -0.04374957084655762,
                    0.017009273171424866,
                    -0.010487381368875504
                ],
                [
                    0.03631734102964401,
                    -0.05866772681474686,
                    0.027428699657320976
                ],
                [
                    0.012878995388746262,
                    0.025631487369537354,
                    -0.03441633656620979
                ]
            ],
            [
                [
                    -0.014729656279087067,
                    -0.08081596344709396,
                    -0.04131608456373215
                ],
                [
                    0.10079371184110641,
                    -0.04296846315264702,
                    0.07552772015333176
                ],
                [
                    -0.030491584911942482,
                    -0.00706529663875699,
                    -0.010070180520415306
                ]
            ],
            [
                [
                    -0.05592077597975731,
                    -0.05139809101819992,
                    -0.06469912827014923
                ],
                [
                    0.012452241033315659,
                    -0.02424514852464199,
                    -0.07753180712461472
                ],
                [
                    0.010385670699179173,
                    0.0982528105378151,
                    0.0055039627477526665
                ]
            ],
            [
                [
                    0.06900839507579803,
                    -0.0016251717461273074,
                    -0.030827082693576813
                ],
                [
                    -0.025920776650309563,
                    0.03477082401514053,
                    -0.12524732947349548
                ],
                [
                    0.060465820133686066,
                    -0.07415132969617844,
                    -0.074067622423172
                ]
            ],
            [
                [
                    -0.027604099363088608,
                    0.07677622884511948,
                    -0.024696456268429756
                ],
                [
                    -0.047631245106458664,
                    0.013040023855865002,
                    0.034310728311538696
                ],
                [
                    -0.01570102944970131,
                    0.027961283922195435,
                    -0.08017722517251968
                ]
            ]
        ],
        [
            [
                [
                    -0.017694974318146706,
                    -0.02004074677824974,
                    0.01024310290813446
                ],
                [
                    0.12860283255577087,
                    0.0861988440155983,
                    0.039829861372709274
                ],
                [
                    0.05098273232579231,
                    0.075836680829525,
                    0.027638250961899757
                ]
            ],
            [
                [
                    0.04800329729914665,
                    0.05556945130228996,
                    -0.008695083670318127
                ],
                [
                    0.00295834569260478,
                    0.029714016243815422,
                    0.06501269340515137
                ],
                [
                    -0.0008750472916290164,
                    -0.08811936527490616,
                    0.04989555478096008
                ]
            ],
            [
                [
                    0.021161168813705444,
                    -0.035662561655044556,
                    0.1053759902715683
                ],
                [
                    0.013881342485547066,
                    -0.02412358671426773,
                    -0.05380389466881752
                ],
                [
                    0.012244352139532566,
                    -0.035735201090574265,
                    -0.08201912045478821
                ]
            ],
            [
                [
                    -0.004939752630889416,
                    -0.04240591824054718,
                    -0.035490889102220535
                ],
                [
                    0.04577808827161789,
                    0.03874426707625389,
                    0.07691656053066254
                ],
                [
                    -0.05224817991256714,
                    0.01974490098655224,
                    0.04436901584267616
                ]
            ],
            [
                [
                    -0.062111735343933105,
                    0.02798510529100895,
                    0.05823390558362007
                ],
                [
                    0.031169762834906578,
                    -0.05410325899720192,
                    -0.018443794921040535
                ],
                [
                    0.032982438802719116,
                    -0.03535845875740051,
                    0.01169062964618206
                ]
            ],
            [
                [
                    -0.039190176874399185,
                    0.002896892838180065,
                    0.10103917121887207
                ],
                [
                    -0.015757419168949127,
                    0.02249549888074398,
                    0.0162198469042778
                ],
                [
                    0.005162746179848909,
                    -0.1602889597415924,
                    0.03488030657172203
                ]
            ],
            [
                [
                    0.004325775895267725,
                    -0.02515321969985962,
                    -0.018608570098876953
                ],
                [
                    -0.07631050795316696,
                    0.047010403126478195,
                    0.014906872995197773
                ],
                [
                    0.012067754752933979,
                    -0.022118765860795975,
                    0.01928619295358658
                ]
            ],
            [
                [
                    0.03324029594659805,
                    -0.09551476687192917,
                    0.09927039593458176
                ],
                [
                    -0.06039910390973091,
                    -0.029451007023453712,
                    0.07932161539793015
                ],
                [
                    -0.02061181515455246,
                    -0.10278494656085968,
                    -0.08036783337593079
                ]
            ],
            [
                [
                    -0.11594865471124649,
                    -0.23374071717262268,
                    0.029530663043260574
                ],
                [
                    -0.12778319418430328,
                    -0.19231835007667542,
                    -0.03180667385458946
                ],
                [
                    0.042996373027563095,
                    -0.07415425777435303,
                    0.016242722049355507
                ]
            ],
            [
                [
                    -0.12684953212738037,
                    0.07912328094244003,
                    -0.014973741956055164
                ],
                [
                    -0.08076023310422897,
                    -0.033006928861141205,
                    -0.0008249440579675138
                ],
                [
                    0.076311394572258,
                    -0.022841699421405792,
                    -0.12748689949512482
                ]
            ],
            [
                [
                    0.1237448900938034,
                    -0.0500519797205925,
                    -0.012518273666501045
                ],
                [
                    -0.009120186790823936,
                    0.045142605900764465,
                    -0.01737588457763195
                ],
                [
                    -0.0012600155314430594,
                    -0.04110148921608925,
                    0.09380293637514114
                ]
            ],
            [
                [
                    0.003604052122682333,
                    -0.07722865790128708,
                    -0.11897571384906769
                ],
                [
                    0.028689026832580566,
                    0.06334835290908813,
                    0.07143116742372513
                ],
                [
                    0.07085148990154266,
                    -0.06832511723041534,
                    0.05488508939743042
                ]
            ],
            [
                [
                    -0.013178979977965355,
                    0.010548810474574566,
                    -0.011184681206941605
                ],
                [
                    0.007777752820402384,
                    -0.06763682514429092,
                    -0.012933447025716305
                ],
                [
                    -0.011213121004402637,
                    -0.03104882873594761,
                    0.007974118925631046
                ]
            ],
            [
                [
                    0.004176187328994274,
                    0.008602994494140148,
                    0.005613407585769892
                ],
                [
                    -0.0020901637617498636,
                    -0.02632131241261959,
                    -0.13033799827098846
                ],
                [
                    -0.012969253584742546,
                    0.00034036790020763874,
                    0.0630287379026413
                ]
            ],
            [
                [
                    0.08502768725156784,
                    -0.07056842744350433,
                    -0.012242269702255726
                ],
                [
                    0.013790772296488285,
                    0.05172853544354439,
                    0.028064778074622154
                ],
                [
                    -0.10173799097537994,
                    -0.10107417404651642,
                    -0.05136746168136597
                ]
            ],
            [
                [
                    0.013816931284964085,
                    0.05861496552824974,
                    0.14308974146842957
                ],
                [
                    -0.018901154398918152,
                    0.011221712455153465,
                    0.13418203592300415
                ],
                [
                    0.00680679501965642,
                    -0.0801621600985527,
                    -0.07658062130212784
                ]
            ],
            [
                [
                    -0.005689810495823622,
                    -0.06973481923341751,
                    0.07491722702980042
                ],
                [
                    -0.04037697985768318,
                    0.07997182756662369,
                    -0.03859466686844826
                ],
                [
                    -0.05719747394323349,
                    0.09484558552503586,
                    -0.012896306812763214
                ]
            ]
        ],
        [
            [
                [
                    0.035776566714048386,
                    0.016309231519699097,
                    -0.022685162723064423
                ],
                [
                    0.06482232362031937,
                    0.007838679477572441,
                    -0.015404876321554184
                ],
                [
                    -0.0533161461353302,
                    0.09882980585098267,
                    0.026860374957323074
                ]
            ],
            [
                [
                    0.05226382613182068,
                    0.015990164130926132,
                    0.006392476614564657
                ],
                [
                    -0.060251448303461075,
                    -0.009169716387987137,
                    0.05159863829612732
                ],
                [
                    0.0807790458202362,
                    0.0030400464311242104,
                    -0.030110783874988556
                ]
            ],
            [
                [
                    0.02834944613277912,
                    -0.041331637650728226,
                    0.031415943056344986
                ],
                [
                    -0.08814970403909683,
                    0.10156787186861038,
                    0.07448771595954895
                ],
                [
                    0.004025786183774471,
                    -0.019612783566117287,
                    -0.026498934254050255
                ]
            ],
            [
                [
                    0.049379702657461166,
                    -0.021819664165377617,
                    0.061935748904943466
                ],
                [
                    0.10545553267002106,
                    0.15349289774894714,
                    0.052934907376766205
                ],
                [
                    -0.006566044874489307,
                    -0.01275150291621685,
                    0.16584794223308563
                ]
            ],
            [
                [
                    0.08280885964632034,
                    0.03606303781270981,
                    0.05399336293339729
                ],
                [
                    -0.010015202686190605,
                    0.031814366579055786,
                    0.09934801608324051
                ],
                [
                    -0.018267223611474037,
                    -0.004365895874798298,
                    0.09232909977436066
                ]
            ],
            [
                [
                    0.07350300997495651,
                    0.011611917987465858,
                    -0.005277602933347225
                ],
                [
                    0.02468910813331604,
                    -0.0832473561167717,
                    -0.14298409223556519
                ],
                [
                    0.04900059476494789,
                    0.03547791391611099,
                    0.003234592266380787
                ]
            ],
            [
                [
                    -0.05038880556821823,
                    0.021941453218460083,
                    0.05763425678014755
                ],
                [
                    0.007097376510500908,
                    0.04602929949760437,
                    0.02907276339828968
                ],
                [
                    -0.04066389799118042,
                    0.05030957981944084,
                    -0.07694292068481445
                ]
            ],
            [
                [
                    -0.004790422040969133,
                    -0.030376572161912918,
                    0.010377640835940838
                ],
                [
                    0.15991710126399994,
                    0.010867816396057606,
                    0.11520124226808548
                ],
                [
                    0.12769414484500885,
                    0.06835226714611053,
                    0.050386011600494385
                ]
            ],
            [
                [
                    -0.07018247246742249,
                    -0.0995950698852539,
                    -0.014746041037142277
                ],
                [
                    0.043216243386268616,
                    0.13056953251361847,
                    -0.05999962240457535
                ],
                [
                    -0.0666704848408699,
                    0.13616983592510223,
                    0.13300837576389313
                ]
            ],
            [
                [
                    -0.06082482635974884,
                    -0.053663287311792374,
                    0.051322728395462036
                ],
                [
                    -0.025645392015576363,
                    -0.031315114349126816,
                    -0.02487754635512829
                ],
                [
                    0.047043900936841965,
                    -0.039967332035303116,
                    -0.12065738439559937
                ]
            ],
            [
                [
                    -0.04642290249466896,
                    0.058399610221385956,
                    -0.08209480345249176
                ],
                [
                    -0.04472964257001877,
                    0.03243035078048706,
                    -0.018076704815030098
                ],
                [
                    -0.03609077259898186,
                    -0.05602319538593292,
                    -0.06795331835746765
                ]
            ],
            [
                [
                    0.08038502931594849,
                    -0.031138785183429718,
                    0.006570517085492611
                ],
                [
                    0.047347549349069595,
                    0.02817918360233307,
                    -0.09928802400827408
                ],
                [
                    0.03267957642674446,
                    0.05371049791574478,
                    -0.08309011161327362
                ]
            ],
            [
                [
                    -0.05608777701854706,
                    -0.020965594798326492,
                    0.02214716002345085
                ],
                [
                    0.05442596226930618,
                    0.011202266439795494,
                    0.04091951996088028
                ],
                [
                    0.01041223295032978,
                    0.016020888462662697,
                    0.05112561956048012
                ]
            ],
            [
                [
                    -0.003974913153797388,
                    -0.006453296635299921,
                    -0.03658701851963997
                ],
                [
                    0.029192786663770676,
                    0.06149519234895706,
                    -0.016857990995049477
                ],
                [
                    0.0492352657020092,
                    -0.025315066799521446,
                    -0.0902588739991188
                ]
            ],
            [
                [
                    -0.01964125968515873,
                    0.10964928567409515,
                    -0.039518363773822784
                ],
                [
                    0.12579157948493958,
                    -0.007174707483500242,
                    0.11062965542078018
                ],
                [
                    0.10177287459373474,
                    0.13128629326820374,
                    0.12169060856103897
                ]
            ],
            [
                [
                    -0.005516610108315945,
                    0.04485943540930748,
                    -0.10311233252286911
                ],
                [
                    -0.05812443047761917,
                    -0.04481692239642143,
                    0.025266602635383606
                ],
                [
                    -0.04998252913355827,
                    -0.006636119447648525,
                    -0.07713470607995987
                ]
            ],
            [
                [
                    -0.051411814987659454,
                    0.021178055554628372,
                    -0.006588786840438843
                ],
                [
                    0.024528563022613525,
                    0.05390837788581848,
                    -0.08903321623802185
                ],
                [
                    -0.012840460054576397,
                    -0.04177311435341835,
                    0.01175925973802805
                ]
            ]
        ],
        [
            [
                [
                    -0.012496262788772583,
                    0.004056421108543873,
                    -0.04921165108680725
                ],
                [
                    0.06265684217214584,
                    0.0312773734331131,
                    0.04099027067422867
                ],
                [
                    0.05652817338705063,
                    -0.0531446598470211,
                    -0.01797819510102272
                ]
            ],
            [
                [
                    0.01762297749519348,
                    -0.000519579101819545,
                    0.02126654051244259
                ],
                [
                    0.007064341101795435,
                    -0.016682442277669907,
                    0.0784861370921135
                ],
                [
                    0.05876704677939415,
                    0.05789336562156677,
                    -0.028138134628534317
                ]
            ],
            [
                [
                    0.05454249680042267,
                    -0.03733856976032257,
                    0.032424017786979675
                ],
                [
                    0.10024522989988327,
                    0.04064948856830597,
                    -0.07628045976161957
                ],
                [
                    -0.12012028694152832,
                    0.08598625659942627,
                    0.06025434657931328
                ]
            ],
            [
                [
                    -0.0429687537252903,
                    -0.07936431467533112,
                    0.04037909582257271
                ],
                [
                    -0.035365212708711624,
                    -0.06924301385879517,
                    0.012748791836202145
                ],
                [
                    -0.049666330218315125,
                    -0.1425943374633789,
                    -0.010891861282289028
                ]
            ],
            [
                [
                    -0.053240515291690826,
                    0.0639539361000061,
                    0.020316585898399353
                ],
                [
                    0.03725554794073105,
                    0.03367934748530388,
                    0.08639650791883469
                ],
                [
                    0.06832917034626007,
                    -0.11533430218696594,
                    -0.08567722886800766
                ]
            ],
            [
                [
                    0.08015241473913193,
                    0.03021569736301899,
                    -0.08942241221666336
                ],
                [
                    0.08852297067642212,
                    0.1228625625371933,
                    0.09597029536962509
                ],
                [
                    0.1359892636537552,
                    0.1533004492521286,
                    -0.04910159111022949
                ]
            ],
            [
                [
                    -0.010358487255871296,
                    -0.044902682304382324,
                    0.020229894667863846
                ],
                [
                    0.018087707459926605,
                    0.006337310187518597,
                    -0.0019093790324404836
                ],
                [
                    0.016502700746059418,
                    -0.020194673910737038,
                    0.011636612936854362
                ]
            ],
            [
                [
                    -0.005172070115804672,
                    0.04278524965047836,
                    0.04205063357949257
                ],
                [
                    0.0691470205783844,
                    0.0005981723661534488,
                    0.06463117897510529
                ],
                [
                    0.08305469155311584,
                    0.141082301735878,
                    0.08256591111421585
                ]
            ],
            [
                [
                    -0.046363115310668945,
                    -0.08247385919094086,
                    -0.05140411853790283
                ],
                [
                    0.02387964352965355,
                    0.05585941672325134,
                    0.07453508675098419
                ],
                [
                    -0.042045958340168,
                    0.08600109815597534,
                    0.06231594458222389
                ]
            ],
            [
                [
                    -0.1201132982969284,
                    0.004391454625874758,
                    0.011451433412730694
                ],
                [
                    -0.014451097697019577,
                    0.056697651743888855,
                    0.008331701159477234
                ],
                [
                    0.02896992117166519,
                    -0.09384731203317642,
                    -0.05681813135743141
                ]
            ],
            [
                [
                    -0.010853358544409275,
                    -0.06066935881972313,
                    0.06585122644901276
                ],
                [
                    0.05761967971920967,
                    -0.0036823295522481203,
                    -0.03234746307134628
                ],
                [
                    -0.031117800623178482,
                    0.06258038431406021,
                    -0.01776854693889618
                ]
            ],
            [
                [
                    -0.01272545475512743,
                    0.08940263092517853,
                    0.08750664442777634
                ],
                [
                    -0.038014113903045654,
                    0.07685750722885132,
                    -0.06450581550598145
                ],
                [
                    0.02549065463244915,
                    -0.023708587512373924,
                    0.03801027685403824
                ]
            ],
            [
                [
                    -0.017237823456525803,
                    0.023277316242456436,
                    0.012457902543246746
                ],
                [
                    0.05428193509578705,
                    -0.03662478178739548,
                    0.004376268479973078
                ],
                [
                    -0.03124396689236164,
                    0.04690945893526077,
                    0.010171557776629925
                ]
            ],
            [
                [
                    0.06260351836681366,
                    -0.04362516850233078,
                    -0.09007232636213303
                ],
                [
                    0.047482237219810486,
                    -0.04101398587226868,
                    0.06426133215427399
                ],
                [
                    0.022485241293907166,
                    0.09782837331295013,
                    0.1241803988814354
                ]
            ],
            [
                [
                    0.1103421077132225,
                    0.08305314183235168,
                    0.10479767620563507
                ],
                [
                    0.056472938507795334,
                    -0.04150553047657013,
                    0.10995195806026459
                ],
                [
                    0.1846112757921219,
                    0.009612340480089188,
                    0.03478727117180824
                ]
            ],
            [
                [
                    -0.06537840515375137,
                    -0.13059298694133759,
                    -0.09877161681652069
                ],
                [
                    -0.10735242068767548,
                    -0.08702488243579865,
                    -0.038987740874290466
                ],
                [
                    0.04360530897974968,
                    0.038903359323740005,
                    -0.044919878244400024
                ]
            ],
            [
                [
                    -0.004944323096424341,
                    0.06902595609426498,
                    -0.003374084597453475
                ],
                [
                    -0.09515897184610367,
                    -0.027321405708789825,
                    0.018760979175567627
                ],
                [
                    0.002840969944372773,
                    0.0604897066950798,
                    0.0368431881070137
                ]
            ]
        ],
        [
            [
                [
                    0.05014101043343544,
                    0.11098127067089081,
                    0.01400549616664648
                ],
                [
                    -0.05444963648915291,
                    0.016739284619688988,
                    -0.03545883297920227
                ],
                [
                    -0.018396340310573578,
                    0.118314228951931,
                    0.058177705854177475
                ]
            ],
            [
                [
                    0.04427964612841606,
                    -0.02855989709496498,
                    -0.002421382814645767
                ],
                [
                    -0.018020590767264366,
                    0.030223848298192024,
                    -0.05755552276968956
                ],
                [
                    -0.05109673738479614,
                    0.07250482589006424,
                    -0.018843263387680054
                ]
            ],
            [
                [
                    -0.045714300125837326,
                    -0.106493279337883,
                    -0.17594771087169647
                ],
                [
                    0.031447671353816986,
                    0.09068606048822403,
                    -0.03314460068941116
                ],
                [
                    -0.010178217664361,
                    0.13757728040218353,
                    0.006130117457360029
                ]
            ],
            [
                [
                    0.14007262885570526,
                    -0.02296992763876915,
                    0.17566369473934174
                ],
                [
                    0.12048138678073883,
                    0.02972833253443241,
                    -0.07400146871805191
                ],
                [
                    -0.11009376496076584,
                    -0.029638206586241722,
                    0.028491554781794548
                ]
            ],
            [
                [
                    0.03868129849433899,
                    -0.0766407698392868,
                    -0.07582803815603256
                ],
                [
                    -0.03868713602423668,
                    -0.0491170808672905,
                    -0.0308279637247324
                ],
                [
                    -0.035935088992118835,
                    0.04009312763810158,
                    0.01289818249642849
                ]
            ],
            [
                [
                    -0.02225397527217865,
                    -0.0848897248506546,
                    -0.006277133710682392
                ],
                [
                    -0.0374872051179409,
                    -0.10540064424276352,
                    -0.10274943709373474
                ],
                [
                    0.009970531798899174,
                    0.008047761395573616,
                    -0.08250315487384796
                ]
            ],
            [
                [
                    -0.0676998421549797,
                    -0.056781038641929626,
                    -0.05760973319411278
                ],
                [
                    -0.012583812698721886,
                    0.08458132296800613,
                    -0.03287710249423981
                ],
                [
                    0.0969589501619339,
                    -0.08258441090583801,
                    0.01869984343647957
                ]
            ],
            [
                [
                    0.059330251067876816,
                    -0.028929833322763443,
                    0.014722759835422039
                ],
                [
                    -0.09186172485351562,
                    -0.012470528483390808,
                    -0.049110911786556244
                ],
                [
                    -0.11722464859485626,
                    0.07229063659906387,
                    0.030160248279571533
                ]
            ],
            [
                [
                    0.10462821274995804,
                    0.04330822452902794,
                    0.013241718523204327
                ],
                [
                    0.05472183972597122,
                    0.08785843104124069,
                    0.12130323052406311
                ],
                [
                    0.07273824512958527,
                    0.027679257094860077,
                    -0.053487200289964676
                ]
            ],
            [
                [
                    -0.04215243458747864,
                    0.06289992481470108,
                    -0.05129723250865936
                ],
                [
                    -0.05278337001800537,
                    -0.10348859429359436,
                    -0.05011316016316414
                ],
                [
                    0.026111293584108353,
                    0.05181574448943138,
                    0.04270618036389351
                ]
            ],
            [
                [
                    -0.11871867626905441,
                    -0.04016071557998657,
                    -0.04942256957292557
                ],
                [
                    -0.022878916934132576,
                    -0.03726084530353546,
                    0.0007554706535302103
                ],
                [
                    -0.11872734129428864,
                    -0.05931216478347778,
                    -0.06583867967128754
                ]
            ],
            [
                [
                    0.0013688526814803481,
                    -0.06503718346357346,
                    0.03562423214316368
                ],
                [
                    0.006598547101020813,
                    0.07718450576066971,
                    0.050487808883190155
                ],
                [
                    -0.005108397454023361,
                    0.01979377120733261,
                    0.009340459480881691
                ]
            ],
            [
                [
                    0.04362502321600914,
                    0.003519317600876093,
                    0.037890881299972534
                ],
                [
                    0.030215654522180557,
                    0.01622098498046398,
                    0.034747783094644547
                ],
                [
                    0.01585695892572403,
                    0.02609863504767418,
                    -0.023196913301944733
                ]
            ],
            [
                [
                    0.009130639024078846,
                    -0.012003247626125813,
                    0.032398782670497894
                ],
                [
                    0.08349892497062683,
                    -0.0889255553483963,
                    -0.041207414120435715
                ],
                [
                    -0.044896449893713,
                    -0.007929976098239422,
                    -0.055124904960393906
                ]
            ],
            [
                [
                    0.004389237146824598,
                    -0.0427265502512455,
                    -0.007318119052797556
                ],
                [
                    -0.04024243354797363,
                    -0.06751127541065216,
                    -0.05608733370900154
                ],
                [
                    -0.06651714444160461,
                    0.046496063470840454,
                    -0.039815034717321396
                ]
            ],
            [
                [
                    -0.15361109375953674,
                    0.06548938155174255,
                    0.04146336391568184
                ],
                [
                    -0.11015038192272186,
                    -0.02616354264318943,
                    0.002196029992774129
                ],
                [
                    -0.008575476706027985,
                    0.0790790319442749,
                    -0.023453889414668083
                ]
            ],
            [
                [
                    -0.04478886350989342,
                    0.08244110643863678,
                    0.015054372139275074
                ],
                [
                    -0.09788386523723602,
                    0.0020590287167578936,
                    -0.10153006762266159
                ],
                [
                    -0.05752744898200035,
                    0.018934153020381927,
                    -0.041853711009025574
                ]
            ]
        ],
        [
            [
                [
                    -0.03154290094971657,
                    0.06705191731452942,
                    0.010426478460431099
                ],
                [
                    0.057123057544231415,
                    0.2740766108036041,
                    0.11201690882444382
                ],
                [
                    0.11292656511068344,
                    0.09307557344436646,
                    0.061401061713695526
                ]
            ],
            [
                [
                    0.027469659224152565,
                    0.03030993603169918,
                    0.028385953977704048
                ],
                [
                    -0.014171537011861801,
                    -0.05028153955936432,
                    -0.026387909427285194
                ],
                [
                    0.041321564465761185,
                    0.0711296945810318,
                    0.017546692863106728
                ]
            ],
            [
                [
                    0.030465977266430855,
                    0.08341246843338013,
                    0.14837217330932617
                ],
                [
                    -0.06626440584659576,
                    -0.06874753534793854,
                    -0.031332194805145264
                ],
                [
                    -0.04354843497276306,
                    0.010280769318342209,
                    -0.07954901456832886
                ]
            ],
            [
                [
                    0.0036256867460906506,
                    -0.00616356311365962,
                    -0.051999542862176895
                ],
                [
                    -0.02603866346180439,
                    -0.03940999507904053,
                    -0.013318968936800957
                ],
                [
                    -0.09118068218231201,
                    0.128646582365036,
                    0.11658412218093872
                ]
            ],
            [
                [
                    0.03989221155643463,
                    0.010401039384305477,
                    0.024957625195384026
                ],
                [
                    0.006781507283449173,
                    -0.10629092901945114,
                    0.05836242064833641
                ],
                [
                    -0.020633842796087265,
                    -0.13973358273506165,
                    -0.10060502588748932
                ]
            ],
            [
                [
                    0.11027800291776657,
                    0.015563326887786388,
                    -0.044964030385017395
                ],
                [
                    0.030821187421679497,
                    0.069198839366436,
                    0.09329236298799515
                ],
                [
                    -0.14463333785533905,
                    -0.09478961676359177,
                    0.047554805874824524
                ]
            ],
            [
                [
                    -0.02757348120212555,
                    -0.0002449859166517854,
                    0.021190589293837547
                ],
                [
                    0.035007014870643616,
                    0.039105385541915894,
                    -0.0205349363386631
                ],
                [
                    -0.03561976179480553,
                    -0.008207832463085651,
                    0.029300525784492493
                ]
            ],
            [
                [
                    -0.008212336339056492,
                    0.08277896046638489,
                    -0.040856339037418365
                ],
                [
                    0.0016998815117403865,
                    0.015521430410444736,
                    0.00966148916631937
                ],
                [
                    -0.058865584433078766,
                    -0.049142155796289444,
                    -0.005031537264585495
                ]
            ],
            [
                [
                    0.07009750604629517,
                    0.034815654158592224,
                    -0.10522866994142532
                ],
                [
                    0.05324220284819603,
                    0.02425474114716053,
                    -0.0122948307543993
                ],
                [
                    0.06807022541761398,
                    0.022435076534748077,
                    0.04583936184644699
                ]
            ],
            [
                [
                    -0.10967923700809479,
                    0.06847292184829712,
                    -0.05602101609110832
                ],
                [
                    -0.011662609875202179,
                    -0.037176668643951416,
                    -0.07171934098005295
                ],
                [
                    0.03667081519961357,
                    0.10222340375185013,
                    0.0014815498143434525
                ]
            ],
            [
                [
                    0.07468397915363312,
                    -0.06976643204689026,
                    -0.08014991879463196
                ],
                [
                    0.028091052547097206,
                    0.020923025906085968,
                    0.014925159513950348
                ],
                [
                    0.037977926433086395,
                    0.015090927481651306,
                    -0.07026880234479904
                ]
            ],
            [
                [
                    -0.007585435174405575,
                    0.04610075429081917,
                    0.028772637248039246
                ],
                [
                    0.06778085976839066,
                    -0.011118914932012558,
                    0.039144668728113174
                ],
                [
                    -0.008585268631577492,
                    -0.04173433780670166,
                    -0.026826180517673492
                ]
            ],
            [
                [
                    -0.008853745646774769,
                    0.020044995471835136,
                    -0.0069309016689658165
                ],
                [
                    0.0022965739481151104,
                    0.017682377249002457,
                    0.050797704607248306
                ],
                [
                    0.011249296367168427,
                    -0.03172146901488304,
                    -0.001903359778225422
                ]
            ],
            [
                [
                    -0.10177692025899887,
                    -0.027039676904678345,
                    -0.014347719959914684
                ],
                [
                    -0.0753672793507576,
                    -0.09026580303907394,
                    -0.11674794554710388
                ],
                [
                    -0.14634378254413605,
                    0.00613074004650116,
                    0.01186167448759079
                ]
            ],
            [
                [
                    0.031402621418237686,
                    0.13804097473621368,
                    0.02134888432919979
                ],
                [
                    -0.15251514315605164,
                    0.04146545007824898,
                    -0.08149899542331696
                ],
                [
                    -0.1256680190563202,
                    -0.017475750297307968,
                    -0.06314998120069504
                ]
            ],
            [
                [
                    0.08767306804656982,
                    -0.024984940886497498,
                    -0.07852146774530411
                ],
                [
                    0.09327934682369232,
                    -0.021806377917528152,
                    0.07956799864768982
                ],
                [
                    0.07781891524791718,
                    0.051679592579603195,
                    0.08602730184793472
                ]
            ],
            [
                [
                    0.08470037579536438,
                    -0.055188633501529694,
                    -0.09071452915668488
                ],
                [
                    -0.014785848557949066,
                    -0.006841795984655619,
                    0.02727569080889225
                ],
                [
                    0.01689409650862217,
                    -0.004381065256893635,
                    0.04482868313789368
                ]
            ]
        ],
        [
            [
                [
                    -0.05263742431998253,
                    0.02943544276058674,
                    -0.036328986287117004
                ],
                [
                    0.03966855630278587,
                    0.015746956691145897,
                    -0.04029780626296997
                ],
                [
                    0.008943358436226845,
                    -0.06625571101903915,
                    -0.04978938028216362
                ]
            ],
            [
                [
                    0.027176745235919952,
                    0.015218876302242279,
                    0.0826977863907814
                ],
                [
                    0.13468606770038605,
                    0.14700847864151,
                    0.11319903284311295
                ],
                [
                    0.08363897353410721,
                    0.14432449638843536,
                    0.10195029526948929
                ]
            ],
            [
                [
                    -0.030772915109992027,
                    0.03143719211220741,
                    -0.08370807766914368
                ],
                [
                    0.005538596771657467,
                    -0.04955735802650452,
                    0.04113089293241501
                ],
                [
                    0.03448919579386711,
                    -0.019568372517824173,
                    -0.018759623169898987
                ]
            ],
            [
                [
                    -0.035087160766124725,
                    0.006208279635757208,
                    -0.04938605800271034
                ],
                [
                    0.01406759675592184,
                    0.013381745666265488,
                    0.011547441594302654
                ],
                [
                    -0.051769647747278214,
                    -0.0716460570693016,
                    -0.05278708040714264
                ]
            ],
            [
                [
                    -0.0341467522084713,
                    -0.019692666828632355,
                    -0.050665147602558136
                ],
                [
                    -0.024392371997237206,
                    -0.023032138124108315,
                    -0.03230525553226471
                ],
                [
                    0.04405046999454498,
                    -0.054628267884254456,
                    -0.05310189351439476
                ]
            ],
            [
                [
                    -0.022536853328347206,
                    -0.023347001522779465,
                    0.023688960820436478
                ],
                [
                    0.01004835031926632,
                    0.030103452503681183,
                    0.10711629688739777
                ],
                [
                    0.10561412572860718,
                    0.027014710009098053,
                    -0.04769536852836609
                ]
            ],
            [
                [
                    0.01201233547180891,
                    -0.03242756053805351,
                    0.0039027405437082052
                ],
                [
                    -0.0023850901052355766,
                    0.05104904994368553,
                    -0.0407884307205677
                ],
                [
                    -0.009645058773458004,
                    -0.00827788095921278,
                    -0.008735626935958862
                ]
            ],
            [
                [
                    -0.0239564199000597,
                    0.0448274090886116,
                    0.013467492535710335
                ],
                [
                    0.02635270357131958,
                    0.0390440933406353,
                    -0.04077180102467537
                ],
                [
                    -0.019295647740364075,
                    -0.03357435390353203,
                    0.09349779784679413
                ]
            ],
            [
                [
                    -0.04123365879058838,
                    0.02092769928276539,
                    -0.06144512817263603
                ],
                [
                    -0.09904097765684128,
                    0.04018355533480644,
                    0.009876473806798458
                ],
                [
                    -0.05619777366518974,
                    -0.03257312998175621,
                    0.00885549746453762
                ]
            ],
            [
                [
                    0.04372657835483551,
                    0.07320839166641235,
                    0.07091757655143738
                ],
                [
                    0.09677101671695709,
                    0.004495686385780573,
                    0.06063397228717804
                ],
                [
                    -0.026959672570228577,
                    0.028414199128746986,
                    0.05454586073756218
                ]
            ],
            [
                [
                    -0.049095943570137024,
                    0.03644202649593353,
                    0.0852174237370491
                ],
                [
                    -0.062074437737464905,
                    -0.022175617516040802,
                    -0.021458793431520462
                ],
                [
                    0.0443175807595253,
                    -0.026528101414442062,
                    0.08974878489971161
                ]
            ],
            [
                [
                    0.09865555167198181,
                    -0.006999145727604628,
                    0.060006946325302124
                ],
                [
                    0.08993716537952423,
                    -0.001369000761769712,
                    0.09675941616296768
                ],
                [
                    0.07827616482973099,
                    0.008565892465412617,
                    0.05553942546248436
                ]
            ],
            [
                [
                    -0.010654867626726627,
                    0.04997459799051285,
                    -0.051914263516664505
                ],
                [
                    0.10348156094551086,
                    0.018701234832406044,
                    0.028193963691592216
                ],
                [
                    -0.029515961185097694,
                    0.03326965123414993,
                    0.010585094802081585
                ]
            ],
            [
                [
                    0.034518368542194366,
                    -0.011167219839990139,
                    0.0954819917678833
                ],
                [
                    -0.11905727535486221,
                    -0.03575082868337631,
                    -0.08873949199914932
                ],
                [
                    0.021471591666340828,
                    -0.013692525215446949,
                    0.011584761552512646
                ]
            ],
            [
                [
                    0.09108848124742508,
                    0.10378659516572952,
                    0.045710060745477676
                ],
                [
                    0.0837702751159668,
                    0.05141700431704521,
                    0.04123375564813614
                ],
                [
                    0.07673704624176025,
                    0.04207155480980873,
                    -0.023158125579357147
                ]
            ],
            [
                [
                    0.0428769551217556,
                    -0.09979139268398285,
                    -0.05924384668469429
                ],
                [
                    0.021136589348316193,
                    -0.09688513725996017,
                    -0.06682370603084564
                ],
                [
                    0.025788186118006706,
                    -0.08188369870185852,
                    0.043614596128463745
                ]
            ],
            [
                [
                    -0.0953207015991211,
                    -0.07033364474773407,
                    0.019931955263018608
                ],
                [
                    0.019791267812252045,
                    -0.007543313317000866,
                    0.03735029324889183
                ],
                [
                    0.006543354596942663,
                    -0.043688662350177765,
                    0.04555676877498627
                ]
            ]
        ],
        [
            [
                [
                    -0.023185309022665024,
                    0.02418558858335018,
                    0.03264447674155235
                ],
                [
                    -0.017242103815078735,
                    0.03687724843621254,
                    0.0029678205028176308
                ],
                [
                    0.031830936670303345,
                    0.06415066123008728,
                    0.011912076734006405
                ]
            ],
            [
                [
                    0.057827241718769073,
                    -0.008408967405557632,
                    -0.09742022305727005
                ],
                [
                    -0.012454619631171227,
                    0.0003020730218850076,
                    -0.09115719050168991
                ],
                [
                    -0.0420081689953804,
                    -0.006709704641252756,
                    -0.06733877211809158
                ]
            ],
            [
                [
                    0.025521567091345787,
                    0.0402446985244751,
                    -0.06220829114317894
                ],
                [
                    0.015619208104908466,
                    -0.10267943143844604,
                    -0.09008294343948364
                ],
                [
                    -0.011339619755744934,
                    0.08272877335548401,
                    -0.02587358094751835
                ]
            ],
            [
                [
                    0.029322678223252296,
                    0.043648846447467804,
                    -0.022289199754595757
                ],
                [
                    -0.08692173659801483,
                    0.04574919864535332,
                    -0.09585406631231308
                ],
                [
                    -0.019003432244062424,
                    -0.05847981572151184,
                    -0.004905677866190672
                ]
            ],
            [
                [
                    0.024234483018517494,
                    0.019055083394050598,
                    0.05559490993618965
                ],
                [
                    0.06939800083637238,
                    0.11991312354803085,
                    -0.05216102674603462
                ],
                [
                    -0.06286802142858505,
                    -0.02610538899898529,
                    -0.0150320865213871
                ]
            ],
            [
                [
                    -0.04723542928695679,
                    -0.05993038788437843,
                    0.16706298291683197
                ],
                [
                    -0.049148961901664734,
                    -0.09449221193790436,
                    0.062114082276821136
                ],
                [
                    0.1592884063720703,
                    0.025788674131035805,
                    0.05306156724691391
                ]
            ],
            [
                [
                    0.018384993076324463,
                    0.007987240329384804,
                    -0.04840025305747986
                ],
                [
                    -0.044693782925605774,
                    -0.01829693652689457,
                    0.07236605882644653
                ],
                [
                    0.0023548740427941084,
                    0.060703977942466736,
                    -0.0461234413087368
                ]
            ],
            [
                [
                    0.02859155274927616,
                    0.0932331308722496,
                    0.0836486965417862
                ],
                [
                    -0.006529615726321936,
                    0.06937325745820999,
                    0.06748855859041214
                ],
                [
                    0.09131500869989395,
                    0.11245924234390259,
                    0.032829802483320236
                ]
            ],
            [
                [
                    -0.01171563658863306,
                    0.15875846147537231,
                    0.1908295899629593
                ],
                [
                    0.10287405550479889,
                    -0.03343874588608742,
                    0.07332257926464081
                ],
                [
                    -0.015819847583770752,
                    0.08000028878450394,
                    -0.04875161871314049
                ]
            ],
            [
                [
                    0.1103145033121109,
                    -0.013198759406805038,
                    0.07787147909402847
                ],
                [
                    -0.03262505307793617,
                    -0.0678238719701767,
                    -0.06895700842142105
                ],
                [
                    -0.016454527154564857,
                    0.07044362276792526,
                    0.05696125328540802
                ]
            ],
            [
                [
                    -0.08397093415260315,
                    -0.06676709651947021,
                    -0.051832426339387894
                ],
                [
                    0.02229958027601242,
                    0.10346633195877075,
                    0.02860882878303528
                ],
                [
                    0.03119102120399475,
                    -0.05893341824412346,
                    -0.07662305235862732
                ]
            ],
            [
                [
                    0.029525859281420708,
                    -0.053054358810186386,
                    0.0330318845808506
                ],
                [
                    -0.05979244410991669,
                    0.02439757250249386,
                    -0.058031823486089706
                ],
                [
                    -0.0788988322019577,
                    -0.03059113584458828,
                    -0.05548659712076187
                ]
            ],
            [
                [
                    0.07108671963214874,
                    0.010786673054099083,
                    0.001587363425642252
                ],
                [
                    -0.06253417581319809,
                    -0.06615684181451797,
                    -0.03297021985054016
                ],
                [
                    0.020586440339684486,
                    -0.028020143508911133,
                    0.029838163405656815
                ]
            ],
            [
                [
                    0.032052334398031235,
                    -0.017120713368058205,
                    -0.03734716773033142
                ],
                [
                    -0.06106270104646683,
                    -0.015815334394574165,
                    0.07844997197389603
                ],
                [
                    0.019070839509367943,
                    0.020386220887303352,
                    -0.09594763815402985
                ]
            ],
            [
                [
                    -0.04244111478328705,
                    -0.10474486649036407,
                    -0.04525545984506607
                ],
                [
                    0.04173935204744339,
                    -0.02357201837003231,
                    0.03537774831056595
                ],
                [
                    -0.006727771833539009,
                    -0.0313890315592289,
                    0.09767255187034607
                ]
            ],
            [
                [
                    -0.08314009010791779,
                    0.014598622918128967,
                    0.1194029152393341
                ],
                [
                    0.06574390828609467,
                    0.09521255642175674,
                    0.027253737673163414
                ],
                [
                    0.06386169791221619,
                    0.0937647819519043,
                    -0.06716138869524002
                ]
            ],
            [
                [
                    0.06582824885845184,
                    0.05104630067944527,
                    -0.004083089530467987
                ],
                [
                    0.008078889921307564,
                    -0.012192616239190102,
                    -0.05818231776356697
                ],
                [
                    0.026707690209150314,
                    -0.08260492235422134,
                    -0.07050104439258575
                ]
            ]
        ],
        [
            [
                [
                    0.03525780141353607,
                    0.03540266677737236,
                    -0.03179846331477165
                ],
                [
                    -0.06062227115035057,
                    0.008941728621721268,
                    -0.0832817554473877
                ],
                [
                    0.016926582902669907,
                    0.017812609672546387,
                    -0.030891159549355507
                ]
            ],
            [
                [
                    0.02276725322008133,
                    0.016017558053135872,
                    0.050935160368680954
                ],
                [
                    -0.07727444171905518,
                    -0.01702374406158924,
                    0.043840985745191574
                ],
                [
                    -0.0822034627199173,
                    0.024775084108114243,
                    0.07037609815597534
                ]
            ],
            [
                [
                    -0.01794040948152542,
                    0.10255736112594604,
                    -0.17101767659187317
                ],
                [
                    0.05921833962202072,
                    -0.1267702579498291,
                    0.13142192363739014
                ],
                [
                    -0.03376472741365433,
                    -0.001937264809384942,
                    -0.0018593037966638803
                ]
            ],
            [
                [
                    -0.007732228375971317,
                    -0.07022970914840698,
                    -0.04898456856608391
                ],
                [
                    -0.023501694202423096,
                    0.06436574459075928,
                    0.014338861219584942
                ],
                [
                    0.07424023747444153,
                    0.1203874722123146,
                    0.040121108293533325
                ]
            ],
            [
                [
                    0.02532958798110485,
                    0.016712110489606857,
                    0.045133017003536224
                ],
                [
                    -0.03210275247693062,
                    0.02570551261305809,
                    -0.06575983762741089
                ],
                [
                    0.11221010237932205,
                    0.11888092756271362,
                    0.04816988855600357
                ]
            ],
            [
                [
                    -0.09031230956315994,
                    -0.04316766560077667,
                    0.02295379526913166
                ],
                [
                    -0.03806092590093613,
                    -0.01935342699289322,
                    0.041171710938215256
                ],
                [
                    -0.11242576688528061,
                    -0.10919860005378723,
                    -0.0046470691449940205
                ]
            ],
            [
                [
                    -0.021915383636951447,
                    0.049233537167310715,
                    -0.03895890340209007
                ],
                [
                    0.03295213356614113,
                    -0.03068239800632,
                    0.009282107464969158
                ],
                [
                    -0.029467592015862465,
                    0.010572480969130993,
                    -0.0704393982887268
                ]
            ],
            [
                [
                    0.08320124447345734,
                    0.058205585926771164,
                    -0.019833240658044815
                ],
                [
                    0.017007099464535713,
                    0.059324804693460464,
                    0.028933359310030937
                ],
                [
                    -0.03567548096179962,
                    0.09563770145177841,
                    0.1656630039215088
                ]
            ],
            [
                [
                    0.08360996097326279,
                    0.02878502383828163,
                    0.029887547716498375
                ],
                [
                    0.04646801948547363,
                    -0.13474369049072266,
                    0.08232338726520538
                ],
                [
                    -0.061057206243276596,
                    -0.07715402543544769,
                    0.028642458841204643
                ]
            ],
            [
                [
                    -0.015814289450645447,
                    0.0016857110895216465,
                    -0.041542425751686096
                ],
                [
                    -0.04693876579403877,
                    0.029341669753193855,
                    -0.062289830297231674
                ],
                [
                    0.06417299807071686,
                    -0.023233020678162575,
                    -0.06077927350997925
                ]
            ],
            [
                [
                    0.04656929150223732,
                    -0.016328148543834686,
                    0.009057683870196342
                ],
                [
                    0.038358286023139954,
                    -0.013000591658055782,
                    -0.029699407517910004
                ],
                [
                    -0.032157812267541885,
                    -0.0863725021481514,
                    -0.05651024729013443
                ]
            ],
            [
                [
                    -0.04595575109124184,
                    -0.008349974639713764,
                    -0.01563442498445511
                ],
                [
                    0.07306783646345139,
                    0.07876444607973099,
                    -0.09039144963026047
                ],
                [
                    -0.04844912141561508,
                    -0.0055199069902300835,
                    0.02470964938402176
                ]
            ],
            [
                [
                    -0.013832069002091885,
                    -0.008595430292189121,
                    0.03858795017004013
                ],
                [
                    0.006472291890531778,
                    0.04823828488588333,
                    -0.04439450055360794
                ],
                [
                    0.016757551580667496,
                    0.01915251836180687,
                    0.051833976060152054
                ]
            ],
            [
                [
                    0.07243423908948898,
                    0.024702340364456177,
                    0.01821414940059185
                ],
                [
                    -0.1518225073814392,
                    -0.016734763979911804,
                    0.11124822497367859
                ],
                [
                    0.07387245446443558,
                    -0.030208447948098183,
                    0.010111415758728981
                ]
            ],
            [
                [
                    -0.0011970967752858996,
                    -0.020410295575857162,
                    0.05489017069339752
                ],
                [
                    -0.048050373792648315,
                    0.0026999274268746376,
                    0.012300122529268265
                ],
                [
                    -0.060361191630363464,
                    -0.005557424854487181,
                    0.11226769536733627
                ]
            ],
            [
                [
                    0.06554325670003891,
                    0.10197972506284714,
                    0.10513482242822647
                ],
                [
                    -0.1060071513056755,
                    0.07017761468887329,
                    0.005515589378774166
                ],
                [
                    -0.006954067386686802,
                    -0.0005611227243207395,
                    0.023483742028474808
                ]
            ],
            [
                [
                    -0.0020044695120304823,
                    0.002545009832829237,
                    0.020622432231903076
                ],
                [
                    -0.02066345512866974,
                    -0.030643483623862267,
                    -0.02148769050836563
                ],
                [
                    -0.0019803305622190237,
                    -0.013497459702193737,
                    0.0209594015032053
                ]
            ]
        ],
        [
            [
                [
                    -0.022372262552380562,
                    0.17683368921279907,
                    0.1223682090640068
                ],
                [
                    -0.027198202908039093,
                    0.23605099320411682,
                    0.10998880863189697
                ],
                [
                    -0.10212910175323486,
                    -0.011960718780755997,
                    0.08139917254447937
                ]
            ],
            [
                [
                    -0.060506079345941544,
                    0.041859883815050125,
                    0.014027342200279236
                ],
                [
                    -0.011207079514861107,
                    0.0846748948097229,
                    0.0526883564889431
                ],
                [
                    0.0011238580336794257,
                    -0.05023033544421196,
                    0.006668922025710344
                ]
            ],
            [
                [
                    -0.08574435859918594,
                    0.04145845025777817,
                    -0.04263931140303612
                ],
                [
                    0.010483765974640846,
                    0.09249824285507202,
                    0.06372807919979095
                ],
                [
                    0.08371233940124512,
                    0.07893826812505722,
                    -0.10394582897424698
                ]
            ],
            [
                [
                    -0.05862145870923996,
                    -0.07145746797323227,
                    0.03372745215892792
                ],
                [
                    0.04144677519798279,
                    -0.07035470008850098,
                    0.0625016838312149
                ],
                [
                    0.049305256456136703,
                    -0.15886777639389038,
                    -0.015510065481066704
                ]
            ],
            [
                [
                    0.003084492404013872,
                    -0.019552549347281456,
                    -0.07356595993041992
                ],
                [
                    0.039236657321453094,
                    0.05433076247572899,
                    0.027986856177449226
                ],
                [
                    0.07408202439546585,
                    0.05666537210345268,
                    0.06463845074176788
                ]
            ],
            [
                [
                    0.13668973743915558,
                    0.07743320614099503,
                    0.056898634880781174
                ],
                [
                    0.10101151466369629,
                    0.13691546022891998,
                    -0.05700000002980232
                ],
                [
                    -0.0573970191180706,
                    -0.01688610389828682,
                    0.08683411031961441
                ]
            ],
            [
                [
                    -0.04452946409583092,
                    0.0749109759926796,
                    -0.0822867676615715
                ],
                [
                    -0.028513489291071892,
                    -0.007668319158256054,
                    0.033138588070869446
                ],
                [
                    0.0555889755487442,
                    -0.04213397577404976,
                    0.006450575776398182
                ]
            ],
            [
                [
                    0.02848776988685131,
                    -0.039475444704294205,
                    0.033174119889736176
                ],
                [
                    -0.047179870307445526,
                    -0.05570391193032265,
                    -0.048709671944379807
                ],
                [
                    -0.012392198666930199,
                    0.06921004503965378,
                    0.060818493366241455
                ]
            ],
            [
                [
                    -0.06174647435545921,
                    -0.13085007667541504,
                    -0.08053069561719894
                ],
                [
                    0.07318510860204697,
                    -8.667343354318291e-05,
                    -0.1031915470957756
                ],
                [
                    0.09226097166538239,
                    0.08700671046972275,
                    0.0359354205429554
                ]
            ],
            [
                [
                    0.04375087842345238,
                    -0.02319757640361786,
                    -0.016217835247516632
                ],
                [
                    -0.012634786777198315,
                    0.005313084926456213,
                    0.13023151457309723
                ],
                [
                    -0.0012831358471885324,
                    -0.06510227173566818,
                    0.01784786768257618
                ]
            ],
            [
                [
                    -0.0829063430428505,
                    0.01002317015081644,
                    0.00299747078679502
                ],
                [
                    -0.04639901593327522,
                    -0.0560641884803772,
                    -0.024633701890707016
                ],
                [
                    -0.029454205185174942,
                    0.014624100178480148,
                    -0.014388198032975197
                ]
            ],
            [
                [
                    -0.05867619439959526,
                    0.003992616198956966,
                    -0.025309963151812553
                ],
                [
                    -0.052013762295246124,
                    0.029103785753250122,
                    -0.03463726118206978
                ],
                [
                    0.015045763924717903,
                    -0.03000721149146557,
                    0.07040222734212875
                ]
            ],
            [
                [
                    0.009938024915754795,
                    0.005566059611737728,
                    -0.011209211312234402
                ],
                [
                    0.0037091283593326807,
                    0.0044853342697024345,
                    0.0363457053899765
                ],
                [
                    -0.0196258332580328,
                    0.06785557419061661,
                    -0.040428582578897476
                ]
            ],
            [
                [
                    0.050035733729600906,
                    0.015781722962856293,
                    0.025288810953497887
                ],
                [
                    0.015523353591561317,
                    -0.05283913388848305,
                    -0.02595430240035057
                ],
                [
                    -0.03510088473558426,
                    -0.01701989211142063,
                    0.10600118339061737
                ]
            ],
            [
                [
                    0.02269821986556053,
                    0.03727700188755989,
                    0.004858126398175955
                ],
                [
                    -0.08655718713998795,
                    -0.1187397837638855,
                    0.023286087438464165
                ],
                [
                    -0.1116151213645935,
                    -0.03557511791586876,
                    0.14675386250019073
                ]
            ],
            [
                [
                    -0.09077369421720505,
                    0.02650144137442112,
                    0.024733902886509895
                ],
                [
                    -0.007276748772710562,
                    0.07167995721101761,
                    -0.05038728937506676
                ],
                [
                    -0.011701731011271477,
                    0.05508946254849434,
                    -0.13225910067558289
                ]
            ],
            [
                [
                    0.07841270416975021,
                    0.002166204620152712,
                    0.024601085111498833
                ],
                [
                    -0.018001412972807884,
                    0.022253286093473434,
                    0.03897517919540405
                ],
                [
                    0.044198792427778244,
                    0.005754836369305849,
                    -0.08717139810323715
                ]
            ]
        ],
        [
            [
                [
                    0.09413225203752518,
                    -0.002646254375576973,
                    0.0533839650452137
                ],
                [
                    -0.06507657468318939,
                    -0.008775908499956131,
                    0.11130089312791824
                ],
                [
                    0.05182696878910065,
                    0.02057710848748684,
                    0.0067413318902254105
                ]
            ],
            [
                [
                    -0.0992794930934906,
                    -0.07528936117887497,
                    0.023763006553053856
                ],
                [
                    0.03815823420882225,
                    0.021878471598029137,
                    0.043405212461948395
                ],
                [
                    -0.006286896299570799,
                    0.036414675414562225,
                    0.008883548900485039
                ]
            ],
            [
                [
                    -0.09490618109703064,
                    0.1720704436302185,
                    -0.017135517671704292
                ],
                [
                    0.0836804211139679,
                    0.007230591028928757,
                    -0.13964398205280304
                ],
                [
                    0.13519683480262756,
                    -0.059893131256103516,
                    0.04066058248281479
                ]
            ],
            [
                [
                    0.007816360332071781,
                    -0.009129964746534824,
                    0.003010529326274991
                ],
                [
                    -0.029258042573928833,
                    -0.11555713415145874,
                    -0.05816132202744484
                ],
                [
                    0.0814715325832367,
                    0.11078976839780807,
                    -0.07015788555145264
                ]
            ],
            [
                [
                    -0.08746793121099472,
                    -0.08053427934646606,
                    -0.028408363461494446
                ],
                [
                    0.006535984575748444,
                    -0.0022360803559422493,
                    0.06754305958747864
                ],
                [
                    -0.08036565035581589,
                    0.03457505255937576,
                    0.08601013571023941
                ]
            ],
            [
                [
                    0.14179727435112,
                    0.16653020679950714,
                    0.031579311937093735
                ],
                [
                    -0.01659630984067917,
                    0.04422008618712425,
                    0.01590302772819996
                ],
                [
                    0.08740447461605072,
                    -0.007858007214963436,
                    -0.07793727517127991
                ]
            ],
            [
                [
                    0.0145125612616539,
                    0.02140948548913002,
                    -0.0795544981956482
                ],
                [
                    -0.011556769721210003,
                    0.006796233355998993,
                    0.09153946489095688
                ],
                [
                    -0.03724777698516846,
                    0.01973474584519863,
                    -0.07262209057807922
                ]
            ],
            [
                [
                    -0.007865969091653824,
                    0.09276188910007477,
                    0.010141648352146149
                ],
                [
                    -0.006639400962740183,
                    -0.014697488397359848,
                    -0.09237850457429886
                ],
