{
    "conv1.0.weight": [
        [
            [
                [
                    -0.049397893249988556,
                    -0.04149312898516655,
                    0.04066140577197075
                ],
                [
                    0.05537426471710205,
                    -0.013323066756129265,
                    0.07592844218015671
                ],
                [
                    0.05453125759959221,
                    -0.02140924707055092,
                    -0.08403762429952621
                ]
            ],
            [
                [
                    -0.07232902199029922,
                    -0.05643806606531143,
                    -0.00944150984287262
                ],
                [
                    -0.11171618103981018,
                    0.020133212208747864,
                    0.010385148227214813
                ],
                [
                    -0.054027896374464035,
                    -0.04429826885461807,
                    0.016650142148137093
                ]
            ],
            [
                [
                    0.06783702969551086,
                    -0.06387688964605331,
                    0.010615521110594273
                ],
                [
                    0.019849715754389763,
                    0.04266585782170296,
                    -0.015670277178287506
                ],
                [
                    -0.0641184151172638,
                    0.050044476985931396,
                    -0.04076876863837242
                ]
            ],
            [
                [
                    0.05382788926362991,
                    0.0786658301949501,
                    -0.05773625522851944
                ],
                [
                    -0.03419224172830582,
                    0.0004953620373271406,
                    -0.05305800959467888
                ],
                [
                    0.01934005133807659,
                    -0.06976087391376495,
                    -0.027749253436923027
                ]
            ],
            [
                [
                    -0.07058291137218475,
                    0.07683603465557098,
                    0.07191793620586395
                ],
                [
                    0.09530158340930939,
                    0.08201310783624649,
                    -0.04725278913974762
                ],
                [
                    -0.0005000084056518972,
                    -0.0682237297296524,
                    0.06017272546887398
                ]
            ],
            [
                [
                    -0.01667657680809498,
                    0.05992639437317848,
                    0.0637691393494606
                ],
                [
                    -0.06389174610376358,
                    -0.01046899426728487,
                    -0.01676175929605961
                ],
                [
                    0.0613517165184021,
                    -0.04998737573623657,
                    0.019179079681634903
                ]
            ],
            [
                [
                    -0.0900425910949707,
                    -0.019701361656188965,
                    -0.04959222674369812
                ],
                [
                    -0.010285796597599983,
                    -0.015866799280047417,
                    0.06618954986333847
                ],
                [
                    -0.056115735322237015,
                    -0.051431674510240555,
                    -0.0002459225943312049
                ]
            ],
            [
                [
                    -0.0005659580929204822,
                    0.04836378991603851,
                    -0.09858755767345428
                ],
                [
                    -0.009477604180574417,
                    -0.0102694658562541,
                    0.05333852022886276
                ],
                [
                    -0.0306866392493248,
                    -0.0400882214307785,
                    -0.04232058301568031
                ]
            ],
            [
                [
                    -0.020170949399471283,
                    -0.06901051104068756,
                    -0.11563446372747421
                ],
                [
                    -0.004242100287228823,
                    -0.07142726331949234,
                    0.06630247831344604
                ],
                [
                    -0.059511054307222366,
                    -0.03579428046941757,
                    0.01432096492499113
                ]
            ],
            [
                [
                    0.013602351769804955,
                    -0.0768733024597168,
                    -0.04922260344028473
                ],
                [
                    -0.011476601473987103,
                    -0.05202355608344078,
                    0.0717773586511612
                ],
                [
                    0.0707128494977951,
                    0.06160388141870499,
                    0.05752059444785118
                ]
            ],
            [
                [
                    0.028223123401403427,
                    -0.04631118103861809,
                    -0.040030501782894135
                ],
                [
                    0.0426713302731514,
                    0.061267707496881485,
                    -0.040303055197000504
                ],
                [
                    -0.05830208584666252,
                    -0.08417536318302155,
                    -0.06222688406705856
                ]
            ],
            [
                [
                    0.051152147352695465,
                    0.06391528993844986,
                    -0.04641564190387726
                ],
                [
                    0.02665111795067787,
                    0.0680474117398262,
                    -0.02020200714468956
                ],
                [
                    -0.004644592758268118,
                    0.024565936997532845,
                    -0.04876365512609482
                ]
            ],
            [
                [
                    -0.04687687009572983,
                    0.04433015361428261,
                    0.06598733365535736
                ],
                [
                    -0.08310607075691223,
                    -0.024829307571053505,
                    -0.00790533795952797
                ],
                [
                    -0.072550930082798,
                    0.04576016589999199,
                    -0.04973922669887543
                ]
            ],
            [
                [
                    0.04114450514316559,
                    0.023310499265789986,
                    0.017043279483914375
                ],
                [
                    -0.04615146294236183,
                    -0.05210690200328827,
                    0.08525752276182175
                ],
                [
                    0.013185953721404076,
                    0.0027454751543700695,
                    0.043028511106967926
                ]
            ],
            [
                [
                    0.07939981669187546,
                    -0.029812024906277657,
                    0.052403952926397324
                ],
                [
                    -0.07363996654748917,
                    -0.08160711079835892,
                    -0.029957184568047523
                ],
                [
                    -0.040255106985569,
                    -0.00764748640358448,
                    0.025773661211133003
                ]
            ],
            [
                [
                    -0.004360116086900234,
                    0.006932374089956284,
                    -0.007485867943614721
                ],
                [
                    0.0772327333688736,
                    -0.007654170040041208,
                    -0.06804180890321732
                ],
                [
                    -0.007833989337086678,
                    -0.015278678387403488,
                    -0.06994903832674026
                ]
            ]
        ],
        [
            [
                [
                    -0.06967534124851227,
                    -0.03927282616496086,
                    -0.01720096543431282
                ],
                [
                    0.08127252012491226,
                    -0.05561652034521103,
                    0.033948931843042374
                ],
                [
                    0.01759077049791813,
                    -0.04988911747932434,
                    -0.013879635371267796
                ]
            ],
            [
                [
                    -0.04908539354801178,
                    -0.04675101488828659,
                    0.027603644877672195
                ],
                [
                    0.03517803177237511,
                    -0.020939920097589493,
                    -0.01361406035721302
                ],
                [
                    0.021934255957603455,
                    0.08218784630298615,
                    0.10767603665590286
                ]
            ],
            [
                [
                    0.00012411558418534696,
                    -0.00952159147709608,
                    -0.0005151291843503714
                ],
                [
                    -0.0758613646030426,
                    -0.02902030199766159,
                    -0.08367199450731277
                ],
                [
                    -0.007639758288860321,
                    0.0654074028134346,
                    0.04457199200987816
                ]
            ],
            [
                [
                    0.039210088551044464,
                    -0.009058992378413677,
                    -0.05094722658395767
                ],
                [
                    0.006201930344104767,
                    -0.042150598019361496,
                    0.06794925779104233
                ],
                [
                    -0.07796500623226166,
                    -0.024871045723557472,
                    -0.06472304463386536
                ]
            ],
            [
                [
                    0.042108722031116486,
                    0.08837701380252838,
                    -0.08113285899162292
                ],
                [
                    0.020610829815268517,
                    -0.034967657178640366,
                    0.057542428374290466
                ],
                [
                    -0.042079661041498184,
                    0.06412532925605774,
                    0.05469011142849922
                ]
            ],
            [
                [
                    -0.06237291917204857,
                    0.041054949164390564,
                    -0.032706119120121
                ],
                [
                    0.04448109120130539,
                    0.04877052828669548,
                    0.03389151766896248
                ],
                [
                    0.038387786597013474,
                    -0.047882694751024246,
                    0.07572697848081589
                ]
            ],
            [
                [
                    0.05917515605688095,
                    0.07531407475471497,
                    -0.024445898830890656
                ],
                [
                    -0.011783759109675884,
                    -0.08331352472305298,
                    0.054511480033397675
                ],
                [
                    -0.028212720528244972,
                    -0.016715047881007195,
                    -0.03667415305972099
                ]
            ],
            [
                [
                    -0.016352713108062744,
                    0.046760592609643936,
                    -0.01232801005244255
                ],
                [
                    -0.06399489939212799,
                    0.039101600646972656,
                    -0.015754178166389465
                ],
                [
                    -0.02589934878051281,
                    0.09301294386386871,
                    -0.04578423872590065
                ]
            ],
            [
                [
                    -0.04272448271512985,
                    -0.06372017413377762,
                    -0.026222286745905876
                ],
                [
                    0.03288222849369049,
                    0.029049528762698174,
                    0.025887439027428627
                ],
                [
                    -0.011424971744418144,
                    0.029979536309838295,
                    0.07993105053901672
                ]
            ],
            [
                [
                    -0.03621470928192139,
                    0.060375768691301346,
                    0.05568321421742439
                ],
                [
                    -0.014734216965734959,
                    0.005805380176752806,
                    0.006371507421135902
                ],
                [
                    -0.06621021777391434,
                    -0.047102704644203186,
                    -0.08229418098926544
                ]
            ],
            [
                [
                    0.09322735667228699,
                    0.056292496621608734,
                    -0.0029086361173540354
                ],
                [
                    0.01596071757376194,
                    -0.0035040858201682568,
                    0.03297795355319977
                ],
                [
                    0.03085409477353096,
                    -0.05386705324053764,
                    -0.04755653813481331
                ]
            ],
            [
                [
                    -0.06005598232150078,
                    -0.027511553838849068,
                    0.026504263281822205
                ],
                [
                    0.0026544216088950634,
                    -0.0387728288769722,
                    0.08074776828289032
                ],
                [
                    -0.048595257103443146,
                    -0.021008193492889404,
                    -0.021046236157417297
                ]
            ],
            [
                [
                    0.03678487241268158,
                    0.03590112924575806,
                    -0.03810293227434158
                ],
                [
                    0.06864935904741287,
                    0.03596514090895653,
                    0.031352486461400986
                ],
                [
                    0.07994639873504639,
                    -0.07207921892404556,
                    0.05300801992416382
                ]
            ],
            [
                [
                    -0.05933402106165886,
                    -0.052831120789051056,
                    -0.04469796270132065
                ],
                [
                    0.05508437380194664,
                    -0.02641727589070797,
                    -0.017798423767089844
                ],
                [
                    -0.044948723167181015,
                    0.028835421428084373,
                    -0.039184004068374634
                ]
            ],
            [
                [
                    0.00967408437281847,
                    0.025239579379558563,
                    -0.0011042691767215729
                ],
                [
                    0.0731968954205513,
                    0.045237164944410324,
                    -0.0404631532728672
                ],
                [
                    -0.031187966465950012,
                    0.057162150740623474,
                    -0.05826038867235184
                ]
            ],
            [
                [
                    0.039356011897325516,
                    0.07908829301595688,
                    -0.008334234356880188
                ],
                [
                    0.028390830382704735,
                    0.034414228051900864,
                    0.026845555752515793
                ],
                [
                    -0.06903304159641266,
                    0.06370023638010025,
                    -0.0313803069293499
                ]
            ]
        ],
        [
            [
                [
                    0.004380369558930397,
                    -0.025177687406539917,
                    0.034580547362565994
                ],
                [
                    0.05570202320814133,
                    -0.023996833711862564,
                    -0.01853031851351261
                ],
                [
                    -0.0324370376765728,
                    0.06127994880080223,
                    -0.09684257209300995
                ]
            ],
            [
                [
                    0.07180741429328918,
                    0.0015381298726424575,
                    -0.09573428332805634
                ],
                [
                    -0.04043743759393692,
                    -0.038573917001485825,
                    -0.011089430190622807
                ],
                [
                    0.035910043865442276,
                    0.10332293808460236,
                    0.012830235064029694
                ]
            ],
            [
                [
                    0.02424697019159794,
                    0.07288449257612228,
                    0.017386652529239655
                ],
                [
                    0.041546210646629333,
                    -0.011247177608311176,
                    -0.038158949464559555
                ],
                [
                    0.03995716944336891,
                    -0.09240707755088806,
                    5.4771888244431466e-05
                ]
            ],
            [
                [
                    -0.004553045611828566,
                    -0.06283338367938995,
                    -0.010876977816224098
                ],
                [
                    -0.04754025861620903,
                    0.04462062567472458,
                    -0.06705223023891449
                ],
                [
                    -0.05974140763282776,
                    0.044470105320215225,
                    0.03524451702833176
                ]
            ],
            [
                [
                    -0.03831179812550545,
                    -0.03233245387673378,
                    0.025858677923679352
                ],
                [
                    -0.05103366822004318,
                    -0.036278340965509415,
                    -0.02745184674859047
                ],
                [
                    -0.04151470959186554,
                    0.03233752027153969,
                    -0.02544744685292244
                ]
            ],
            [
                [
                    0.04975206404924393,
                    -0.03002442792057991,
                    -0.002659690333530307
                ],
                [
                    0.03833087533712387,
                    -0.036624111235141754,
                    0.06555845588445663
                ],
                [
                    -0.061968833208084106,
                    -0.07548462599515915,
                    0.03228142485022545
                ]
            ],
            [
                [
                    -0.03951714187860489,
                    0.01065460592508316,
                    -0.04961397498846054
                ],
                [
                    -0.04865410178899765,
                    -0.01732468791306019,
                    -0.01628037728369236
                ],
                [
                    -0.046732425689697266,
                    -0.04578573256731033,
                    0.05529489368200302
                ]
            ],
            [
                [
                    0.07966874539852142,
                    -0.0408906526863575,
                    -0.019959863275289536
                ],
                [
                    0.008787047117948532,
                    -0.04760617017745972,
                    -0.012979555875062943
                ],
                [
                    -0.021165795624256134,
                    0.012855593115091324,
                    0.05392950773239136
                ]
            ],
            [
                [
                    0.017347730696201324,
                    -0.06632724404335022,
                    -0.016231613233685493
                ],
                [
                    -0.0171767957508564,
                    -0.06269057840108871,
                    0.00813434086740017
                ],
                [
                    0.00928972102701664,
                    -0.02116480842232704,
                    -0.08151199668645859
                ]
            ],
            [
                [
                    -0.05455900728702545,
                    0.007173909340053797,
                    -0.0729648768901825
                ],
                [
                    0.0348263755440712,
                    0.07499618083238602,
                    0.0823562741279602
                ],
                [
                    -0.031957414001226425,
                    -0.005400654394179583,
                    -0.05084311217069626
                ]
            ],
            [
                [
                    0.055910054594278336,
                    0.022847715765237808,
                    -0.05913068354129791
                ],
                [
                    -0.00891752727329731,
                    -0.06611790508031845,
                    0.077736496925354
                ],
                [
                    -0.009330968372523785,
                    0.04342726245522499,
                    0.01812957040965557
                ]
            ],
            [
                [
                    -0.07037518173456192,
                    -0.07191377133131027,
                    -0.05220869556069374
                ],
                [
                    0.06684483587741852,
                    0.030413605272769928,
                    -0.012895703315734863
                ],
                [
                    -0.04892749339342117,
                    -0.028543440625071526,
                    -0.04444189369678497
                ]
            ],
            [
                [
                    -0.02405746839940548,
                    -0.0038677689153701067,
                    -0.055335793644189835
                ],
                [
                    -0.06514371186494827,
                    -0.04507627710700035,
                    0.031061353161931038
                ],
                [
                    -0.06761997938156128,
                    -0.016997165977954865,
                    -0.03897542878985405
                ]
            ],
            [
                [
                    -0.07188684493303299,
                    -0.03530889376997948,
                    0.030243925750255585
                ],
                [
                    -0.01539786346256733,
                    -0.0015234658494591713,
                    0.08346612006425858
                ],
                [
                    -0.01825929991900921,
                    0.028041882440447807,
                    0.03381147235631943
                ]
            ],
            [
                [
                    0.0935053750872612,
                    -0.017514633014798164,
                    0.037103909999132156
                ],
                [
                    0.045958034694194794,
                    0.030894964933395386,
                    -0.07642515003681183
                ],
                [
                    0.014994231052696705,
                    -0.048024408519268036,
                    0.006895886268466711
                ]
            ],
            [
                [
                    0.07264450937509537,
                    0.0705479234457016,
                    -0.05556292086839676
                ],
                [
                    0.078334279358387,
                    -0.05960942804813385,
                    -0.05832430720329285
                ],
                [
                    -0.02758973464369774,
                    -0.006229299120604992,
                    -0.08235403895378113
                ]
            ]
        ],
        [
            [
                [
                    -0.030900783836841583,
                    -0.006944713648408651,
                    -0.06207256764173508
                ],
                [
                    -0.0029457914642989635,
                    0.013759795576334,
                    -0.06767092645168304
                ],
                [
                    -0.023172792047262192,
                    0.08183154463768005,
                    0.03963723033666611
                ]
            ],
            [
                [
                    -0.05614684522151947,
                    0.010410764254629612,
                    -0.019488852471113205
                ],
                [
                    -0.03414301946759224,
                    0.08150287717580795,
                    0.03351673111319542
                ],
                [
                    -0.06838791072368622,
                    0.004267517942935228,
                    0.046231839805841446
                ]
            ],
            [
                [
                    -0.031195634976029396,
                    -0.0030797342769801617,
                    -0.03854955732822418
                ],
                [
                    0.07637407630681992,
                    -0.017690135166049004,
                    -0.01007610559463501
                ],
                [
                    -0.015252761542797089,
                    -0.0029090403113514185,
                    0.00866205058991909
                ]
            ],
            [
                [
                    0.029204590246081352,
                    -0.07710789144039154,
                    0.01414707861840725
                ],
                [
                    -0.07050655037164688,
                    -0.05081338435411453,
                    0.02815118059515953
                ],
                [
                    -0.019506605342030525,
                    0.0519639328122139,
                    -0.014216355048120022
                ]
            ],
            [
                [
                    -0.01682977005839348,
                    0.037485186010599136,
                    0.04720596969127655
                ],
                [
                    -0.10157856345176697,
                    0.055433399975299835,
                    -0.013094319961965084
                ],
                [
                    -0.07963958382606506,
                    0.057167671620845795,
                    0.005492084659636021
                ]
            ],
            [
                [
                    0.08144141733646393,
                    0.03918460011482239,
                    0.06556251645088196
                ],
                [
                    0.057645104825496674,
                    -0.06667105108499527,
                    -0.0761343464255333
                ],
                [
                    -0.03144482150673866,
                    -0.0432874895632267,
                    0.020576922222971916
                ]
            ],
            [
                [
                    0.019398340955376625,
                    0.05143924430012703,
                    -0.025107484310865402
                ],
                [
                    -0.016805754974484444,
                    -0.02185181714594364,
                    0.08906839042901993
                ],
                [
                    -0.03383762761950493,
                    0.08228392899036407,
                    0.09619475901126862
                ]
            ],
            [
                [
                    -0.01684771291911602,
                    0.04124917462468147,
                    0.07106753438711166
                ],
                [
                    0.048445720225572586,
                    -0.03691055625677109,
                    -0.07802478224039078
                ],
                [
                    0.033414632081985474,
                    -0.03948981314897537,
                    0.007566978223621845
                ]
            ],
            [
                [
                    -0.04578964784741402,
                    0.09210171550512314,
                    0.017217902466654778
                ],
                [
                    -0.08752954751253128,
                    -0.06206665188074112,
                    0.050709549337625504
                ],
                [
                    0.06680763512849808,
                    0.04824897646903992,
                    -0.026509663090109825
                ]
            ],
            [
                [
                    -0.015504231676459312,
                    -0.020070649683475494,
                    -0.00968064647167921
                ],
                [
                    0.06859347969293594,
                    0.06475036591291428,
                    -0.025736773386597633
                ],
                [
                    0.03130273520946503,
                    0.06811340153217316,
                    -0.03630014881491661
                ]
            ],
            [
                [
                    -0.07471272349357605,
                    -0.051643066108226776,
                    0.003469061804935336
                ],
                [
                    -0.04532700404524803,
                    0.011516858823597431,
                    -0.04646545276045799
                ],
                [
                    0.06730969995260239,
                    0.07970921695232391,
                    0.07804332673549652
                ]
            ],
            [
                [
                    -0.0249361339956522,
                    0.04710870981216431,
                    0.07314494997262955
                ],
                [
                    0.026163902133703232,
                    0.02016264945268631,
                    0.08963681757450104
                ],
                [
                    0.07244939357042313,
                    0.042843494564294815,
                    0.0003187508264090866
                ]
            ],
            [
                [
                    -0.06556002795696259,
                    -0.04581392928957939,
                    -0.04001787677407265
                ],
                [
                    -0.01111692190170288,
                    0.0012847624020650983,
                    -0.0537058487534523
                ],
                [
                    -0.05092531442642212,
                    0.09081996232271194,
                    -0.009927290491759777
                ]
            ],
            [
                [
                    -0.08532459288835526,
                    -0.0030503952875733376,
                    0.016297999769449234
                ],
                [
                    -0.01087971031665802,
                    -0.054777443408966064,
                    0.008698535151779652
                ],
                [
                    -0.047636859118938446,
                    0.062276046723127365,
                    0.018843717873096466
                ]
            ],
            [
                [
                    -0.0556519478559494,
                    0.01753372699022293,
                    0.05642339959740639
                ],
                [
                    -0.07275409251451492,
                    0.011275975964963436,
                    0.023576755076646805
                ],
                [
                    0.07922407984733582,
                    -0.036178287118673325,
                    0.03233906254172325
                ]
            ],
            [
                [
                    -0.0002546806645113975,
                    -0.051697831600904465,
                    0.012703041546046734
                ],
                [
                    -0.061107005923986435,
                    0.03084445558488369,
                    -0.03245476633310318
                ],
                [
                    -0.049755267798900604,
                    -0.08852594345808029,
                    -0.07276033610105515
                ]
            ]
        ],
        [
            [
                [
                    0.010269326157867908,
                    0.0562625415623188,
                    -0.07624555379152298
                ],
                [
                    -0.036083292216062546,
                    0.0869683250784874,
                    -0.004968162626028061
                ],
                [
                    -0.05874522402882576,
                    0.007328385021537542,
                    -0.07061011344194412
                ]
            ],
            [
                [
                    0.08317875117063522,
                    0.014204820618033409,
                    0.08092362433671951
                ],
                [
                    0.011666631326079369,
                    -0.04629864916205406,
                    -0.06897413730621338
                ],
                [
                    0.03408918157219887,
                    -0.00293881562538445,
                    -0.0015047825872898102
                ]
            ],
            [
                [
                    -0.011968130245804787,
                    -0.03555113077163696,
                    -0.023167666047811508
                ],
                [
                    0.046766385436058044,
                    0.08088599145412445,
                    -0.05925849825143814
                ],
                [
                    -0.02569853514432907,
                    0.036268990486860275,
                    -0.02771918475627899
                ]
            ],
            [
                [
                    0.0750110074877739,
                    0.059253327548503876,
                    0.02945953607559204
                ],
                [
                    0.07207134366035461,
                    -0.007976952008903027,
                    -0.03400369733572006
                ],
                [
                    -0.01876245252788067,
                    -0.06582915037870407,
                    0.0014063989510759711
                ]
            ],
            [
                [
                    -0.05344993993639946,
                    -0.011809305287897587,
                    -0.00762222521007061
                ],
                [
                    -0.0014671814860776067,
                    0.027835870161652565,
                    0.020339006558060646
                ],
                [
                    0.06178414449095726,
                    0.032038114964962006,
                    0.022820934653282166
                ]
            ],
            [
                [
                    -0.009385435841977596,
                    -0.05302390828728676,
                    0.06535036116838455
                ],
                [
                    0.0307480338960886,
                    -0.05707878619432449,
                    -0.028779959306120872
                ],
                [
                    -0.062108591198921204,
                    0.02747337706387043,
                    0.009353265166282654
                ]
            ],
            [
                [
                    0.07798454165458679,
                    0.04985134303569794,
                    0.09877917170524597
                ],
                [
                    -0.030937038362026215,
                    -0.047388918697834015,
                    -0.07857797294855118
                ],
                [
                    0.04763210192322731,
                    0.005172830540686846,
                    -0.061553288251161575
                ]
            ],
            [
                [
                    0.06389071047306061,
                    -0.044623516499996185,
                    -0.004547019023448229
                ],
                [
                    -0.06497808545827866,
                    0.012100017629563808,
                    0.031225264072418213
                ],
                [
                    0.08928915858268738,
                    0.03944213688373566,
                    -0.04720732197165489
                ]
            ],
            [
                [
                    0.05890480428934097,
                    -0.0848299190402031,
                    0.037444036453962326
                ],
                [
                    0.02540225349366665,
                    -0.03782220184803009,
                    -0.014151879586279392
                ],
                [
                    0.0602417029440403,
                    -0.05778399109840393,
                    -0.051897082477808
                ]
            ],
            [
                [
                    -0.032667405903339386,
                    0.07300432026386261,
                    -0.03458153456449509
                ],
                [
                    0.06207175552845001,
                    -0.011215776205062866,
                    0.058356672525405884
                ],
                [
                    0.007086913101375103,
                    0.025840232148766518,
                    0.0009574946016073227
                ]
            ],
            [
                [
                    -0.06837017089128494,
                    0.048759471625089645,
                    -0.02565770223736763
                ],
                [
                    0.04235709831118584,
                    0.03239225223660469,
                    0.00837878230959177
                ],
                [
                    0.018514545634388924,
                    -0.004509364254772663,
                    0.013043781742453575
                ]
            ],
            [
                [
                    0.020377589389681816,
                    0.06232054904103279,
                    -0.06437171995639801
                ],
                [
                    -0.004147090949118137,
                    0.09544790536165237,
                    -0.004645621869713068
                ],
                [
                    0.017568111419677734,
                    0.020819442346692085,
                    -0.06464529782533646
                ]
            ],
            [
                [
                    0.005833500064909458,
                    0.0011825981782749295,
                    0.09010013937950134
                ],
                [
                    0.07054661959409714,
                    -0.0737689957022667,
                    -0.035008810460567474
                ],
                [
                    -0.09434591233730316,
                    -0.05835309252142906,
                    -0.05476346239447594
                ]
            ],
            [
                [
                    -0.06525355577468872,
                    -0.052121784538030624,
                    0.026180455461144447
                ],
                [
                    -0.0458439365029335,
                    0.017285211011767387,
                    0.08536958694458008
                ],
                [
                    0.042864251881837845,
                    0.0641857162117958,
                    0.002410639077425003
                ]
            ],
            [
                [
                    -0.06535279005765915,
                    0.029314912855625153,
                    -0.031012609601020813
                ],
                [
                    -0.08593141287565231,
                    -0.015006777830421925,
                    -0.05031885206699371
                ],
                [
                    0.03100242279469967,
                    0.06420978158712387,
                    0.05370861664414406
                ]
            ],
            [
                [
                    -0.08585750311613083,
                    -0.053731296211481094,
                    -0.06233702600002289
                ],
                [
                    0.041487470269203186,
                    0.039304640144109726,
                    -0.005070685874670744
                ],
                [
                    -0.0015198487089946866,
                    -0.03569361940026283,
                    -0.040544796735048294
                ]
            ]
        ],
        [
            [
                [
                    0.06271003186702728,
                    0.08233661949634552,
                    0.001727983821183443
                ],
                [
                    0.06994207203388214,
                    0.05281244218349457,
                    -0.03227061405777931
                ],
                [
                    -0.004075304605066776,
                    -0.023297714069485664,
                    -0.021267153322696686
                ]
            ],
            [
                [
                    0.060435496270656586,
                    -0.07949570566415787,
                    -0.05549193173646927
                ],
                [
                    0.008895618841052055,
                    -0.08807514607906342,
                    -0.04820230230689049
                ],
                [
                    0.0898287370800972,
                    -0.041406795382499695,
                    -0.022977180778980255
                ]
            ],
            [
                [
                    0.005433321464806795,
                    -0.003919783979654312,
                    -0.04517427459359169
                ],
                [
                    -0.0009570769616402686,
                    -0.05132279545068741,
                    0.04365330934524536
                ],
                [
                    0.04249848052859306,
                    -0.023274434730410576,
                    -0.03995377942919731
                ]
            ],
            [
                [
                    0.012129250913858414,
                    0.04346655681729317,
                    -0.01719261333346367
                ],
                [
                    -0.06403868645429611,
                    -0.012734019197523594,
                    -0.030715815722942352
                ],
                [
                    0.06751596182584763,
                    0.015166256576776505,
                    0.08932279050350189
                ]
            ],
            [
                [
                    -0.029973799362778664,
                    0.004606049507856369,
                    -0.04153923690319061
                ],
                [
                    0.007488572970032692,
                    0.039644755423069,
                    0.014346668496727943
                ],
                [
                    0.07032271474599838,
                    0.01600886508822441,
                    -0.027741217985749245
                ]
            ],
            [
                [
                    0.008680012077093124,
                    -0.06572292000055313,
                    -0.00659922044724226
                ],
                [
                    0.01866387203335762,
                    0.07296735048294067,
                    -0.0006863577873446047
                ],
                [
                    -0.05509299039840698,
                    0.06593702733516693,
                    -0.06337781995534897
                ]
            ],
            [
                [
                    0.05315703526139259,
                    -0.06266698986291885,
                    0.02459542825818062
                ],
                [
                    0.0646921694278717,
                    0.04760760813951492,
                    0.014799627475440502
                ],
                [
                    0.0020306173246353865,
                    -0.0006311823963187635,
                    -0.06867200136184692
                ]
            ],
            [
                [
                    0.02819250524044037,
                    0.0007604225538671017,
                    -0.020193716511130333
                ],
                [
                    -0.03038010559976101,
                    -0.053544919937849045,
                    -0.0654970332980156
                ],
                [
                    0.022597825154662132,
                    -0.003891656408086419,
                    0.06356705725193024
                ]
            ],
            [
                [
                    -0.06584536284208298,
                    -0.07172352075576782,
                    -0.09225868433713913
                ],
                [
                    0.08392571657896042,
                    -0.034422874450683594,
                    0.011016272008419037
                ],
                [
                    0.001820308156311512,
                    -0.0696735605597496,
                    0.03610237315297127
                ]
            ],
            [
                [
                    0.055435508489608765,
                    0.0044676773250103,
                    -0.05901692435145378
                ],
                [
                    0.014956771396100521,
                    0.07597652822732925,
                    0.0719294399023056
                ],
                [
                    0.029246194288134575,
                    -0.043859947472810745,
                    -0.04843350872397423
                ]
            ],
            [
                [
                    -0.06872138381004333,
                    -0.04645928740501404,
                    0.011420144699513912
                ],
                [
                    -0.042323920875787735,
                    -0.008602429181337357,
                    0.010878276079893112
                ],
                [
                    0.03460342064499855,
                    0.06446211040019989,
                    -0.018886514008045197
                ]
            ],
            [
                [
                    0.003200424835085869,
                    0.007984815165400505,
                    0.02273528464138508
                ],
                [
                    0.007854406721889973,
                    -0.054863717406988144,
                    -0.04189356788992882
                ],
                [
                    -0.07916512340307236,
                    0.04412958770990372,
                    -0.0503184050321579
                ]
            ],
            [
                [
                    0.049884311854839325,
                    -0.019813666120171547,
                    -0.029710249975323677
                ],
                [
                    -0.03397688269615173,
                    0.009660475887358189,
                    -0.005847565829753876
                ],
                [
                    0.021030260249972343,
                    0.00795680284500122,
                    -0.013789459131658077
                ]
            ],
            [
                [
                    -0.001695876126177609,
                    0.06240184232592583,
                    0.03635155037045479
                ],
                [
                    0.09950736910104752,
                    -0.00230040424503386,
                    -0.02482575550675392
                ],
                [
                    -0.019222931936383247,
                    0.019421584904193878,
                    -0.07764748483896255
                ]
            ],
            [
                [
                    0.0564352348446846,
                    -0.06663867086172104,
                    0.02864142693579197
                ],
                [
                    0.05991196632385254,
                    -0.005639704409986734,
                    -0.09514949470758438
                ],
                [
                    0.07343163341283798,
                    0.03518427163362503,
                    0.0028806074988096952
                ]
            ],
            [
                [
                    0.01750187762081623,
                    0.05922256037592888,
                    0.03186284005641937
                ],
                [
                    0.07324948161840439,
                    0.029792150482535362,
                    -0.029694054275751114
                ],
                [
                    0.07254000008106232,
                    0.08270727097988129,
                    0.010916000232100487
                ]
            ]
        ],
        [
            [
                [
                    -0.06954570859670639,
                    -0.027077579870820045,
                    -0.015477003529667854
                ],
                [
                    -0.07723797857761383,
                    -0.06864863634109497,
                    0.03163525089621544
                ],
                [
                    0.07293204218149185,
                    0.04513100907206535,
                    0.07814668118953705
                ]
            ],
            [
                [
                    -0.0916285440325737,
                    -0.0028013873379677534,
                    0.05405368655920029
                ],
                [
                    -0.08737339824438095,
                    -0.016734329983592033,
                    -0.053603485226631165
                ],
                [
                    -0.07081527262926102,
                    -0.07311023026704788,
                    0.0061489287763834
                ]
            ],
            [
                [
                    -0.06655891984701157,
                    0.04154319316148758,
                    -0.0021056781988590956
                ],
                [
                    -0.04579918086528778,
                    0.005349122453480959,
                    -0.007322078570723534
                ],
                [
                    0.06466022878885269,
                    0.07570677250623703,
                    0.00929526798427105
                ]
            ],
            [
                [
                    0.01333045307546854,
                    -0.001278000301681459,
                    0.026864387094974518
                ],
                [
                    0.04171032831072807,
                    0.005800109822303057,
                    -0.06852810084819794
                ],
                [
                    -0.042897213250398636,
                    -0.017518140375614166,
                    -0.04374857246875763
                ]
            ],
            [
                [
                    0.005012983921915293,
                    0.013349373824894428,
                    0.0603451132774353
                ],
                [
                    0.08520321547985077,
                    -0.08897014707326889,
                    -0.039009351283311844
                ],
                [
                    0.06810025125741959,
                    -0.0587301105260849,
                    -0.04590260609984398
                ]
            ],
            [
                [
                    0.019269132986664772,
                    0.04295019432902336,
                    0.0384509302675724
                ],
                [
                    -0.030714211985468864,
                    0.012994825839996338,
                    0.06039169803261757
                ],
                [
                    0.046427175402641296,
                    -0.0665801614522934,
                    0.038104720413684845
                ]
            ],
            [
                [
                    0.02491270937025547,
                    -0.06188224256038666,
                    0.040975261479616165
                ],
                [
                    -0.024889878928661346,
                    0.06323424726724625,
                    0.03365354984998703
                ],
                [
                    0.07726244628429413,
                    -0.013084293343126774,
                    0.037012726068496704
                ]
            ],
            [
                [
                    0.050608616322278976,
                    -0.058488648384809494,
                    -0.060883525758981705
                ],
                [
                    -0.07003726810216904,
                    0.008412966504693031,
                    0.050367724150419235
                ],
                [
                    -0.06269624829292297,
                    -0.029367228969931602,
                    -0.09160327911376953
                ]
            ],
            [
                [
                    0.04691866785287857,
                    0.05790967494249344,
                    0.054982688277959824
                ],
                [
                    -0.06753329932689667,
                    0.04772379249334335,
                    0.03701746463775635
                ],
                [
                    0.04800731688737869,
                    0.050072815269231796,
                    0.02139013633131981
                ]
            ],
            [
                [
                    0.05469341576099396,
                    -0.03343599662184715,
                    -0.08982045203447342
                ],
                [
                    -0.05519457906484604,
                    -0.02939898893237114,
                    0.05661854147911072
                ],
                [
                    0.01710583083331585,
                    0.04838436469435692,
                    0.06241373345255852
                ]
            ],
            [
                [
                    0.03596685081720352,
                    -0.008291473612189293,
                    0.06426891684532166
                ],
                [
                    -0.0004623404238373041,
                    0.025469521060585976,
                    0.044022027403116226
                ],
                [
                    0.06724785268306732,
                    0.036588363349437714,
                    -0.08736658841371536
                ]
            ],
            [
                [
                    0.028117503970861435,
                    0.06269367784261703,
                    -0.0007477760082110763
                ],
                [
                    -0.051290709525346756,
                    -0.07814624905586243,
                    0.048365380614995956
                ],
                [
                    0.020304251462221146,
                    0.006541789975017309,
                    0.0027134830597788095
                ]
            ],
            [
                [
                    0.0995211973786354,
                    -0.06682425737380981,
                    0.047625187784433365
                ],
                [
                    -0.007304404396563768,
                    0.07809515297412872,
                    0.07184647768735886
                ],
                [
                    -0.049116551876068115,
                    -0.016548091545701027,
                    0.013128535822033882
                ]
            ],
            [
                [
                    0.042414341121912,
                    -0.002506646793335676,
                    -0.005781090818345547
                ],
                [
                    -0.05803821608424187,
                    0.010092462413012981,
                    -0.008043747395277023
                ],
                [
                    0.029983969405293465,
                    -0.08229745179414749,
                    0.02110159769654274
                ]
            ],
            [
                [
                    -0.052846696227788925,
                    -0.061583418399095535,
                    -0.010361555963754654
                ],
                [
                    -0.02966608665883541,
                    0.0055311257019639015,
                    -0.008776783011853695
                ],
                [
                    -0.09191761910915375,
                    0.07115598767995834,
                    -0.014342046342790127
                ]
            ],
            [
                [
                    0.053732313215732574,
                    0.09590086340904236,
                    0.008303303271532059
                ],
                [
                    -0.06733732670545578,
                    0.02559959702193737,
                    0.09713342040777206
                ],
                [
                    -0.041550636291503906,
                    -0.013846964575350285,
                    0.016026802361011505
                ]
            ]
        ],
        [
            [
                [
                    0.002398818265646696,
                    0.06526133418083191,
                    0.06836888194084167
                ],
                [
                    0.06678952276706696,
                    0.0708129033446312,
                    -0.056373391300439835
                ],
                [
                    -0.07545873522758484,
                    0.054920122027397156,
                    -0.07603894919157028
                ]
            ],
            [
                [
                    0.05950881540775299,
                    0.06359288841485977,
                    -0.009171394631266594
                ],
                [
                    -0.09545517712831497,
                    -0.04943901672959328,
                    0.003546452848240733
                ],
                [
                    -0.03617051988840103,
                    0.04475681483745575,
                    -0.01030297763645649
                ]
            ],
            [
                [
                    -0.031434059143066406,
                    -0.06502445042133331,
                    -0.031308259814977646
                ],
                [
                    -0.0762510821223259,
                    0.01344497874379158,
                    0.024958953261375427
                ],
                [
                    0.030043696984648705,
                    0.005070021841675043,
                    -0.026680584996938705
                ]
            ],
            [
                [
                    -0.06620870530605316,
                    0.07817231863737106,
                    -0.022940970957279205
                ],
                [
                    0.038557201623916626,
                    0.019548961892724037,
                    -0.02387339621782303
                ],
                [
                    -0.020478609949350357,
                    -0.010534384287893772,
                    -0.04133401811122894
                ]
            ],
            [
                [
                    -0.05536768212914467,
                    -0.05082191899418831,
                    -0.03306009620428085
                ],
                [
                    0.08656498044729233,
                    -0.040543947368860245,
                    -0.04245337098836899
                ],
                [
                    0.09011425822973251,
                    -0.05268661305308342,
                    -0.05288476124405861
                ]
            ],
            [
                [
                    0.004191956482827663,
                    -0.040444571524858475,
                    0.050949253141880035
                ],
                [
                    0.08829020708799362,
                    0.04647800326347351,
                    0.05832814425230026
                ],
                [
                    -0.07554671168327332,
                    0.00946851633489132,
                    -0.055707670748233795
                ]
            ],
            [
                [
                    0.002750805113464594,
                    -0.03220411017537117,
                    0.07489807903766632
                ],
                [
                    0.05985542759299278,
                    -4.7853420255705714e-05,
                    0.054047323763370514
                ],
                [
                    0.05566712096333504,
                    -0.04508446529507637,
                    0.08628635108470917
                ]
            ],
            [
                [
                    0.007666212972253561,
                    -0.044422414153814316,
                    0.044352516531944275
                ],
                [
                    0.013996663503348827,
                    0.07468022406101227,
                    0.08258794248104095
                ],
                [
                    -0.07213694602251053,
                    0.008261282928287983,
                    -0.02070150151848793
                ]
            ],
            [
                [
                    -0.06772769242525101,
                    0.0034411558881402016,
                    0.00033455132506787777
                ],
                [
                    -0.03360545635223389,
                    -0.04357337951660156,
                    -0.001980570377781987
                ],
                [
                    -0.003717554733157158,
                    -0.05906718969345093,
                    -0.03639894723892212
                ]
            ],
            [
                [
                    -0.03318158909678459,
                    0.0022178960498422384,
                    0.07512523978948593
                ],
                [
                    -0.048382118344306946,
                    -0.057490214705467224,
                    -0.013065914623439312
                ],
                [
                    0.07518275082111359,
                    0.020529022440314293,
                    0.044939275830984116
                ]
            ],
            [
                [
                    -0.03458947315812111,
                    0.061346009373664856,
                    0.0019803186878561974
                ],
                [
                    -0.03990143537521362,
                    0.04637947306036949,
                    -0.030757658183574677
                ],
                [
                    0.07212880998849869,
                    -0.059035517275333405,
                    -0.008713196963071823
                ]
            ],
            [
                [
                    -0.03597665950655937,
                    0.06764215230941772,
                    0.07967174798250198
                ],
                [
                    0.0848693996667862,
                    0.009446253068745136,
                    -0.029559461399912834
                ],
                [
                    -0.06596092134714127,
                    -0.007750341203063726,
                    0.08837305009365082
                ]
            ],
            [
                [
                    0.03339632228016853,
                    -0.08227968961000443,
                    0.06442496925592422
                ],
                [
                    0.02985142357647419,
                    0.03855442255735397,
                    -0.028318868950009346
                ],
                [
                    -0.07603225857019424,
                    -0.036194875836372375,
                    0.060026973485946655
                ]
            ],
            [
                [
                    0.012537389993667603,
                    -0.03256905823945999,
                    -0.029044099152088165
                ],
                [
                    -0.01644130051136017,
                    0.07047778367996216,
                    0.014648298732936382
                ],
                [
                    0.015099432319402695,
                    0.05167224258184433,
                    0.04143241420388222
                ]
            ],
            [
                [
                    -0.027885138988494873,
                    -0.0716802179813385,
                    0.012243763543665409
                ],
                [
                    -0.01887240819633007,
                    0.011016035452485085,
                    0.04209814965724945
                ],
                [
                    -0.06269458681344986,
                    0.00775492936372757,
                    0.045916713774204254
                ]
            ],
            [
                [
                    -0.0642223060131073,
                    -0.012538387440145016,
                    -0.06104666739702225
                ],
                [
                    0.035552266985177994,
                    0.03045419603586197,
                    0.025604093447327614
                ],
                [
                    0.02773079089820385,
                    -0.03000660054385662,
                    -0.08875419199466705
                ]
            ]
        ],
        [
            [
                [
                    -0.040752995759248734,
                    0.05187518522143364,
                    0.07418365776538849
                ],
                [
                    -0.0673096626996994,
                    -0.035397522151470184,
                    0.0340091697871685
                ],
                [
                    -0.04010622948408127,
                    -0.04551657661795616,
                    -0.049295056611299515
                ]
            ],
            [
                [
                    -0.0070339953526854515,
                    -0.08407973498106003,
                    -0.03410802036523819
                ],
                [
                    -0.0949191078543663,
                    -0.05498775467276573,
                    0.05620693787932396
                ],
                [
                    0.10794860869646072,
                    -0.004579071421176195,
                    0.02968399040400982
                ]
            ],
            [
                [
                    -0.058255087584257126,
                    0.05507388338446617,
                    -0.05937058478593826
                ],
                [
                    -0.092038594186306,
                    -0.007148888893425465,
                    0.027404960244894028
                ],
                [
                    0.059131693094968796,
                    -0.03009977750480175,
                    0.043062467128038406
                ]
            ],
            [
                [
                    0.042097076773643494,
                    -0.06812755018472672,
                    0.05017555132508278
                ],
                [
                    -0.0653785988688469,
                    -0.003421416273340583,
                    0.04883662238717079
                ],
                [
                    -0.07684972882270813,
                    -0.07491718232631683,
                    0.057216957211494446
                ]
            ],
            [
                [
                    -0.06087411567568779,
                    0.03653993457555771,
                    -0.05077110603451729
                ],
                [
                    0.015071818605065346,
                    -0.0035166277084499598,
                    -0.06547749042510986
                ],
                [
                    0.00131400884129107,
                    0.05986003577709198,
                    0.05484391003847122
                ]
            ],
            [
                [
                    0.005525503773242235,
                    -0.026658454909920692,
                    0.0715804174542427
                ],
                [
                    0.07116971909999847,
                    -0.02915838174521923,
                    0.022628722712397575
                ],
                [
                    0.07615002989768982,
                    -0.05694730207324028,
                    0.053190745413303375
                ]
            ],
            [
                [
                    -0.0540945939719677,
                    0.008080931380391121,
                    -0.03342301771044731
                ],
                [
                    -0.048962388187646866,
                    -0.045768577605485916,
                    -0.039194852113723755
                ],
                [
                    -0.028431246057152748,
                    -0.06599491089582443,
                    -0.0033005799632519484
                ]
            ],
            [
                [
                    0.07595973461866379,
                    0.09365250170230865,
                    -0.06814180314540863
                ],
                [
                    0.024010049179196358,
                    -0.02508779615163803,
                    -0.007663498632609844
                ],
                [
                    -0.017202729359269142,
                    -0.013111664913594723,
                    0.021247589960694313
                ]
            ],
            [
                [
                    -0.05567379668354988,
                    -0.00018424612062517554,
                    0.03413865715265274
                ],
                [
                    0.046679332852363586,
                    -0.0011216505663469434,
                    0.07507911324501038
                ],
                [
                    -0.030366480350494385,
                    -0.057126861065626144,
                    0.05097324028611183
                ]
            ],
            [
                [
                    -0.07907858490943909,
                    0.03917571157217026,
                    0.034592267125844955
                ],
                [
                    0.04899599030613899,
                    0.018274035304784775,
                    0.030129307880997658
                ],
                [
                    -0.08172722160816193,
                    0.01470602210611105,
                    0.05095099285244942
                ]
            ],
            [
                [
                    -0.03146561235189438,
                    -0.052222270518541336,
                    0.061393093317747116
                ],
                [
                    0.06638910621404648,
                    -0.05112360790371895,
                    0.0510367713868618
                ],
                [
                    0.05958911031484604,
                    0.0115475133061409,
                    -0.013250802643597126
                ]
            ],
            [
                [
                    -0.08131909370422363,
                    0.015676487237215042,
                    -0.06223643198609352
                ],
                [
                    -0.02255352772772312,
                    0.019301611930131912,
                    0.07419999688863754
                ],
                [
                    -0.004646497778594494,
                    0.008634145371615887,
                    0.06403705477714539
                ]
            ],
            [
                [
                    0.0012264359975233674,
                    0.10653750598430634,
                    -0.07675690948963165
                ],
                [
                    0.04314057528972626,
                    0.08784949034452438,
                    -0.02919015847146511
                ],
                [
                    0.07111454010009766,
                    -0.03547821193933487,
                    0.07166020572185516
                ]
            ],
            [
                [
                    -0.03923819214105606,
                    -0.00930287316441536,
                    0.08680514991283417
                ],
                [
                    0.01015141885727644,
                    0.060663215816020966,
                    -0.06794975697994232
                ],
                [
                    0.00891820527613163,
                    -0.008233507163822651,
                    0.03542836755514145
                ]
            ],
            [
                [
                    -0.015401486307382584,
                    0.03556026518344879,
                    0.0731038898229599
                ],
                [
                    0.0736931562423706,
                    0.028570573776960373,
                    0.009057166054844856
                ],
                [
                    0.00140608090441674,
                    0.026274198666214943,
                    0.04256824031472206
                ]
            ],
            [
                [
                    -0.0423317514359951,
                    -0.033982355147600174,
                    -0.02740834467113018
                ],
                [
                    0.0227521862834692,
                    -0.0379483588039875,
                    -0.02821778506040573
                ],
                [
                    -0.06355003267526627,
                    0.06500451266765594,
                    0.07206522673368454
                ]
            ]
        ],
        [
            [
                [
                    0.0029618775006383657,
                    -0.06166765093803406,
                    0.024793043732643127
                ],
                [
                    0.06703230738639832,
                    -0.05251719802618027,
                    0.02614070475101471
                ],
                [
                    -0.010526259429752827,
                    0.028323670849204063,
                    -0.03217894956469536
                ]
            ],
            [
                [
                    -0.0831427052617073,
                    0.06054636836051941,
                    -0.024895384907722473
                ],
                [
                    -0.0013772163074463606,
                    -0.032721586525440216,
                    0.0038881876971572638
                ],
                [
                    -0.027669653296470642,
                    0.025673728436231613,
                    -0.016230782493948936
                ]
            ],
            [
                [
                    -0.05933038517832756,
                    0.018771830946207047,
                    -0.03340955451130867
                ],
                [
                    -0.009226465597748756,
                    0.008838020265102386,
                    0.0762181505560875
                ],
                [
                    -0.06887616962194443,
                    0.07290983945131302,
                    0.031474221497774124
                ]
            ],
            [
                [
                    -0.02650444768369198,
                    -0.053486939519643784,
                    0.04706206172704697
                ],
                [
                    0.06438606977462769,
                    -0.07075115293264389,
                    0.05852197855710983
                ],
                [
                    -0.08086206763982773,
                    -0.030665220692753792,
                    -0.02935541607439518
                ]
            ],
            [
                [
                    -0.07293131947517395,
                    -0.03476126119494438,
                    0.009072291664779186
                ],
                [
                    0.004175079520791769,
                    0.02194254659116268,
                    -0.11142516881227493
                ],
                [
                    0.01723432168364525,
                    -0.03888113796710968,
                    -0.009604048915207386
                ]
            ],
            [
                [
                    0.011954499408602715,
                    -0.04710046947002411,
                    -0.06219986081123352
                ],
                [
                    0.05450907349586487,
                    -0.048913199454545975,
                    -0.026934806257486343
                ],
                [
                    -0.05897631496191025,
                    0.05771679803729057,
                    -0.06504743546247482
                ]
            ],
            [
                [
                    0.08283185213804245,
                    0.09698759019374847,
                    -0.023824350908398628
                ],
                [
                    -0.0008326589595526457,
                    0.052173152565956116,
                    -0.06657879799604416
                ],
                [
                    0.011321071535348892,
                    0.038952358067035675,
                    0.06250209361314774
                ]
            ],
            [
                [
                    0.04257936403155327,
                    0.07172827422618866,
                    -0.017487425357103348
                ],
                [
                    0.0077436259016394615,
                    -0.04456968605518341,
                    0.08286409825086594
                ],
                [
                    -0.07377893477678299,
                    -0.06318438798189163,
                    0.03450764715671539
                ]
            ],
            [
                [
                    -0.05947250872850418,
                    -0.04660916328430176,
                    -0.0026788609102368355
                ],
                [
                    -0.029830902814865112,
                    0.033216919749975204,
                    0.07331452518701553
                ],
                [
                    -0.03603687509894371,
                    0.052865125238895416,
                    0.052816011011600494
                ]
            ],
            [
                [
                    -0.0068589504808187485,
                    0.06111442670226097,
                    0.07996348291635513
                ],
                [
                    0.008001218549907207,
                    0.04019453004002571,
                    0.013010188937187195
                ],
                [
                    0.06859967857599258,
                    -0.07915497571229935,
                    0.033171940594911575
                ]
            ],
            [
                [
                    0.08507619053125381,
                    0.04280461370944977,
                    0.019724197685718536
                ],
                [
                    0.009301422163844109,
                    -0.02642938122153282,
                    0.04250242933630943
                ],
                [
                    -0.09280788153409958,
                    -0.06888595223426819,
                    -0.052224189043045044
                ]
            ],
            [
                [
                    0.09293900430202484,
                    0.07532554864883423,
                    0.06588134169578552
                ],
                [
                    0.01027593482285738,
                    0.06587914377450943,
                    -0.06013423576951027
                ],
                [
                    -0.036960750818252563,
                    -0.07909159362316132,
                    0.028387725353240967
                ]
            ],
            [
                [
                    0.0004813782579731196,
                    0.001819250755943358,
                    0.040202315896749496
                ],
                [
                    -0.049257759004831314,
                    0.029458537697792053,
                    0.10886024683713913
                ],
                [
                    -0.06829536706209183,
                    0.004622624721378088,
                    -0.013990996405482292
                ]
            ],
            [
                [
                    0.04464344307780266,
                    0.06878641247749329,
                    -0.05639840289950371
                ],
                [
                    -0.058549366891384125,
                    -0.03386613726615906,
                    0.03830734267830849
                ],
                [
                    -0.036700841039419174,
                    -0.00188162992708385,
                    -0.032673049718141556
                ]
            ],
            [
                [
                    -0.04308110475540161,
                    -0.025684619322419167,
                    -0.06527069211006165
                ],
                [
                    -0.02727479860186577,
                    0.08171134442090988,
                    0.026190374046564102
                ],
                [
                    0.03146880865097046,
                    0.02635534107685089,
                    0.07922329008579254
                ]
            ],
            [
                [
                    -0.0683024674654007,
                    0.0881258100271225,
                    0.06812368333339691
                ],
                [
                    -0.06104409322142601,
                    0.06912519037723541,
                    0.05383491888642311
                ],
                [
                    -0.0798397809267044,
                    -0.056920792907476425,
                    -0.0380624383687973
                ]
            ]
        ],
        [
            [
                [
                    -0.0389031283557415,
                    -0.061886291950941086,
                    -0.05081048235297203
                ],
                [
                    -0.028925692662596703,
                    0.0649130791425705,
                    0.05304932966828346
                ],
                [
                    0.010047154501080513,
                    -0.06507393717765808,
                    -0.007479483261704445
                ]
            ],
            [
                [
                    0.04136206582188606,
                    -0.02489512227475643,
                    -0.10768472403287888
                ],
                [
                    0.0014189594658091664,
                    0.012571049854159355,
                    -0.05174313858151436
                ],
                [
                    -0.0776863545179367,
                    -0.04011625424027443,
                    -0.03425786271691322
                ]
            ],
            [
                [
                    0.02688504010438919,
                    0.020331693813204765,
                    0.07173124700784683
                ],
                [
                    0.005797564052045345,
                    -0.03634026646614075,
                    -0.03512680530548096
                ],
                [
                    0.04383712634444237,
                    0.05897333845496178,
                    0.061217378824949265
                ]
            ],
            [
                [
                    -0.03537905216217041,
                    -0.058729350566864014,
                    0.028930313885211945
                ],
                [
                    0.011705775745213032,
                    0.08486051112413406,
                    -0.03234865888953209
                ],
                [
                    0.02944914810359478,
                    0.003741985885426402,
                    0.0821351408958435
                ]
            ],
            [
                [
                    -0.034007035195827484,
                    0.06404886394739151,
                    -0.005936639383435249
                ],
                [
                    -0.10218076407909393,
                    -0.08469133079051971,
                    -0.09374749660491943
                ],
                [
                    -0.03146522492170334,
                    0.021325018256902695,
                    -0.08706091344356537
                ]
            ],
            [
                [
                    -0.047936756163835526,
                    0.05447098985314369,
                    -0.07334023714065552
                ],
                [
                    0.0734003335237503,
                    0.04877857863903046,
                    -0.06532397121191025
                ],
                [
                    -0.014675327576696873,
                    0.07064743340015411,
                    0.058501292020082474
                ]
            ],
            [
                [
                    0.04941483214497566,
                    0.058101244270801544,
                    0.024480143561959267
                ],
                [
                    0.03905525803565979,
                    -0.052914705127477646,
                    -0.02076946571469307
                ],
                [
                    -0.0036936048418283463,
                    -0.008224585093557835,
                    0.012453393079340458
                ]
            ],
            [
                [
                    0.014378638006746769,
                    -0.05912623926997185,
                    -0.0037313562352210283
                ],
                [
                    -0.07089860737323761,
                    -0.015233288519084454,
                    -0.05083175003528595
                ],
                [
                    -0.04633172228932381,
                    0.06371911615133286,
                    -0.019305959343910217
                ]
            ],
            [
                [
                    0.04291258752346039,
                    0.05518294870853424,
                    -0.06971181184053421
                ],
                [
                    -0.06329818069934845,
                    0.033652834594249725,
                    -0.080217145383358
                ],
                [
                    -0.02654852904379368,
                    0.04837718978524208,
                    0.0368618406355381
                ]
            ],
            [
                [
                    0.045192793011665344,
                    0.0562322661280632,
                    -0.05735065042972565
                ],
                [
                    0.03452109172940254,
                    0.0657053142786026,
                    -0.05371558666229248
                ],
                [
                    -0.07436855137348175,
                    -0.04659642279148102,
                    0.0599096342921257
                ]
            ],
            [
                [
                    0.010402752086520195,
                    -0.040382519364356995,
                    0.01754545420408249
                ],
                [
                    0.017057528719305992,
                    0.01758197508752346,
                    0.04154524579644203
                ],
                [
                    0.015116890892386436,
                    -0.046052370220422745,
                    0.032191164791584015
                ]
            ],
            [
                [
                    -0.012234204448759556,
                    0.015405244193971157,
                    0.011388851329684258
                ],
                [
                    0.09009098261594772,
                    0.07532615959644318,
                    0.02960672602057457
                ],
                [
                    -0.009351884014904499,
                    0.03547031804919243,
                    0.030694302171468735
                ]
            ],
            [
                [
                    0.02998090535402298,
                    -0.01643524318933487,
                    -0.02373572066426277
                ],
                [
                    -0.04528118297457695,
                    0.008694066666066647,
                    -0.03615594282746315
                ],
                [
                    0.002899847226217389,
                    -0.0368892066180706,
                    -0.0707736685872078
                ]
            ],
            [
                [
                    0.038850780576467514,
                    0.06338630616664886,
                    0.043406758457422256
                ],
                [
                    -0.0745987594127655,
                    -0.014174750074744225,
                    0.0023279371671378613
                ],
                [
                    0.07712461799383163,
                    0.061007898300886154,
                    0.04791533574461937
                ]
            ],
            [
                [
                    0.08814891427755356,
                    -0.020720381289720535,
                    -0.023293066769838333
                ],
                [
                    -0.05917861685156822,
                    0.07992194592952728,
                    -0.02136300317943096
                ],
                [
                    -0.029025079682469368,
                    -0.04530727118253708,
                    0.06077336519956589
                ]
            ],
            [
                [
                    0.00954216904938221,
                    -0.07152438908815384,
                    -0.020540742203593254
                ],
                [
                    -0.07250167429447174,
                    0.012787826359272003,
                    -0.08082585036754608
                ],
                [
                    -0.03539711982011795,
                    0.02127540484070778,
                    0.04000239819288254
                ]
            ]
        ],
        [
            [
                [
                    0.03885231539607048,
                    0.039756715297698975,
                    0.02028162218630314
                ],
                [
                    0.04497217386960983,
                    -0.030857767909765244,
                    -0.07269030064344406
                ],
                [
                    -0.0701751634478569,
                    -0.004517239518463612,
                    0.10187804698944092
                ]
            ],
            [
                [
                    0.07142870128154755,
                    -0.02056856080889702,
                    -0.04690340906381607
                ],
                [
                    -0.09779372811317444,
                    0.04105363413691521,
                    0.05298140272498131
                ],
                [
                    -0.09405830502510071,
                    -0.0032483437098562717,
                    -0.03912239149212837
                ]
            ],
            [
                [
                    0.060917045921087265,
                    0.03626466915011406,
                    -0.0548756904900074
                ],
                [
                    -0.06502041965723038,
                    -0.018062807619571686,
                    0.08684951066970825
                ],
                [
                    -0.013119691982865334,
                    0.043940797448158264,
                    -0.0027081749867647886
                ]
            ],
            [
                [
                    0.05597385764122009,
                    0.05624077469110489,
                    0.006559410132467747
                ],
                [
                    -0.03143000975251198,
                    -0.01498034130781889,
                    -0.09059345722198486
                ],
                [
                    0.06079380214214325,
                    0.021380577236413956,
                    -0.052511829882860184
                ]
            ],
            [
                [
                    0.07383641600608826,
                    0.0636628270149231,
                    -0.043625108897686005
                ],
                [
                    -0.0325896181166172,
                    -0.004522250033915043,
                    -0.057949379086494446
                ],
                [
                    -0.09602390229701996,
                    0.07591405510902405,
                    0.0723462849855423
                ]
            ],
            [
                [
                    -0.007196005899459124,
                    0.0016140855150297284,
                    -0.03863447159528732
                ],
                [
                    -0.05235988274216652,
                    -0.06729073822498322,
                    0.049676697701215744
                ],
                [
                    -0.05457919090986252,
                    -0.0856069028377533,
                    0.0758950412273407
                ]
            ],
            [
                [
                    -0.09809384495019913,
                    0.015733134001493454,
                    -0.07583727687597275
                ],
                [
                    0.06814160943031311,
                    -0.033873554319143295,
                    0.04309987276792526
                ],
                [
                    -0.02277020923793316,
                    -0.0336645245552063,
                    0.03474249690771103
                ]
            ],
            [
                [
                    0.02713729999959469,
                    0.03778579831123352,
                    -0.0028001912869513035
                ],
                [
                    0.004504352807998657,
                    -0.019107557833194733,
                    0.019528940320014954
                ],
                [
                    0.02094634622335434,
                    -0.049070633947849274,
                    -0.00813326146453619
                ]
            ],
            [
                [
                    0.06862564384937286,
                    0.05221635475754738,
                    -0.012537522241473198
                ],
                [
                    0.008480237796902657,
                    -0.0015351693145930767,
                    0.0355314165353775
                ],
                [
                    -0.023218534886837006,
                    0.004725757986307144,
                    0.08158775418996811
                ]
            ],
            [
                [
                    -0.06943248212337494,
                    -0.06422802060842514,
                    -0.07236198335886002
                ],
                [
                    -0.0523955412209034,
                    -0.041515614837408066,
                    0.06182726472616196
                ],
                [
                    0.009562256745994091,
                    -0.05621945112943649,
                    0.052814826369285583
                ]
            ],
            [
                [
                    -0.06844359636306763,
                    0.08999408781528473,
                    0.015939941629767418
                ],
                [
                    -0.013224300928413868,
                    0.08490283042192459,
                    0.053106967359781265
                ],
                [
                    0.08526075631380081,
                    -0.07406732439994812,
                    -0.06367651373147964
                ]
            ],
            [
                [
                    0.07160751521587372,
                    0.05895236134529114,
                    0.006047655362635851
                ],
                [
                    -0.06627931445837021,
                    0.07517416775226593,
                    0.0587252713739872
                ],
                [
                    -0.05212831124663353,
                    0.05717155337333679,
                    -0.016642842441797256
                ]
            ],
            [
                [
                    -0.09892343729734421,
                    -0.014604523777961731,
                    -0.02808227576315403
                ],
                [
                    -0.029082853347063065,
                    0.061397209763526917,
                    0.06692518293857574
                ],
                [
                    -0.013732412829995155,
                    -0.007300743833184242,
                    0.01010038796812296
                ]
            ],
            [
                [
                    -0.012554027140140533,
                    -0.013334933668375015,
                    0.06884162127971649
                ],
                [
                    -0.08293318748474121,
                    0.02846320904791355,
                    -0.06911983340978622
                ],
                [
                    0.022787775844335556,
                    0.062094684690237045,
                    0.015811648219823837
                ]
            ],
            [
                [
                    -0.02130166068673134,
                    -0.04479486495256424,
                    0.06808942556381226
                ],
                [
                    0.0682167336344719,
                    -0.05952129513025284,
                    0.048671573400497437
                ],
                [
                    -0.01782333292067051,
                    0.008716156706213951,
                    -0.02901858650147915
                ]
            ],
            [
                [
                    -0.025928523391485214,
                    -0.07053866982460022,
                    -0.10183640569448471
                ],
                [
                    -0.035658348351716995,
                    -0.027850626036524773,
                    -0.05154353007674217
                ],
                [
                    -0.06945201009511948,
                    -0.104286327958107,
                    -0.07946964353322983
                ]
            ]
        ],
        [
            [
                [
                    0.06294829398393631,
                    0.031803060322999954,
                    -0.012037117965519428
                ],
                [
                    -0.0896029993891716,
                    -0.07611589878797531,
                    -0.06971840560436249
                ],
                [
                    0.03958972916007042,
                    -0.057661205530166626,
                    0.04350986331701279
                ]
            ],
            [
                [
                    0.015489950776100159,
                    0.0185860488563776,
                    -0.011327923275530338
                ],
                [
                    -0.0012307516299188137,
                    0.027063364163041115,
                    0.09877549111843109
                ],
                [
                    -0.009943472221493721,
                    -0.012964462861418724,
                    0.01079227589070797
                ]
            ],
            [
                [
                    -0.06446482986211777,
                    0.09408526867628098,
                    -0.009277219884097576
                ],
                [
