{
    "conv1.0.weight": [
        [
            [
                [
                    -0.026786914095282555,
                    0.03975681588053703,
                    0.02216997556388378
                ],
                [
                    0.00605455506592989,
                    0.1405925452709198,
                    0.021659476682543755
                ],
                [
                    0.024618806317448616,
                    0.04677138850092888,
                    -0.015997497364878654
                ]
            ],
            [
                [
                    0.020869681611657143,
                    0.0436333566904068,
                    0.029100066050887108
                ],
                [
                    -0.013085372745990753,
                    -0.03713702782988548,
                    -0.06867966800928116
                ],
                [
                    0.0010230487678200006,
                    -0.004457465372979641,
                    0.029017256572842598
                ]
            ],
            [
                [
                    0.025483887642621994,
                    -0.04928654432296753,
                    -0.18155336380004883
                ],
                [
                    0.0030033208895474672,
                    -0.07685296982526779,
                    -0.0700860247015953
                ],
                [
                    0.05742167308926582,
                    -0.015747735276818275,
                    -0.023873688653111458
                ]
            ],
            [
                [
                    -0.01573210209608078,
                    -0.011745736002922058,
                    0.10756002366542816
                ],
                [
                    0.06641728430986404,
                    0.03830982372164726,
                    0.07840804755687714
                ],
                [
                    -0.14013709127902985,
                    -0.042640767991542816,
                    -0.08632489293813705
                ]
            ],
            [
                [
                    -0.16646380722522736,
                    0.03658070042729378,
                    -0.10276935994625092
                ],
                [
                    -0.057436298578977585,
                    -0.18467581272125244,
                    0.01033164095133543
                ],
                [
                    0.015935517847537994,
                    0.05178564041852951,
                    -0.06645449250936508
                ]
            ],
            [
                [
                    0.012124655768275261,
                    -0.06509033590555191,
                    -0.16028520464897156
                ],
                [
                    -0.06734234094619751,
                    0.08162578195333481,
                    -0.05359506234526634
                ],
                [
                    0.024762330576777458,
                    0.010058105923235416,
                    0.04516695439815521
                ]
            ],
            [
                [
                    0.09952543675899506,
                    -0.09142535924911499,
                    -0.11655489355325699
                ],
                [
                    0.10249748826026917,
                    -0.09143058955669403,
                    -0.08379414677619934
                ],
                [
                    0.0029418610502034426,
                    -0.18290433287620544,
                    -0.06166517734527588
                ]
            ],
            [
                [
                    -0.0022905764635652304,
                    0.07204259186983109,
                    -0.13684453070163727
                ],
                [
                    0.01082141324877739,
                    -0.061841730028390884,
                    0.038146067410707474
                ],
                [
                    0.0791148841381073,
                    -0.06763599067926407,
                    0.016986483708024025
                ]
            ],
            [
                [
                    0.08157531172037125,
                    -0.043939270079135895,
                    -0.217976376414299
                ],
                [
                    0.041156135499477386,
                    0.09542760252952576,
                    0.042385537177324295
                ],
                [
                    -0.011053850874304771,
                    0.07159313559532166,
                    0.043570782989263535
                ]
            ],
            [
                [
                    0.06829023361206055,
                    0.1695714294910431,
                    0.0511852502822876
                ],
                [
                    0.1433909833431244,
                    0.12909293174743652,
                    0.05332895368337631
                ],
                [
                    0.04340803995728493,
                    0.09716828912496567,
                    0.09391292184591293
                ]
            ],
            [
                [
                    -0.014899740926921368,
                    0.06121194362640381,
                    0.025635169818997383
                ],
                [
                    -0.015234190970659256,
                    0.0018068033969029784,
                    0.006466465070843697
                ],
                [
                    -0.0796021968126297,
                    -0.025108708068728447,
                    -0.09579220414161682
                ]
            ],
            [
                [
                    -0.03257543221116066,
                    0.02513323724269867,
                    -0.012946679256856441
                ],
                [
                    -0.03279059752821922,
                    -0.026237880811095238,
                    -0.0460444800555706
                ],
                [
                    -0.03891388326883316,
                    0.04064682871103287,
                    -0.00866028480231762
                ]
            ],
            [
                [
                    -0.07219444215297699,
                    -0.09300899505615234,
                    -0.12122168391942978
                ],
                [
                    0.025909220799803734,
                    -0.045996855944395065,
                    -0.060848433524370193
                ],
                [
                    0.09731197357177734,
                    0.019688373431563377,
                    0.12983295321464539
                ]
            ],
            [
                [
                    0.008820593357086182,
                    -0.09354422241449356,
                    -0.10331916809082031
                ],
                [
                    -0.0431390143930912,
                    -0.010077442042529583,
                    -0.1293543577194214
                ],
                [
                    -0.040739987045526505,
                    0.011494805105030537,
                    0.007226256653666496
                ]
            ],
            [
                [
                    0.018949592486023903,
                    -0.19278590381145477,
                    -0.04063970223069191
                ],
                [
                    -0.2072325497865677,
                    -0.1314409375190735,
                    -0.05175406113266945
                ],
                [
                    -0.12042369693517685,
                    -0.025916121900081635,
                    0.07871491461992264
                ]
            ],
            [
                [
                    0.17446935176849365,
                    0.029815558344125748,
                    0.008076469413936138
                ],
                [
                    0.008499233983457088,
                    -0.09324967861175537,
                    -0.024863243103027344
                ],
                [
                    0.024950388818979263,
                    -0.07222682237625122,
                    0.050882283598184586
                ]
            ],
            [
                [
                    0.01630123145878315,
                    -0.023194724693894386,
                    -0.1253049522638321
                ],
                [
                    0.07091542333364487,
                    -0.017628677189350128,
                    0.029474327340722084
                ],
                [
                    0.0637807697057724,
                    0.0001443194196326658,
                    0.08267930895090103
                ]
            ],
            [
                [
                    -0.016648389399051666,
                    -0.15549908578395844,
                    -0.21539148688316345
                ],
                [
                    -0.09000159054994583,
                    -0.028564520180225372,
                    -0.09659257531166077
                ],
                [
                    0.15500028431415558,
                    0.09909050911664963,
                    0.08427440375089645
                ]
            ],
            [
                [
                    0.052775707095861435,
                    0.004632202442735434,
                    -0.06436406821012497
                ],
                [
                    0.021055426448583603,
                    0.12407618761062622,
                    0.0033366340212523937
                ],
                [
                    0.0854930430650711,
                    0.044523436576128006,
                    0.10657572746276855
                ]
            ],
            [
                [
                    -0.04505225643515587,
                    -0.02846468612551689,
                    -0.09676510095596313
                ],
                [
                    -0.04729152470827103,
                    0.04082543030381203,
                    -0.06376726180315018
                ],
                [
                    -0.003942854702472687,
                    -0.04240695387125015,
                    -0.05556103587150574
                ]
            ],
            [
                [
                    -0.05010925233364105,
                    0.07619424164295197,
                    0.04049249365925789
                ],
                [
                    -0.01991424523293972,
                    0.11418021470308304,
                    -0.0255424827337265
                ],
                [
                    -0.09435320645570755,
                    0.004447618965059519,
                    -0.05308327451348305
                ]
            ],
            [
                [
                    0.07820261269807816,
                    0.10224636644124985,
                    -0.054956816136837006
                ],
                [
                    0.12244188040494919,
                    0.17519833147525787,
                    -0.0507727786898613
                ],
                [
                    0.2627270817756653,
                    0.15683865547180176,
                    0.11624717712402344
                ]
            ],
            [
                [
                    -0.07285438477993011,
                    -0.12788069248199463,
                    -0.13629144430160522
                ],
                [
                    -0.11402546614408493,
                    0.01801121048629284,
                    -0.015695717185735703
                ],
                [
                    0.068965844810009,
                    0.031989265233278275,
                    -0.07940018177032471
                ]
            ],
            [
                [
                    0.007605161517858505,
                    0.015350489877164364,
                    0.025692980736494064
                ],
                [
                    -0.011500606313347816,
                    0.04986823722720146,
                    -0.038435280323028564
                ],
                [
                    -0.014282241463661194,
                    0.03730112314224243,
                    0.008189752697944641
                ]
            ]
        ],
        [
            [
                [
                    -0.08693051338195801,
                    0.04360153153538704,
                    -0.06880443543195724
                ],
                [
                    0.03552072122693062,
                    0.03373594582080841,
                    -0.005514351185411215
                ],
                [
                    -0.09039276093244553,
                    0.058855120092630386,
                    -0.0997595489025116
                ]
            ],
            [
                [
                    -0.04849095642566681,
                    0.05961870402097702,
                    -0.0918872058391571
                ],
                [
                    0.037384819239377975,
                    0.24031785130500793,
                    0.11046407371759415
                ],
                [
                    0.012197036296129227,
                    0.1383211612701416,
                    0.042589373886585236
                ]
            ],
            [
                [
                    -0.07018227875232697,
                    0.08570710569620132,
                    0.003502757055684924
                ],
                [
                    -0.06638440489768982,
                    0.004979648161679506,
                    0.05676160752773285
                ],
                [
                    -0.031214851886034012,
                    0.08831565082073212,
                    0.08472910523414612
                ]
            ],
            [
                [
                    -0.1162436231970787,
                    -0.0862705260515213,
                    0.019043564796447754
                ],
                [
                    0.16769585013389587,
                    0.12249038368463516,
                    0.02962125837802887
                ],
                [
                    -0.10132653266191483,
                    -0.09655053168535233,
                    -0.04397411644458771
                ]
            ],
            [
                [
                    0.07629836350679398,
                    -0.0305778868496418,
                    -0.1368928998708725
                ],
                [
                    -0.028751421719789505,
                    -0.06155009567737579,
                    -0.17123514413833618
                ],
                [
                    0.04706810042262077,
                    -0.04700806736946106,
                    -0.022391119971871376
                ]
            ],
            [
                [
                    -0.001846915576606989,
                    0.01662636175751686,
                    -0.19133777916431427
                ],
                [
                    -0.03770044445991516,
                    -0.08910757303237915,
                    -0.11243847757577896
                ],
                [
                    -0.0737433061003685,
                    0.10152617841959,
                    -0.19335168600082397
                ]
            ],
            [
                [
                    0.047214340418577194,
                    -0.053841687738895416,
                    -0.024179687723517418
                ],
                [
                    0.11029230803251266,
                    -0.148049995303154,
                    -0.0007850268157199025
                ],
                [
                    -0.11851384490728378,
                    -0.016683397814631462,
                    0.05317382887005806
                ]
            ],
            [
                [
                    -0.005989542696624994,
                    0.0034238563384860754,
                    0.06212714686989784
                ],
                [
                    0.02179863303899765,
                    -0.015501727350056171,
                    -0.04453334957361221
                ],
                [
                    0.08324307203292847,
                    -0.04242273047566414,
                    -0.06504008919000626
                ]
            ],
            [
                [
                    0.005712033715099096,
                    0.010524911805987358,
                    0.057461630553007126
                ],
                [
                    -0.12381518632173538,
                    -0.07282814383506775,
                    0.04819519817829132
                ],
                [
                    -0.0796881839632988,
                    0.05958469584584236,
                    0.07512542605400085
                ]
            ],
            [
                [
                    0.015784913673996925,
                    -0.03156384453177452,
                    0.014170361682772636
                ],
                [
                    -0.02120410092175007,
                    -0.03298969939351082,
                    0.012307447381317616
                ],
                [
                    0.03809596970677376,
                    -0.03966499865055084,
                    -0.12652374804019928
                ]
            ],
            [
                [
                    -0.04096665233373642,
                    -0.033762481063604355,
                    0.0387922041118145
                ],
                [
                    -0.02486163005232811,
                    0.06853708624839783,
                    0.010482346639037132
                ],
                [
                    -0.07462913542985916,
                    -0.00209073256701231,
                    0.05321826413273811
                ]
            ],
            [
                [
                    -0.0063677686266601086,
                    -0.011440742760896683,
                    0.032182253897190094
                ],
                [
                    -0.03011510521173477,
                    0.07737995684146881,
                    0.07380958646535873
                ],
                [
                    -0.136933833360672,
                    -0.002512743230909109,
                    -0.03623142093420029
                ]
            ],
            [
                [
                    0.04068608954548836,
                    0.03320145234465599,
                    0.005699070170521736
                ],
                [
                    -0.07394803315401077,
                    -0.09251212328672409,
                    0.017425311729311943
                ],
                [
                    -0.09014765173196793,
                    0.05622958019375801,
                    0.07077033817768097
                ]
            ],
            [
                [
                    0.009846462868154049,
                    0.03207624331116676,
                    -0.016521461308002472
                ],
                [
                    -0.015838665887713432,
                    -0.047358326613903046,
                    0.010012244805693626
                ],
                [
                    0.013819641433656216,
                    0.041658636182546616,
                    0.061788350343704224
                ]
            ],
            [
                [
                    0.017453907057642937,
                    0.021021882072091103,
                    -0.09733427315950394
                ],
                [
                    0.05048130452632904,
                    -0.00403945567086339,
                    0.047422099858522415
                ],
                [
                    0.1556376814842224,
                    0.09312903136014938,
                    0.0688292533159256
                ]
            ],
            [
                [
                    0.2208874672651291,
                    -0.03702854737639427,
                    -0.14472217857837677
                ],
                [
                    0.06295030564069748,
                    -0.0736229345202446,
                    -0.031607870012521744
                ],
                [
                    -0.005397085566073656,
                    0.06053037568926811,
                    0.07839467376470566
                ]
            ],
            [
                [
                    0.14571553468704224,
                    0.07953246682882309,
                    0.08564627915620804
                ],
                [
                    -0.07596537470817566,
                    0.08274879306554794,
                    0.151280015707016
                ],
                [
                    -0.1635717749595642,
                    0.059445369988679886,
                    0.16103485226631165
                ]
            ],
            [
                [
                    -0.04246869683265686,
                    0.02441319078207016,
                    0.011229204945266247
                ],
                [
                    -0.10126817971467972,
                    -0.018366102129220963,
                    -0.11791680008172989
                ],
                [
                    -0.009492341428995132,
                    0.0637250542640686,
                    0.059950362890958786
                ]
            ],
            [
                [
                    0.09539901465177536,
                    -0.002210938837379217,
                    -0.04046474024653435
                ],
                [
                    0.018082518130540848,
                    -0.008183259516954422,
                    0.00032777691376395524
                ],
                [
                    -0.051612865179777145,
                    0.13677676022052765,
                    0.1627906858921051
                ]
            ],
            [
                [
                    -0.018765006214380264,
                    0.03790934756398201,
                    -0.15283749997615814
                ],
                [
                    0.0018021134892478585,
                    0.02347521111369133,
                    -0.14631213247776031
                ],
                [
                    -0.016364697366952896,
                    0.10925368964672089,
                    -0.015084673650562763
                ]
            ],
            [
                [
                    -0.01948711834847927,
                    0.020078260451555252,
                    -0.0860033705830574
                ],
                [
                    0.06531473249197006,
                    0.09365083277225494,
                    -0.05465954542160034
                ],
                [
                    0.036329932510852814,
                    -0.017322856932878494,
                    -0.024236569181084633
                ]
            ],
            [
                [
                    0.12189100682735443,
                    -0.03548289090394974,
                    -0.1281564086675644
                ],
                [
                    -0.08127401769161224,
                    0.007146262563765049,
                    -0.013303445652127266
                ],
                [
                    -0.164528951048851,
                    -0.09473277628421783,
                    0.0099024074152112
                ]
            ],
            [
                [
                    -0.07975718379020691,
                    0.03209613636136055,
                    -0.038225192576646805
                ],
                [
                    0.022259226068854332,
                    -0.015249996446073055,
                    -0.1059146374464035
                ],
                [
                    -0.030499499291181564,
                    0.005190741736441851,
                    -0.10043073445558548
                ]
            ],
            [
                [
                    0.034642163664102554,
                    -0.019098689779639244,
                    -0.044459667056798935
                ],
                [
                    -0.05057375505566597,
                    0.04217042401432991,
                    0.002767409896478057
                ],
                [
                    -0.028188254684209824,
                    -0.04120519757270813,
                    0.024223674088716507
                ]
            ]
        ],
        [
            [
                [
                    0.054185062646865845,
                    -0.014225820079445839,
                    0.026168139651417732
                ],
                [
                    0.03341011330485344,
                    0.008973952382802963,
                    -0.015424218028783798
                ],
                [
                    0.03942570090293884,
                    0.05260080844163895,
                    -0.02655217796564102
                ]
            ],
            [
                [
                    0.058571707457304,
                    -0.020724007859826088,
                    -0.0340387336909771
                ],
                [
                    -0.011511646211147308,
                    -0.05688389390707016,
                    0.03855282440781593
                ],
                [
                    -0.02105582132935524,
                    0.03994113579392433,
                    -0.014234384521842003
                ]
            ],
            [
                [
                    -0.05387668311595917,
                    0.011867569759488106,
                    -0.025650538504123688
                ],
                [
                    0.03953646495938301,
                    -0.023967957124114037,
                    -0.017864158377051353
                ],
                [
                    0.04074934870004654,
                    0.05179921165108681,
                    -0.011675327084958553
                ]
            ],
            [
                [
                    -0.04261746630072594,
                    -0.02401980571448803,
                    -0.01764552667737007
                ],
                [
                    -0.09818930923938751,
                    -0.10410306602716446,
                    -0.03558531776070595
                ],
                [
                    0.01670701801776886,
                    -0.09150702506303787,
                    0.030210381373763084
                ]
            ],
            [
                [
                    0.013022729195654392,
                    0.08810137212276459,
                    0.041900385171175
                ],
                [
                    0.0855439305305481,
                    0.061844829469919205,
                    -0.018557416275143623
                ],
                [
                    0.009011178277432919,
                    0.0012896822299808264,
                    -0.013761093840003014
                ]
            ],
            [
                [
                    0.050542645156383514,
                    0.024373788386583328,
                    -0.05191022902727127
                ],
                [
                    -0.004005094524472952,
                    -0.025491857901215553,
                    -0.031317681074142456
                ],
                [
                    -0.028013603761792183,
                    0.023724891245365143,
                    -0.04517154023051262
                ]
            ],
            [
                [
                    -0.044248562306165695,
                    0.029948189854621887,
                    0.015766091644763947
                ],
                [
                    0.07052700966596603,
                    0.05970575660467148,
                    0.019901661202311516
                ],
                [
                    0.004103382583707571,
                    -0.0157637856900692,
                    -0.0307199414819479
                ]
            ],
            [
                [
                    0.009595547802746296,
                    -0.02305128425359726,
                    0.004492034204304218
                ],
                [
                    -0.009266285225749016,
                    -0.18188856542110443,
                    0.03608974441885948
                ],
                [
                    -0.03785725682973862,
                    -0.00227636331692338,
                    0.003692659316584468
                ]
            ],
            [
                [
                    0.1436908096075058,
                    -0.259893536567688,
                    0.10242529958486557
                ],
                [
                    -0.33766061067581177,
                    -1.1919811964035034,
                    0.003292297013103962
                ],
                [
                    0.029612747952342033,
                    -0.32134637236595154,
                    0.09326208382844925
                ]
            ],
            [
                [
                    -0.011876286938786507,
                    -0.08350232988595963,
                    -0.04692591354250908
                ],
                [
                    -0.010561571456491947,
                    0.012627971358597279,
                    -0.06513713300228119
                ],
                [
                    -0.07574525475502014,
                    -0.03566669672727585,
                    0.0008828826248645782
                ]
            ],
            [
                [
                    0.06931500136852264,
                    0.06039443984627724,
                    -0.003781956620514393
                ],
                [
                    -0.032237790524959564,
                    0.024680761620402336,
                    0.04680485650897026
                ],
                [
                    0.0045751058496534824,
                    0.02803797461092472,
                    -0.027730725705623627
                ]
            ],
            [
                [
                    0.027731921523809433,
                    -0.027703631669282913,
                    -0.05759742483496666
                ],
                [
                    0.024172084406018257,
                    -0.04573105275630951,
                    0.030170172452926636
                ],
                [
                    0.051842909306287766,
                    0.03638782352209091,
                    0.05813644826412201
                ]
            ],
            [
                [
                    -0.013800771906971931,
                    -0.02339961752295494,
                    0.002003865083679557
                ],
                [
                    0.015057562850415707,
                    0.011287741363048553,
                    0.02150481939315796
                ],
                [
                    0.024035733193159103,
                    -0.012645607814192772,
                    -0.019973458722233772
                ]
            ],
            [
                [
                    -0.10621611773967743,
                    -0.014204227365553379,
                    -0.03243179991841316
                ],
                [
                    0.006229753140360117,
                    0.020253736525774002,
                    0.026190800592303276
                ],
                [
                    -0.06739523261785507,
                    -0.018256571143865585,
                    -0.057971417903900146
                ]
            ],
            [
                [
                    0.058928925544023514,
                    0.07699993997812271,
                    0.12761779129505157
                ],
                [
                    0.05618380755186081,
                    0.06322699785232544,
                    0.05036762356758118
                ],
                [
                    0.044540468603372574,
                    0.1072649359703064,
                    0.09087877720594406
                ]
            ],
            [
                [
                    -0.005302561912685633,
                    -0.015605822205543518,
                    0.022487295791506767
                ],
                [
                    -0.025791939347982407,
                    -0.06267703324556351,
                    -0.02285473234951496
                ],
                [
                    0.03736324980854988,
                    -0.03912675380706787,
                    -0.06723608076572418
                ]
            ],
            [
                [
                    -0.07008568197488785,
                    -0.23051181435585022,
                    -0.12619592249393463
                ],
                [
                    -0.06525202840566635,
                    -0.12169069796800613,
                    -0.040817707777023315
                ],
                [
                    -0.03314200043678284,
                    -0.014561673626303673,
                    -0.06087198108434677
                ]
            ],
            [
                [
                    -0.06302855163812637,
                    0.005474526435136795,
                    -0.1282958686351776
                ],
                [
                    -0.013707458041608334,
                    -0.08995726704597473,
                    -0.18115687370300293
                ],
                [
                    0.03929215297102928,
                    0.08555645495653152,
                    -0.05571261793375015
                ]
            ],
            [
                [
                    0.09301162511110306,
                    -0.020571300759911537,
                    0.07861572504043579
                ],
                [
                    -0.01841876469552517,
                    -0.17330791056156158,
                    0.008791244588792324
                ],
                [
                    0.01146955881267786,
                    -0.02656930312514305,
                    -0.0935395210981369
                ]
            ],
            [
                [
                    0.11118099838495255,
                    -0.02755783684551716,
                    -0.019751060754060745
                ],
                [
                    -0.17200712859630585,
                    -0.20098841190338135,
                    -0.06131524592638016
                ],
                [
                    -0.16458387672901154,
                    -0.07445049285888672,
                    0.0735241249203682
                ]
            ],
            [
                [
                    -0.030652910470962524,
                    0.07768204808235168,
                    0.10043124854564667
                ],
                [
                    -0.04311085119843483,
                    0.012129157781600952,
                    0.09545747190713882
                ],
                [
                    -0.007898546755313873,
                    -0.01825536973774433,
                    0.006376335397362709
                ]
            ],
            [
                [
                    -0.049179866909980774,
                    -0.015339890494942665,
                    0.0032367506064474583
                ],
                [
                    -0.12432576715946198,
                    -0.12398198246955872,
                    -0.02159813605248928
                ],
                [
                    0.017071858048439026,
                    -0.024981049820780754,
                    0.016391806304454803
                ]
            ],
            [
                [
                    -0.10474862903356552,
                    -0.017871251329779625,
                    -0.01339708548039198
                ],
                [
                    -0.04111558943986893,
                    -0.08088450133800507,
                    -0.10006070882081985
                ],
                [
                    -0.03372800350189209,
                    0.037186119705438614,
                    0.13873393833637238
                ]
            ],
            [
                [
                    0.030979514122009277,
                    0.008900475688278675,
                    0.04043497145175934
                ],
                [
                    -0.04143521934747696,
                    -0.030765116214752197,
                    0.0453391894698143
                ],
                [
                    -0.044234659522771835,
                    0.03999396041035652,
                    0.004549853038042784
                ]
            ]
        ],
        [
            [
                [
                    0.03635578602552414,
                    -0.013012886047363281,
                    0.04045499488711357
                ],
                [
                    0.0009760790271684527,
                    -0.013043349608778954,
                    -0.032956626266241074
                ],
                [
                    -0.0930604338645935,
                    0.010146116837859154,
                    0.02891547977924347
                ]
            ],
            [
                [
                    -0.0024689175188541412,
                    -0.04749852791428566,
                    -0.01513445284217596
                ],
                [
                    0.01274873223155737,
                    0.0462297648191452,
                    0.02169615775346756
                ],
                [
                    -0.055758241564035416,
                    0.006015765480697155,
                    -0.012844624929130077
                ]
            ],
            [
                [
                    0.015294854529201984,
                    -0.012676180340349674,
                    0.04745248705148697
                ],
                [
                    0.018654095008969307,
                    0.01460166648030281,
                    0.008295506238937378
                ],
                [
                    -0.08241789042949677,
                    -0.043609652668237686,
                    0.061617590487003326
                ]
            ],
            [
                [
                    0.011182283982634544,
                    0.06720282882452011,
                    0.053463879972696304
                ],
                [
                    -0.04098230600357056,
                    0.0896017774939537,
                    -0.005340861156582832
                ],
                [
                    0.058906592428684235,
                    0.010598700493574142,
                    -0.09253166615962982
                ]
            ],
            [
                [
                    -0.03377119079232216,
                    -0.021073509007692337,
                    -0.01207559835165739
                ],
                [
                    0.020731771364808083,
                    -0.012598893605172634,
                    0.028084246441721916
                ],
                [
                    -0.009625475853681564,
                    -0.004772977437824011,
                    -0.004545819945633411
                ]
            ],
            [
                [
                    0.002218962647020817,
                    -0.04919244349002838,
                    -0.12943457067012787
                ],
                [
                    -0.05642441660165787,
                    -0.08195923268795013,
                    -0.0020105435978621244
                ],
                [
                    -0.05057530477643013,
                    -0.06431546807289124,
                    -0.12128502875566483
                ]
            ],
            [
                [
                    -0.07044226676225662,
                    0.07692433148622513,
                    0.014957200735807419
                ],
                [
                    -0.044292714446783066,
                    0.0016561608063057065,
                    -0.05439246445894241
                ],
                [
                    -0.09087710082530975,
                    0.0067057679407298565,
                    -0.1634175032377243
                ]
            ],
            [
                [
                    0.004772384185343981,
                    -0.35868388414382935,
                    -0.20594307780265808
                ],
                [
                    -0.030652839690446854,
                    -0.13476836681365967,
                    -0.026159165427088737
                ],
                [
                    0.0741271823644638,
                    0.01705436035990715,
                    0.1070418730378151
                ]
            ],
            [
                [
                    0.02259674109518528,
                    0.08197679370641708,
                    0.057567961513996124
                ],
                [
                    -0.02196061797440052,
                    0.008224972523748875,
                    -0.09356202185153961
                ],
                [
                    -0.012787090614438057,
                    -0.13167817890644073,
                    -0.1472538709640503
                ]
            ],
            [
                [
                    -0.03623970225453377,
                    -0.3086790442466736,
                    -0.09167073667049408
                ],
                [
                    0.020294442772865295,
                    -0.17395101487636566,
                    -0.14997117221355438
                ],
                [
                    0.08127236366271973,
                    0.04825735092163086,
                    -0.004209849983453751
                ]
            ],
            [
                [
                    -0.05229176953434944,
                    0.01984260231256485,
                    0.049954090267419815
                ],
                [
                    0.04386221244931221,
                    -0.07289022952318192,
                    -0.12620873749256134
                ],
                [
                    0.08482715487480164,
                    -0.018833748996257782,
                    0.06679558753967285
                ]
            ],
            [
                [
                    -0.010454969480633736,
                    -0.015073050744831562,
                    0.04261630028486252
                ],
                [
                    -0.07118293642997742,
                    0.02769516594707966,
                    0.050289981067180634
                ],
                [
                    -0.05026538297533989,
                    -0.02572791464626789,
                    0.025367457419633865
                ]
            ],
            [
                [
                    -0.03326741233468056,
                    -0.0676225870847702,
                    -0.025868592783808708
                ],
                [
                    0.003315606387332082,
                    -0.020054616034030914,
                    0.019998716190457344
                ],
                [
                    0.03646250441670418,
                    0.011683608405292034,
                    0.05541888251900673
                ]
            ],
            [
                [
                    -0.039524294435977936,
                    0.029479559510946274,
                    0.09063506126403809
                ],
                [
                    -0.03200949728488922,
                    0.08505131304264069,
                    0.10893341153860092
                ],
                [
                    0.12814459204673767,
                    0.019705880433321,
                    -0.002806356642395258
                ]
            ],
            [
                [
                    -0.05553809553384781,
                    -0.03707023337483406,
                    -0.17828087508678436
                ],
                [
                    -0.11231990903615952,
                    -0.03422216698527336,
                    -0.20479035377502441
                ],
                [
                    -0.042266134172677994,
                    -0.18942971527576447,
                    -0.14656899869441986
                ]
            ],
            [
                [
                    0.04281223937869072,
                    0.02776564098894596,
                    0.046431124210357666
                ],
                [
                    0.008878258988261223,
                    -0.04687296599149704,
                    -0.01797384023666382
                ],
                [
                    0.1324034184217453,
                    -0.01961582712829113,
                    -0.09062168747186661
                ]
            ],
            [
                [
                    -0.25115782022476196,
                    0.023295529186725616,
                    -0.20074908435344696
                ],
                [
                    0.056832876056432724,
                    0.08655621856451035,
                    -0.06147073581814766
                ],
                [
                    0.06999607384204865,
                    0.02989956922829151,
                    0.11524507403373718
                ]
            ],
            [
                [
                    0.08773475885391235,
                    0.1545017659664154,
                    0.10745896399021149
                ],
                [
                    0.07687801867723465,
                    0.03740224242210388,
                    0.14348825812339783
                ],
                [
                    0.20409131050109863,
                    0.0884830430150032,
                    0.09211640059947968
                ]
            ],
            [
                [
                    0.02596789225935936,
                    0.1156262457370758,
                    0.005698357243090868
                ],
                [
                    0.004906580783426762,
                    -0.012235683389008045,
                    -0.036829717457294464
                ],
                [
                    -0.03081820346415043,
                    -0.08709170669317245,
                    0.05867890641093254
                ]
            ],
            [
                [
                    -0.006041287910193205,
                    0.08336500078439713,
                    -0.04951539635658264
                ],
                [
                    -0.031090470030903816,
                    0.028842486441135406,
                    -0.03207073733210564
                ],
                [
                    0.01961025781929493,
                    -0.07184196263551712,
                    0.0269530788064003
                ]
            ],
            [
                [
                    0.015744991600513458,
                    0.03094577044248581,
                    -0.03827490657567978
                ],
                [
                    -0.00431783776730299,
                    0.022726530209183693,
                    0.050085972994565964
                ],
                [
                    -0.007232253905385733,
                    0.05795685946941376,
                    0.0020988215692341328
                ]
            ],
            [
                [
                    0.04918743669986725,
                    -0.023737484589219093,
                    -0.1890898048877716
                ],
                [
                    -0.09902205318212509,
                    -0.07250279933214188,
                    -0.004188197664916515
                ],
                [
                    0.07298267632722855,
                    0.04821329563856125,
                    0.19655540585517883
                ]
            ],
            [
                [
                    -0.13244350254535675,
                    0.005826402455568314,
                    0.003234168980270624
                ],
                [
                    0.028035104274749756,
                    0.04170755296945572,
                    0.09582102298736572
                ],
                [
                    0.018042223528027534,
                    0.046222589910030365,
                    0.19673891365528107
                ]
            ],
            [
                [
                    0.013537325896322727,
                    0.013517795130610466,
                    0.021134858950972557
                ],
                [
                    0.027175961062312126,
                    0.04583020135760307,
                    0.05113867297768593
                ],
                [
                    0.00619215052574873,
                    0.020823772996664047,
                    0.05549347400665283
                ]
            ]
        ],
        [
            [
                [
                    -0.03240513056516647,
                    -0.04276539757847786,
                    0.06874272972345352
                ],
                [
                    0.024625899270176888,
                    -0.09585119783878326,
                    0.06229781359434128
                ],
                [
                    -0.047844212502241135,
                    -0.05985475331544876,
                    -0.014978690072894096
                ]
            ],
            [
                [
                    0.02065611444413662,
                    -0.04704912751913071,
                    -0.09848839044570923
                ],
                [
                    -0.053144291043281555,
                    -0.08221900463104248,
                    -0.11171037703752518
                ],
                [
                    -0.014948525466024876,
                    0.0512896366417408,
                    -0.010417647659778595
                ]
            ],
            [
                [
                    0.050241123884916306,
                    -0.047169383615255356,
                    -0.04663554206490517
                ],
                [
                    -0.020702650770545006,
                    -0.02994578145444393,
                    -0.0670105367898941
                ],
                [
                    0.0513748973608017,
                    -0.056887999176979065,
                    -0.022067654877901077
                ]
            ],
            [
                [
                    -0.028833327814936638,
                    0.01922157034277916,
                    -0.05179005488753319
                ],
                [
                    0.021575862541794777,
                    0.02886916883289814,
                    0.15604311227798462
                ],
                [
                    0.002366835717111826,
                    0.11320722848176956,
                    -0.14961214363574982
                ]
            ],
            [
                [
                    0.022127296775579453,
                    0.04086407646536827,
                    0.0011179890716448426
                ],
                [
                    -0.039711158722639084,
                    -0.13214342296123505,
                    0.08159279078245163
                ],
                [
                    -0.16987331211566925,
                    0.022121427580714226,
                    0.1331809014081955
                ]
            ],
            [
                [
                    -0.012876906432211399,
                    -0.028497891500592232,
                    0.09448637068271637
                ],
                [
                    -0.09539607167243958,
                    0.013961324468255043,
                    -0.11391852051019669
                ],
                [
                    -0.00723127881065011,
                    -0.10632508248090744,
                    0.09091135114431381
                ]
            ],
            [
                [
                    0.06577727198600769,
                    0.04280363395810127,
                    -0.05909651145339012
                ],
                [
                    0.054968081414699554,
                    -0.06833406537771225,
                    -0.03921780362725258
                ],
                [
                    0.1848696768283844,
                    0.00030086320475675166,
                    0.1023036316037178
                ]
            ],
            [
                [
                    -0.007222766522318125,
                    0.10278093069791794,
                    -0.07450079172849655
                ],
                [
                    -0.08853636682033539,
                    -0.005148772615939379,
                    0.012239467352628708
                ],
                [
                    -0.008748850785195827,
                    0.05019830912351608,
                    -0.010220744647085667
                ]
            ],
            [
                [
                    0.018594278022646904,
                    -0.040166765451431274,
                    -0.24182963371276855
                ],
                [
                    -0.006110123358666897,
                    -0.0002738166367635131,
                    -0.06423694640398026
                ],
                [
                    0.04933514818549156,
                    -0.06730549037456512,
                    -0.09720760583877563
                ]
            ],
            [
                [
                    0.022519968450069427,
                    0.011290144175291061,
                    -0.033747442066669464
                ],
                [
                    0.029696999117732048,
                    0.05137147381901741,
                    -0.03986753895878792
                ],
                [
                    -0.19022709131240845,
                    -0.05300500616431236,
                    -0.02835794724524021
                ]
            ],
            [
                [
                    0.055566005408763885,
                    0.03085184097290039,
                    0.0009344216668978333
                ],
                [
                    0.08341822028160095,
                    -0.04146287590265274,
                    -0.013443325646221638
                ],
                [
                    -0.01452355645596981,
                    -0.05333520844578743,
                    0.07042035460472107
                ]
            ],
            [
                [
                    0.05686730891466141,
                    0.035844992846250534,
                    -0.010921820998191833
                ],
                [
                    0.034037958830595016,
                    -0.01739002950489521,
                    0.025027530267834663
                ],
                [
                    0.07020417600870132,
                    -0.046764638274908066,
                    -0.07606615126132965
                ]
            ],
            [
                [
                    0.15337155759334564,
                    0.07282408326864243,
                    -0.07530348747968674
                ],
                [
                    0.11939708143472672,
                    -0.06991850584745407,
                    -0.09375951439142227
                ],
                [
                    0.09417751431465149,
                    0.03749862685799599,
                    -0.08786159753799438
                ]
            ],
            [
                [
                    -0.0019903245847672224,
                    -0.000859315216075629,
                    0.008220992051064968
                ],
                [
                    -0.028577914461493492,
                    0.0315140075981617,
                    -0.1119617149233818
                ],
                [
                    -0.07572722434997559,
                    0.08508095890283585,
                    -0.10197555273771286
                ]
            ],
            [
                [
                    -0.07888367772102356,
                    -0.14459148049354553,
                    -0.0313614122569561
                ],
                [
                    0.07124221324920654,
                    -0.07172100991010666,
                    -0.1530262976884842
                ],
                [
                    0.05593332648277283,
                    0.0073887621983885765,
                    -0.09043789654970169
                ]
            ],
            [
                [
                    0.06339475512504578,
                    0.05665960907936096,
                    0.0327431745827198
                ],
                [
                    0.021656459197402,
                    -0.08118145912885666,
                    -0.06473331898450851
                ],
                [
                    0.02590201422572136,
                    -0.08426007628440857,
                    0.05502377822995186
                ]
            ],
            [
                [
                    0.1701173335313797,
                    -0.08025798946619034,
                    -0.2587206959724426
                ],
                [
                    0.19561094045639038,
                    0.025665011256933212,
                    -0.23230978846549988
                ],
                [
                    0.2654310166835785,
                    0.07762656360864639,
                    -0.029242750257253647
                ]
            ],
            [
                [
                    0.053404081612825394,
                    0.003468874143436551,
                    0.08480646461248398
                ],
                [
                    0.08662945032119751,
                    -0.08824791014194489,
                    -0.06995653361082077
                ],
                [
                    0.2527213394641876,
                    -0.046642713248729706,
                    -0.1302178055047989
                ]
            ],
            [
                [
                    0.15014399588108063,
                    -0.01384932640939951,
                    -0.0632454976439476
                ],
                [
                    0.0309995599091053,
                    0.020451778545975685,
                    -0.14865830540657043
                ],
                [
                    0.22339105606079102,
                    0.0051170275546610355,
                    0.0221966914832592
                ]
            ],
            [
                [
                    0.10920752584934235,
                    0.030478671193122864,
                    -0.024019964039325714
                ],
                [
                    0.032281726598739624,
                    -0.05304815620183945,
                    -0.011529389768838882
                ],
                [
                    0.06570255756378174,
                    0.049515411257743835,
                    0.06373650580644608
                ]
            ],
            [
                [
                    -0.04674171283841133,
                    -0.02663544751703739,
                    -0.046121206134557724
                ],
                [
                    -0.029388774186372757,
                    0.00011653803812805563,
                    0.020366890355944633
                ],
                [
                    -0.012630028650164604,
                    0.024883536621928215,
                    -0.0245523564517498
                ]
            ],
            [
                [
                    0.1331130862236023,
                    0.06223587319254875,
                    -0.032654911279678345
                ],
                [
                    0.13586461544036865,
                    0.08678605407476425,
                    -0.09413036704063416
                ],
                [
                    0.07015807926654816,
                    -0.041986722499132156,
                    -0.04810776934027672
                ]
            ],
            [
                [
                    -0.07649322599172592,
                    -0.11202294379472733,
                    -0.14426124095916748
                ],
                [
                    0.03129525110125542,
                    -0.0465213842689991,
                    0.03675795719027519
                ],
                [
                    0.057634856551885605,
                    0.02041425183415413,
                    0.1449015736579895
                ]
            ],
            [
                [
                    -0.00694379024207592,
                    -0.012854116968810558,
                    -0.049155376851558685
                ],
                [
                    -0.040308043360710144,
                    0.01398744061589241,
                    0.0025289093609899282
                ],
                [
                    -0.04684874042868614,
                    0.050874512642621994,
                    -0.0475977398455143
                ]
            ]
        ],
        [
            [
                [
                    0.02405981905758381,
                    0.040047064423561096,
                    -0.0066153923980891705
                ],
                [
                    0.008504300378262997,
                    0.06040765717625618,
                    0.039232779294252396
                ],
                [
                    0.09035040438175201,
                    0.07964051514863968,
                    -0.022255243733525276
                ]
            ],
            [
                [
                    0.04582807049155235,
                    -0.020514564588665962,
                    0.0009276053751818836
                ],
                [
                    0.016039421781897545,
                    0.056888509541749954,
                    0.002283697249367833
                ],
                [
                    -0.06181914359331131,
                    -0.04984164610505104,
                    -2.88378942059353e-05
                ]
            ],
            [
                [
                    0.04452105984091759,
                    0.03019534982740879,
                    -0.013857829384505749
                ],
                [
                    -0.016911551356315613,
                    -0.05865059792995453,
                    0.012563525699079037
                ],
                [
                    0.07808049768209457,
                    0.0437379851937294,
                    -0.047584790736436844
                ]
            ],
            [
                [
                    -0.08926237374544144,
                    -0.04317999631166458,
                    0.06171281635761261
                ],
                [
                    -0.04043029993772507,
                    -0.05184599384665489,
                    0.015505843795835972
                ],
                [
                    0.052975285798311234,
                    -0.04148557037115097,
                    0.023615064099431038
                ]
            ],
            [
                [
                    -0.0351807065308094,
                    0.15794086456298828,
                    -0.015441559255123138
                ],
                [
                    -0.058127835392951965,
                    -0.033477965742349625,
                    -0.14361567795276642
                ],
                [
                    -0.003478506812825799,
                    0.01499661523848772,
                    -0.056979283690452576
                ]
            ],
            [
                [
                    -0.03055359236896038,
                    -0.010380582883954048,
                    -0.09642399847507477
                ],
                [
                    0.0011241321917623281,
                    0.08705536276102066,
                    -0.000582592561841011
                ],
                [
                    -0.10170042514801025,
                    0.015364518389105797,
                    0.03475535660982132
                ]
            ],
            [
                [
                    -0.01734633557498455,
                    0.02513553574681282,
                    0.1076422706246376
                ],
                [
                    0.06651239842176437,
                    -0.047852206975221634,
                    -0.023465227335691452
                ],
                [
                    -0.025759432464838028,
                    -0.033460553735494614,
                    -0.09397625923156738
                ]
            ],
            [
                [
                    0.02413134276866913,
                    0.08650023490190506,
                    0.036903344094753265
                ],
                [
                    -0.007198297418653965,
                    0.00935104489326477,
                    0.026970569044351578
                ],
                [
                    -0.053648337721824646,
                    -0.05457628145813942,
                    0.057618238031864166
                ]
            ],
            [
                [
                    -0.061562757939100266,
                    -0.1217125952243805,
                    -0.03550141304731369
                ],
                [
                    0.06321988999843597,
                    -0.14875584840774536,
                    0.025697240605950356
                ],
                [
                    0.031969234347343445,
                    -0.07716988772153854,
                    0.030601657927036285
                ]
            ],
            [
                [
                    0.04554314166307449,
                    0.10306110233068466,
                    0.0023626985494047403
                ],
                [
                    0.03910122811794281,
                    0.06527478992938995,
                    -0.0037102282512933016
                ],
                [
                    -0.13921484351158142,
                    -0.08822229504585266,
                    0.03693057596683502
                ]
            ],
            [
                [
                    -0.04138161242008209,
                    0.07806631177663803,
                    0.04611021280288696
                ],
                [
                    -0.10598786920309067,
                    0.03490811586380005,
                    0.032357193529605865
                ],
                [
                    0.014305172488093376,
                    0.017845135182142258,
                    -0.06870996206998825
                ]
            ],
            [
                [
                    -0.014909284189343452,
                    0.016915766522288322,
                    -0.0061829364858567715
                ],
                [
                    -0.025752762332558632,
                    0.03961991146206856,
                    -0.01483138371258974
                ],
                [
                    0.021007776260375977,
                    -0.02775299735367298,
                    -0.02594161592423916
                ]
            ],
            [
                [
                    -0.09130033850669861,
                    -0.013658869080245495,
                    -0.007134292274713516
                ],
                [
                    -0.012780629098415375,
                    -0.08176325261592865,
                    -0.03791414573788643
                ],
                [
                    0.09258786588907242,
                    0.027503931894898415,
                    -0.18711264431476593
                ]
            ],
            [
                [
                    -0.07560928910970688,
                    -0.06736880540847778,
                    0.14241789281368256
                ],
                [
                    0.010578371584415436,
                    -0.07896965742111206,
                    -0.012792075984179974
                ],
                [
                    0.08026562631130219,
                    0.03837614133954048,
                    0.03210771083831787
                ]
            ],
            [
                [
                    -0.06648159772157669,
                    -0.05879485607147217,
                    0.0748218223452568
                ],
                [
                    0.03333878517150879,
                    0.049910519272089005,
                    0.09442757815122604
                ],
                [
                    0.14068804681301117,
                    -0.002591088181361556,
                    -0.03416098654270172
                ]
            ],
            [
                [
                    -0.054810646921396255,
                    0.01831492781639099,
                    -0.015207652933895588
                ],
                [
                    0.08386261016130447,
                    0.1546943485736847,
                    0.004883347544819117
                ],
                [
                    0.04860508441925049,
                    0.02675873041152954,
                    -0.05067618936300278
                ]
            ],
            [
                [
                    0.02969585731625557,
                    0.23593157529830933,
                    0.2989838719367981
                ],
                [
                    0.19676773250102997,
                    0.18036200106143951,
                    0.19938255846500397
                ],
                [
                    0.38164404034614563,
                    0.27604103088378906,
                    0.06762692332267761
                ]
            ],
            [
                [
                    0.34226638078689575,
                    0.23473672568798065,
                    0.32409170269966125
                ],
                [
                    0.314693421125412,
                    0.06589769572019577,
                    0.18279242515563965
                ],
                [
                    0.43611016869544983,
                    0.2536730170249939,
                    0.2038547545671463
                ]
            ],
            [
                [
                    0.012246686033904552,
                    -0.057112887501716614,
                    -0.018428010866045952
                ],
                [
                    0.12062246352434158,
                    -0.0653277263045311,
                    0.07581799477338791
                ],
                [
                    0.11022499948740005,
                    -0.016364187002182007,
                    0.027056273072957993
                ]
            ],
            [
                [
                    -0.11156494915485382,
                    -0.1316707581281662,
                    -0.07879835367202759
                ],
                [
                    0.022453416138887405,
                    0.024835553020238876,
                    0.0404798649251461
                ],
                [
                    0.011693449690937996,
                    0.03818055987358093,
                    0.007853532209992409
                ]
            ],
            [
                [
                    0.08794178068637848,
                    0.07142747193574905,
                    -0.046060241758823395
                ],
                [
                    -0.0039012182969599962,
                    -0.025632930919528008,
                    -0.019190896302461624
                ],
                [
                    -0.016010381281375885,
                    -0.01294336561113596,
                    0.0002974208036903292
                ]
            ],
            [
                [
                    0.06048786640167236,
                    -0.10505054891109467,
                    -0.0035660581197589636
                ],
                [
                    0.06770743429660797,
                    0.04286783188581467,
                    0.01865050196647644
                ],
                [
                    0.06699633598327637,
                    0.023961659520864487,
                    0.02615000121295452
                ]
            ],
            [
                [
                    -0.09442880749702454,
                    -0.08720990270376205,
                    -0.1344178020954132
                ],
                [
                    -0.046860791742801666,
                    -0.034465182572603226,
                    0.09736614674329758
                ],
                [
                    0.05213654041290283,
                    -0.004823402967303991,
                    0.016654938459396362
                ]
            ],
            [
                [
                    0.051194168627262115,
                    -0.01361821498721838,
                    0.013282419182360172
                ],
                [
                    -0.05293518677353859,
                    -0.04115991294384003,
                    0.0407947413623333
                ],
                [
                    0.03440092131495476,
                    -0.0544498972594738,
                    0.041883159428834915
                ]
            ]
        ],
        [
            [
                [
                    -0.06887651979923248,
                    -0.017854008823633194,
                    0.06622408330440521
                ],
                [
                    -0.02710357867181301,
                    -0.02966163493692875,
                    -0.01525359507650137
                ],
                [
                    0.0010072124423459172,
                    -0.04018254950642586,
                    -0.02937629632651806
                ]
            ],
            [
                [
                    0.010112453252077103,
                    0.026228176429867744,
                    -0.01693752221763134
                ],
                [
                    -0.0079656932502985,
                    0.03754569962620735,
                    -0.03462821990251541
                ],
                [
                    0.0022273296490311623,
                    -0.0456625297665596,
                    -0.0632670447230339
                ]
            ],
            [
                [
                    -0.08159858733415604,
                    -0.02885090373456478,
                    -0.006794008892029524
                ],
                [
                    0.006748401094228029,
                    0.02864716574549675,
                    0.035116132348775864
                ],
                [
                    0.04204505309462547,
                    0.08330851048231125,
                    -0.049894146621227264
                ]
            ],
            [
                [
                    -0.10318408906459808,
                    0.07865599542856216,
                    -0.03232543170452118
                ],
                [
                    -0.006423167884349823,
                    0.12877137959003448,
                    -0.18302953243255615
                ],
                [
                    -0.20082317292690277,
                    -0.024882718920707703,
                    0.03026716783642769
                ]
            ],
            [
                [
                    0.06796828657388687,
                    -0.14617908000946045,
                    0.017744412645697594
                ],
                [
                    -0.013347253203392029,
                    -0.10487104207277298,
                    0.14873845875263214
                ],
                [
                    0.11580464243888855,
                    0.07763528823852539,
                    0.04405290633440018
                ]
            ],
            [
                [
                    -0.07577510178089142,
                    0.03197300061583519,
                    -0.055652499198913574
                ],
                [
                    -0.019398871809244156,
                    -0.06735678762197495,
                    0.1079314798116684
                ],
                [
                    0.033852241933345795,
                    0.031044963747262955,
                    -0.006034411955624819
                ]
            ],
            [
                [
                    0.03715033456683159,
                    0.029767442494630814,
                    -0.04288812354207039
                ],
                [
                    -0.09245801717042923,
                    0.08126701414585114,
                    0.05397007241845131
                ],
                [
                    -0.01556287333369255,
                    0.06651122123003006,
                    0.035675156861543655
                ]
            ],
            [
                [
                    -0.0821891650557518,
                    -0.07116705924272537,
                    -0.0846952348947525
                ],
                [
                    -0.031571537256240845,
                    0.0026136795058846474,
                    -0.028713619336485863
                ],
                [
                    0.02481020800769329,
                    0.09660879522562027,
                    0.048154670745134354
                ]
            ],
            [
                [
                    0.023280195891857147,
                    0.010362433269619942,
                    0.05031021311879158
                ],
                [
                    0.09072382003068924,
                    0.1510729193687439,
                    0.045312054455280304
                ],
                [
                    -0.11139959841966629,
                    -0.0996139794588089,
                    -0.019311875104904175
                ]
            ],
            [
                [
                    0.05825136601924896,
                    -0.1286490261554718,
                    0.05335015803575516
                ],
                [
                    0.0020880165975540876,
                    -0.14976279437541962,
                    -0.020838754251599312
                ],
                [
                    0.07367367297410965,
                    0.11211346089839935,
                    -0.054123517125844955
                ]
            ],
            [
                [
                    0.04008188843727112,
                    0.01035177893936634,
                    -0.013760342262685299
                ],
                [
                    -0.02369195967912674,
                    -0.15459813177585602,
                    -0.06113490089774132
                ],
                [
                    -0.0553191639482975,
                    0.022345297038555145,
                    0.08218315243721008
                ]
            ],
            [
                [
                    0.031112011522054672,
                    -0.005650925450026989,
                    -0.04141176864504814
                ],
                [
                    0.05783088877797127,
                    0.0018320605158805847,
                    0.006303147412836552
                ],
                [
                    0.03191470727324486,
                    -0.010852833278477192,
                    0.007291627116501331
                ]
            ],
            [
                [
                    0.03271288052201271,
                    -0.009819896891713142,
                    0.07471588253974915
                ],
                [
                    0.1015244647860527,
                    0.022767199203372,
                    0.03049943968653679
                ],
                [
                    -0.10529821366071701,
                    -0.1697625070810318,
                    -0.04189102351665497
                ]
            ],
            [
                [
                    0.039802614599466324,
                    0.034518104046583176,
                    0.052020199596881866
                ],
                [
                    0.0485164038836956,
                    -0.007145007140934467,
                    0.07334158569574356
                ],
                [
                    -0.11743620783090591,
                    -0.17298799753189087,
                    -0.041883744299411774
                ]
            ],
            [
                [
                    0.10706883668899536,
                    0.08169184625148773,
                    0.14841781556606293
                ],
                [
                    0.07651714980602264,
                    0.12829813361167908,
                    0.08548002690076828
                ],
                [
                    -0.20148488879203796,
                    -0.09393112361431122,
                    0.055760372430086136
                ]
            ],
            [
                [
                    0.1051483154296875,
                    0.00813741609454155,
                    0.14034782350063324
                ],
                [
                    0.052824702113866806,
                    -0.1356487274169922,
                    0.09472636133432388
                ],
                [
                    -0.06223751977086067,
                    -0.028992081061005592,
                    0.003027980914339423
                ]
            ],
            [
                [
                    0.15579365193843842,
                    0.1843038648366928,
                    0.25992316007614136
                ],
                [
                    0.22977690398693085,
                    0.2875922620296478,
                    0.3243158757686615
                ],
                [
                    0.007012848276644945,
                    0.04620591551065445,
                    0.24437324702739716
                ]
            ],
            [
                [
                    0.2585408389568329,
                    0.32713621854782104,
                    0.25774043798446655
                ],
                [
                    0.1583598405122757,
                    0.2018699049949646,
                    0.12550455331802368
                ],
                [
                    -0.06440896540880203,
                    -0.03415515646338463,
                    -0.010124653577804565
                ]
            ],
            [
                [
                    0.021622462198138237,
                    0.0020419741049408913,
                    0.003631135681644082
                ],
                [
                    0.17166204750537872,
                    0.07462521642446518,
                    0.05103804171085358
                ],
                [
                    -0.023354018107056618,
                    -0.052114199846982956,
                    0.08152974396944046
                ]
            ],
            [
                [
                    -0.039623234421014786,
                    -0.03031819500029087,
                    -0.00020155077800154686
                ],
                [
                    -0.07126495987176895,
                    -0.0760829895734787,
                    0.02204238437116146
                ],
                [
                    -0.11614393442869186,
                    -0.05105464532971382,
                    0.040897540748119354
                ]
            ],
            [
                [
                    -0.017137112095952034,
                    0.05497307702898979,
                    -0.0016802869504317641
                ],
                [
                    -0.030810773372650146,
                    0.062059979885816574,
                    -0.019539853557944298
                ],
                [
                    -0.020966297015547752,
                    0.05803298577666283,
                    -0.04808889701962471
                ]
            ],
            [
                [
                    -0.017759324982762337,
                    0.0669332966208458,
                    0.033770766109228134
                ],
                [
                    0.030051959678530693,
                    0.08709839731454849,
                    0.06115970015525818
                ],
                [
                    -0.08918040990829468,
                    -0.04726699739694595,
                    0.009347125887870789
                ]
            ],
            [
                [
                    -0.016359353438019753,
                    0.024918455630540848,
                    0.0031819618307054043
                ],
                [
                    0.08954185992479324,
                    -0.04281612113118172,
                    0.009713897481560707
                ],
                [
                    -0.06143933907151222,
                    -0.1897837519645691,
                    -0.0779234915971756
                ]
            ],
            [
                [
                    0.050435855984687805,
                    0.03227981925010681,
                    -0.03822848200798035
                ],
                [
                    -0.03591387718915939,
                    -0.02506822906434536,
                    -0.051480792462825775
                ],
                [
                    -0.004445365630090237,
                    0.03278413787484169,
                    -0.029627980664372444
                ]
            ]
        ],
        [
            [
                [
                    0.0020382327493280172,
                    -0.0061093103140592575,
                    -0.0185592919588089
                ],
                [
                    0.07329673320055008,
                    0.051938995718955994,
                    0.0048504360020160675
                ],
                [
                    0.0650564432144165,
                    0.11445467919111252,
                    0.03292965143918991
                ]
            ],
            [
                [
                    0.027829932048916817,
                    0.039629679173231125,
                    -0.04430783540010452
                ],
                [
                    0.008134731091558933,
                    0.08220554143190384,
                    -0.014531636610627174
                ],
                [
                    -0.07666973769664764,
                    -0.059387482702732086,
                    -0.06403204053640366
                ]
            ],
            [
                [
                    0.025291549041867256,
                    0.044704776257276535,
                    -0.0176511500030756
                ],
                [
                    0.0074525997042655945,
                    0.004236301872879267,
                    -0.0435849130153656
                ],
                [
                    -0.003441684180870652,
                    -0.033777426928281784,
                    -0.01766229420900345
                ]
            ],
            [
                [
                    0.17766137421131134,
                    -0.022718749940395355,
                    -0.16549907624721527
                ],
                [
                    -0.037389110773801804,
                    0.07643251866102219,
                    0.02758924849331379
                ],
                [
                    0.08589503169059753,
                    0.17470182478427887,
                    0.025844477117061615
                ]
            ],
            [
                [
                    -0.16721291840076447,
                    -0.017014550045132637,
                    0.017444908618927002
                ],
                [
                    -0.03279886394739151,
                    -0.06267303973436356,
                    -0.06664430350065231
                ],
                [
                    -0.01915072277188301,
                    -0.187261164188385,
                    -0.13369545340538025
                ]
            ],
            [
                [
                    -0.08894865959882736,
                    0.027956075966358185,
                    0.1236327737569809
                ],
                [
                    -0.05521802976727486,
                    -0.07597869634628296,
                    -0.0318051315844059
                ],
                [
                    -0.09841635823249817,
                    -0.08295156061649323,
                    -0.014016003347933292
                ]
            ],
            [
                [
                    -0.015254806727170944,
                    -0.0010063278023153543,
                    -0.031362760812044144
                ],
                [
                    0.13746954500675201,
                    0.018672406673431396,
                    -0.21552278101444244
                ],
                [
                    0.07880448549985886,
                    0.0357421450316906,
                    -0.050490669906139374
                ]
            ],
            [
                [
                    -0.04661412164568901,
                    0.02517692558467388,
                    0.020968088880181313
                ],
                [
                    0.034113869071006775,
                    -0.024109678342938423,
                    0.07312873005867004
                ],
                [
                    0.14099450409412384,
                    -0.10875343531370163,
                    -0.059770964086055756
                ]
            ],
            [
                [
                    -0.02290346845984459,
                    -0.08973341435194016,
                    0.09134411811828613
                ],
                [
                    0.029014673084020615,
                    -0.04511373117566109,
                    0.07208653539419174
                ],
                [
                    -0.011039619334042072,
                    0.0411236397922039,
                    0.01868458464741707
                ]
            ],
            [
                [
                    -0.16353663802146912,
                    -0.10197354108095169,
                    -0.06287095695734024
                ],
                [
                    -0.04953892156481743,
                    0.01961849257349968,
                    -0.07360800355672836
                ],
                [
                    -0.07431835681200027,
                    -0.04879067465662956,
                    -0.1275603324174881
                ]
            ],
            [
                [
                    0.03839993104338646,
                    0.023576734587550163,
                    0.010939295403659344
                ],
                [
                    -0.0014898065710440278,
                    -0.01777653582394123,
                    0.15333779156208038
                ],
                [
                    -0.11888226121664047,
                    -0.06452801823616028,
                    0.0295440461486578
                ]
            ],
            [
                [
                    -0.04688914865255356,
                    -0.030037229880690575,
                    -0.09733950346708298
                ],
                [
                    0.06825342029333115,
                    0.06942493468523026,
                    -0.035108961164951324
                ],
                [
                    0.046380896121263504,
                    0.041121866554021835,
                    -0.009194059297442436
                ]
            ],
            [
                [
                    -0.0587843656539917,
                    -0.07973897457122803,
                    0.05084868147969246
                ],
                [
                    0.0593913272023201,
                    0.0534895621240139,
                    0.10910095274448395
                ],
                [
                    0.04189209267497063,
                    -0.09262850135564804,
                    -0.03808887302875519
                ]
            ],
            [
                [
                    -0.06565540283918381,
                    -0.11147035658359528,
                    0.02793760970234871
                ],
                [
                    -0.04723909869790077,
                    0.06329835206270218,
                    0.06122072786092758
                ],
                [
                    -0.05246555060148239,
                    0.10557887703180313,
                    -0.004095545969903469
                ]
            ],
            [
                [
                    -0.09992273151874542,
                    0.02292509190738201,
                    0.24870015680789948
                ],
                [
                    -0.00772759597748518,
                    0.1265554577112198,
                    0.23030132055282593
                ],
                [
                    -0.050209447741508484,
                    0.05186275765299797,
                    0.11199238151311874
                ]
            ],
            [
                [
                    0.14879216253757477,
                    0.04904654622077942,
                    -0.09588870406150818
                ],
                [
                    -0.03190327063202858,
                    -0.02037057839334011,
                    0.08134612441062927
                ],
                [
                    0.046365607529878616,
                    -0.007799720857292414,
                    0.08422135561704636
                ]
            ],
            [
                [
                    0.034585099667310715,
                    0.08448672294616699,
                    0.15196043252944946
                ],
                [
                    0.027906347066164017,
                    0.10442472994327545,
                    0.26923230290412903
                ],
                [
                    0.1395268440246582,
                    0.004745925310999155,
                    0.2274031788110733
                ]
            ],
            [
                [
                    0.0014502049889415503,
                    0.04193523898720741,
                    0.1323913186788559
                ],
                [
                    0.11004970967769623,
                    0.1260194480419159,
                    0.07831946760416031
                ],
                [
                    0.06031094491481781,
                    -0.03891930729150772,
                    0.01921476237475872
                ]
            ],
            [
                [
                    0.007999359630048275,
                    -0.04102140665054321,
                    -0.10208448767662048
                ],
                [
                    0.038362808525562286,
                    -0.12818458676338196,
                    -0.030720196664333344
                ],
                [
                    -0.06333816796541214,
                    0.06818445026874542,
                    0.06479394435882568
                ]
            ],
            [
                [
                    0.0783010870218277,
                    0.03780904784798622,
                    -0.07968983799219131
                ],
                [
                    -0.01210321206599474,
                    0.13757212460041046,
                    -0.051453378051519394
                ],
                [
                    -0.10187277942895889,
                    0.02478213422000408,
                    -0.045846566557884216
                ]
            ],
            [
                [
                    0.005401221103966236,
                    0.09289596229791641,
                    0.08288828283548355
                ],
                [
                    0.022454911842942238,
                    0.02808322012424469,
                    -0.07772056758403778
                ],
                [
                    0.039891116321086884,
                    0.07043282687664032,
                    -0.02433827519416809
                ]
            ],
            [
                [
                    -0.09018515795469284,
                    0.0002732618304435164,
                    0.08626317232847214
                ],
                [
                    0.006911782547831535,
                    0.0715864822268486,
                    0.0968143492937088
                ],
                [
                    0.030686507001519203,
                    -0.005683497060090303,
                    0.0994844064116478
                ]
            ],
            [
                [
                    -0.0320444330573082,
                    -0.074183389544487,
                    0.03217146918177605
                ],
                [
                    -0.02452552691102028,
                    -0.016187569126486778,
                    0.044460952281951904
                ],
                [
                    -0.10562083125114441,
                    -0.10039817541837692,
                    -0.048367515206336975
                ]
            ],
            [
                [
                    0.03396236523985863,
                    -0.02955533005297184,
                    0.024667594581842422
                ],
                [
                    0.050534941256046295,
                    -0.02205481380224228,
                    0.03184371069073677
                ],
                [
                    -0.05214348062872887,
                    0.033309582620859146,
                    0.020149359479546547
                ]
            ]
        ],
        [
            [
                [
                    -0.06649164855480194,
                    -0.03724464774131775,
                    -0.057454101741313934
                ],
                [
                    0.014209122397005558,
                    0.08657984435558319,
                    0.04416631534695625
                ],
                [
                    0.05801310017704964,
                    0.043128274381160736,
                    0.021731356158852577
                ]
            ],
            [
                [
                    0.01707741804420948,
                    0.011304243467748165,
                    0.01956956647336483
                ],
                [
                    0.025589391589164734,
                    0.12009105831384659,
                    0.10554717481136322
                ],
                [
                    0.05094979703426361,
                    0.061713188886642456,
                    0.05270390957593918
                ]
            ],
            [
                [
                    -0.09337220340967178,
                    0.022315332666039467,
                    0.0714326798915863
                ],
                [
                    -0.02660328336060047,
                    0.03419748321175575,
                    0.12643449008464813
                ],
                [
                    -0.09361319988965988,
                    -0.06025606766343117,
